{"learner":{"attributes":{"scikit_learn":"{\"_estimator_type\": \"classifier\"}"},"feature_names":["patient_id","age","gender","insurance_type","balance_due","num_reminders_sent","last_payment_days","income_bracket","visit_type","chronic_condition","employment_status","has_payment_plan","state","payment_method","billing_channel","visit_month","credit_score","medical_specialty","claim_amount","payer_coverage_ratio","discount_offered","outstanding_balance_ratio","reminder_channel_effectiveness","patient_engagement_score","days_in_ar"],"feature_types":["int","int","int","int","float","int","int","int","int","i","int","i","int","int","int","int","int","int","float","float","float","float","float","float","int"],"gradient_booster":{"model":{"gbtree_model_param":{"num_parallel_tree":"1","num_trees":"300"},"iteration_indptr":[0,1,2,3,4,5,6,7,8,9,10,11,12,13,14,15,16,17,18,19,20,21,22,23,24,25,26,27,28,29,30,31,32,33,34,35,36,37,38,39,40,41,42,43,44,45,46,47,48,49,50,51,52,53,54,55,56,57,58,59,60,61,62,63,64,65,66,67,68,69,70,71,72,73,74,75,76,77,78,79,80,81,82,83,84,85,86,87,88,89,90,91,92,93,94,95,96,97,98,99,100,101,102,103,104,105,106,107,108,109,110,111,112,113,114,115,116,117,118,119,120,121,122,123,124,125,126,127,128,129,130,131,132,133,134,135,136,137,138,139,140,141,142,143,144,145,146,147,148,149,150,151,152,153,154,155,156,157,158,159,160,161,162,163,164,165,166,167,168,169,170,171,172,173,174,175,176,177,178,179,180,181,182,183,184,185,186,187,188,189,190,191,192,193,194,195,196,197,198,199,200,201,202,203,204,205,206,207,208,209,210,211,212,213,214,215,216,217,218,219,220,221,222,223,224,225,226,227,228,229,230,231,232,233,234,235,236,237,238,239,240,241,242,243,244,245,246,247,248,249,250,251,252,253,254,255,256,257,258,259,260,261,262,263,264,265,266,267,268,269,270,271,272,273,274,275,276,277,278,279,280,281,282,283,284,285,286,287,288,289,290,291,292,293,294,295,296,297,298,299,300],"tree_info":[0,0,0,0,0,0,0,0,0,0,0,0,0,0,0,0,0,0,0,0,0,0,0,0,0,0,0,0,0,0,0,0,0,0,0,0,0,0,0,0,0,0,0,0,0,0,0,0,0,0,0,0,0,0,0,0,0,0,0,0,0,0,0,0,0,0,0,0,0,0,0,0,0,0,0,0,0,0,0,0,0,0,0,0,0,0,0,0,0,0,0,0,0,0,0,0,0,0,0,0,0,0,0,0,0,0,0,0,0,0,0,0,0,0,0,0,0,0,0,0,0,0,0,0,0,0,0,0,0,0,0,0,0,0,0,0,0,0,0,0,0,0,0,0,0,0,0,0,0,0,0,0,0,0,0,0,0,0,0,0,0,0,0,0,0,0,0,0,0,0,0,0,0,0,0,0,0,0,0,0,0,0,0,0,0,0,0,0,0,0,0,0,0,0,0,0,0,0,0,0,0,0,0,0,0,0,0,0,0,0,0,0,0,0,0,0,0,0,0,0,0,0,0,0,0,0,0,0,0,0,0,0,0,0,0,0,0,0,0,0,0,0,0,0,0,0,0,0,0,0,0,0,0,0,0,0,0,0,0,0,0,0,0,0,0,0,0,0,0,0,0,0,0,0,0,0,0,0,0,0,0,0,0,0,0,0,0,0,0,0,0,0,0,0,0,0,0,0,0,0],"trees":[{"base_weights":[-2.908191E-3,-3.4792253E-1,3.45466E-1,-5.7395655E-1,-8.400878E-3,1.592847E-1,6.2775254E-1,-7.5487536E-1,-2.7485186E-1,-2.349918E-1,3.5584822E-1,3.0608344E-1,-1.8361087E-1,4.6679693E-1,8.7584865E-1,-6.321548E-1,-1.0461199E0,-1.3088842E-1,-6.3642293E-1,-6.776784E-2,-6.336192E-1,6.378348E-1,1.5308988E-1,1.2586327E-1,5.848598E-1,-3.5211793E-1,9.1603816E-2,5.9910536E-1,1.4809002E-1,9.8738104E-1,6.060966E-1,-8.498104E-1,-5.0908655E-1,-8.135576E-1,-1.2491632E0,-2.148822E-2,-2.9897544E-1,-4.5982707E-1,-1.0274906E0,-3.147717E-1,2.8867152E-2,-5.208551E-1,-1.3431487E0,5.53608E-1,8.8293654E-1,4.2276725E-1,-3.7137706E-2,2.5351807E-1,-1.3216884E-1,7.59164E-1,3.349804E-1,-1.5333593E-1,-5.295334E-1,-1.9649036E-1,1.9716066E-1,7.657429E-1,4.074921E-1,5.111284E-1,-1.1885845E-1,1.1223626E0,7.014916E-1,8.3107406E-1,3.819115E-1,-2.5115466E-2,-6.3633986E-2,-2.9375065E-2,-1.7575078E-2,-5.6262072E-2,-3.5302147E-2,-8.040731E-2,-5.4333605E-2,2.7284756E-2,-2.4865433E-3,-2.876064E-2,-3.8650564E-3,2.6291696E-2,-3.0647067E-2,-3.859511E-2,-9.607325E-2,-3.0842105E-2,-2.8829013E-3,4.4480306E-3,-2.1459086E-2,7.65791E-3,-2.9709566E-2,-7.171836E-2,3.7176542E-2,3.200539E-2,3.9812666E-3,2.6499486E-2,5.147287E-2,-1.8012527E-2,2.456241E-2,7.214386E-3,-2.3543436E-2,1.04167005E-2,3.325263E-2,1.2370318E-2,-3.146628E-2,8.572556E-3,3.9571404E-2,-7.073576E-4,2.9209359E-2,-2.1053047E-3,-2.560143E-2,-4.1949986E-3,-4.0024243E-2,4.856128E-3,-4.187309E-2,5.2361917E-3,3.080057E-2,3.413215E-2,4.4725057E-2,3.1019865E-2,4.1321176E-3,4.307046E-2,1.3146688E-2,3.5286471E-3,-2.1485437E-2,5.6423187E-2,2.9722566E-3,4.8049763E-2,1.360998E-2,4.527452E-2,7.6296786E-3,5.178494E-3,3.520726E-2],"categories":[],"categories_nodes":[],"categories_segments":[],"categories_sizes":[],"default_left":[0,0,0,0,0,0,0,0,0,0,0,0,0,0,0,0,0,0,0,0,0,0,0,0,0,0,0,0,0,0,0,0,0,0,0,0,0,0,0,0,0,0,0,0,0,0,0,0,0,0,0,0,0,0,0,0,0,0,0,0,0,0,0,0,0,0,0,0,0,0,0,0,0,0,0,0,0,0,0,0,0,0,0,0,0,0,0,0,0,0,0,0,0,0,0,0,0,0,0,0,0,0,0,0,0,0,0,0,0,0,0,0,0,0,0,0,0,0,0,0,0,0,0,0,0,0,0],"id":0,"left_children":[1,3,5,7,9,11,13,15,17,19,21,23,25,27,29,31,33,35,37,39,41,43,45,47,49,51,53,55,57,59,61,63,65,67,69,71,73,75,77,79,81,83,85,87,89,91,93,95,97,99,101,103,105,107,109,111,113,115,117,119,121,123,125,-1,-1,-1,-1,-1,-1,-1,-1,-1,-1,-1,-1,-1,-1,-1,-1,-1,-1,-1,-1,-1,-1,-1,-1,-1,-1,-1,-1,-1,-1,-1,-1,-1,-1,-1,-1,-1,-1,-1,-1,-1,-1,-1,-1,-1,-1,-1,-1,-1,-1,-1,-1,-1,-1,-1,-1,-1,-1,-1,-1,-1,-1,-1,-1],"loss_changes":[8.1797046E2,2.6239563E2,1.7786792E2,1.10868225E2,1.1295536E2,1.0283304E2,5.3317627E1,4.5032104E1,4.026835E1,5.619748E1,2.991146E1,7.177544E1,2.8446844E1,3.4411453E1,1.5295013E1,2.3727936E1,1.68078E1,1.021227E1,1.4755409E1,1.4222661E1,1.92398E1,4.036873E0,1.5746351E1,2.8685577E1,2.4190231E1,1.3328442E1,7.1387434E0,1.8137817E1,2.3449934E1,1.3573883E1,7.6070213E0,4.7014847E1,6.944168E0,5.197609E0,9.898682E0,5.436562E0,1.3366575E1,2.3520576E1,1.4005119E1,1.2976568E1,1.1845029E1,1.0800953E1,7.451008E0,6.748253E0,2.2669144E0,6.9823475E0,1.4289211E1,1.0689018E1,5.460958E1,6.118454E0,2.0229086E1,7.188911E0,2.4142952E1,1.1957799E1,6.570352E0,2.684021E0,1.8685287E1,8.680685E0,8.267635E0,1.5614624E0,1.333205E1,3.7783165E0,7.151434E0,0E0,0E0,0E0,0E0,0E0,0E0,0E0,0E0,0E0,0E0,0E0,0E0,0E0,0E0,0E0,0E0,0E0,0E0,0E0,0E0,0E0,0E0,0E0,0E0,0E0,0E0,0E0,0E0,0E0,0E0,0E0,0E0,0E0,0E0,0E0,0E0,0E0,0E0,0E0,0E0,0E0,0E0,0E0,0E0,0E0,0E0,0E0,0E0,0E0,0E0,0E0,0E0,0E0,0E0,0E0,0E0,0E0,0E0,0E0,0E0,0E0,0E0,0E0,0E0],"parents":[2147483647,0,0,1,1,2,2,3,3,4,4,5,5,6,6,7,7,8,8,9,9,10,10,11,11,12,12,13,13,14,14,15,15,16,16,17,17,18,18,19,19,20,20,21,21,22,22,23,23,24,24,25,25,26,26,27,27,28,28,29,29,30,30,31,31,32,32,33,33,34,34,35,35,36,36,37,37,38,38,39,39,40,40,41,41,42,42,43,43,44,44,45,45,46,46,47,47,48,48,49,49,50,50,51,51,52,52,53,53,54,54,55,55,56,56,57,57,58,58,59,59,60,60,61,61,62,62],"right_children":[2,4,6,8,10,12,14,16,18,20,22,24,26,28,30,32,34,36,38,40,42,44,46,48,50,52,54,56,58,60,62,64,66,68,70,72,74,76,78,80,82,84,86,88,90,92,94,96,98,100,102,104,106,108,110,112,114,116,118,120,122,124,126,-1,-1,-1,-1,-1,-1,-1,-1,-1,-1,-1,-1,-1,-1,-1,-1,-1,-1,-1,-1,-1,-1,-1,-1,-1,-1,-1,-1,-1,-1,-1,-1,-1,-1,-1,-1,-1,-1,-1,-1,-1,-1,-1,-1,-1,-1,-1,-1,-1,-1,-1,-1,-1,-1,-1,-1,-1,-1,-1,-1,-1,-1,-1,-1],"split_conditions":[7.01E2,1E0,1E0,7.063306E-1,6.9682074E-1,1E0,6.888557E-1,1E0,1E0,1E0,8.379E3,6.9418913E-1,6.9418913E-1,1E0,1E0,5.97E-1,9.63489E3,1.224712E4,1.349482E4,5.53E-1,4.6E-1,6.61E2,2.38E-1,1.325788E4,1.149256E4,9.38234E3,5.58E-1,2.97E-1,8.04197E3,3.64E-1,1.056207E4,1.134411E4,2E0,1E0,5.62E-1,5.57E2,6.43E-1,7.402E3,8E0,5.2E1,6.5165323E-1,8.7E-2,4.884E4,6.44E2,3.5E1,4.324E3,1E0,9E0,3.07E-1,4.26E-1,6.25E-1,8.17E-1,2.27E-1,1.441405E4,4.1022E4,7.93E2,1.208704E4,4.5162958E-1,1.542683E4,1.19E2,1.185988E4,8.8E-1,6.92E-1,-2.5115466E-2,-6.3633986E-2,-2.9375065E-2,-1.7575078E-2,-5.6262072E-2,-3.5302147E-2,-8.040731E-2,-5.4333605E-2,2.7284756E-2,-2.4865433E-3,-2.876064E-2,-3.8650564E-3,2.6291696E-2,-3.0647067E-2,-3.859511E-2,-9.607325E-2,-3.0842105E-2,-2.8829013E-3,4.4480306E-3,-2.1459086E-2,7.65791E-3,-2.9709566E-2,-7.171836E-2,3.7176542E-2,3.200539E-2,3.9812666E-3,2.6499486E-2,5.147287E-2,-1.8012527E-2,2.456241E-2,7.214386E-3,-2.3543436E-2,1.04167005E-2,3.325263E-2,1.2370318E-2,-3.146628E-2,8.572556E-3,3.9571404E-2,-7.073576E-4,2.9209359E-2,-2.1053047E-3,-2.560143E-2,-4.1949986E-3,-4.0024243E-2,4.856128E-3,-4.187309E-2,5.2361917E-3,3.080057E-2,3.413215E-2,4.4725057E-2,3.1019865E-2,4.1321176E-3,4.307046E-2,1.3146688E-2,3.5286471E-3,-2.1485437E-2,5.6423187E-2,2.9722566E-3,4.8049763E-2,1.360998E-2,4.527452E-2,7.6296786E-3,5.178494E-3,3.520726E-2],"split_indices":[16,11,11,23,23,9,23,9,9,9,18,23,23,9,9,19,18,18,18,19,21,16,21,18,18,18,19,21,18,21,18,18,8,3,19,16,19,0,12,1,23,21,0,16,24,0,9,12,21,19,19,19,21,18,0,16,18,23,18,24,18,19,19,0,0,0,0,0,0,0,0,0,0,0,0,0,0,0,0,0,0,0,0,0,0,0,0,0,0,0,0,0,0,0,0,0,0,0,0,0,0,0,0,0,0,0,0,0,0,0,0,0,0,0,0,0,0,0,0,0,0,0,0,0,0,0,0],"split_type":[0,0,0,0,0,0,0,0,0,0,0,0,0,0,0,0,0,0,0,0,0,0,0,0,0,0,0,0,0,0,0,0,0,0,0,0,0,0,0,0,0,0,0,0,0,0,0,0,0,0,0,0,0,0,0,0,0,0,0,0,0,0,0,0,0,0,0,0,0,0,0,0,0,0,0,0,0,0,0,0,0,0,0,0,0,0,0,0,0,0,0,0,0,0,0,0,0,0,0,0,0,0,0,0,0,0,0,0,0,0,0,0,0,0,0,0,0,0,0,0,0,0,0,0,0,0,0],"sum_hessian":[6.8034136E3,3.4181904E3,3.3852231E3,2.0516375E3,1.3665531E3,2.0407902E3,1.344433E3,1.2774347E3,7.742028E2,8.4269E2,5.2386304E2,1.4290848E3,6.117053E2,8.171668E2,5.272662E2,9.009679E2,3.7646677E2,5.5470355E2,2.1949925E2,5.944772E2,2.4821283E2,2.182231E2,3.0563995E2,8.6885126E2,5.602336E2,3.7923175E2,2.3247354E2,5.768236E2,2.4034319E2,3.711494E2,1.5611671E2,3.232935E2,5.776744E2,1.7781142E2,1.9865533E2,3.3669315E2,2.180104E2,1.5271364E2,6.678563E1,1.6653868E2,4.2793848E2,2.1567078E2,3.254204E1,1.6483714E2,5.3385963E1,1.2591431E2,1.7972565E2,5.8129016E2,2.8756104E2,3.2882352E2,2.3141006E2,1.7972565E2,1.995061E2,6.210638E1,1.7036716E2,3.069161E2,2.6990753E2,1.014546E2,1.3888858E2,2.5012706E2,1.2102236E2,7.656951E1,7.954721E1,1.7866219E2,1.446313E2,3.83911E2,1.937634E2,4.3176697E1,1.3463472E2,5.9128677E1,1.3952666E2,1.5101209E1,3.2159195E2,9.634997E1,1.2166044E2,2.0205843E1,1.3250778E2,5.3385963E1,1.3399664E1,7.593143E1,9.0607254E1,3.7901907E2,4.8919407E1,2.1056616E1,1.9461417E2,3.1478577E1,1.0634654E0,1.3910127E2,2.5735863E1,1.7015446E1,3.6370518E1,9.783882E0,1.16130424E2,1.2719046E2,5.253519E1,5.251392E2,5.6150974E1,1.6334828E2,1.2421276E2,1.7440832E1,3.1138266E2,9.677535E1,1.3463472E2,1.3803781E2,4.1687843E1,7.593143E1,1.2357468E2,4.3176697E1,1.8929684E1,1.4059013E2,2.977703E1,1.903603E2,1.1655581E2,1.6249751E2,1.0741E2,4.1049763E1,6.0404835E1,8.677878E1,5.2109806E1,2.4863821E2,1.4888515E0,7.465527E1,4.6367092E1,6.869987E1,7.869644E0,4.338939E1,3.6157825E1],"tree_param":{"num_deleted":"0","num_feature":"25","num_nodes":"127","size_leaf_vector":"1"}},{"base_weights":[-1.04896E-3,-3.251155E-1,3.3037978E-1,-5.392658E-1,1.6361212E-3,4.8180228E-1,-3.205506E-1,-4.1730505E-1,-1.0540792E0,-2.0515698E-1,3.607219E-1,2.970746E-1,7.6550543E-1,6.765295E-2,-5.094282E-1,-8.986404E-2,-5.759192E-1,-1.5447725E0,-8.850957E-1,1.550604E-1,-3.9218006E-1,5.0907296E-1,-1.1804843E-1,5.864738E-1,1.5233657E-1,6.118809E-1,1.0096956E0,-9.716192E-2,4.0530166E-1,-7.4482137E-1,-1.5655832E-1,5.668794E-2,-4.251013E-1,-4.540432E-1,-8.6729926E-1,-1.1349747E0,-1.9788104E0,-7.0243365E-1,-1.3089174E0,2.1029335E-1,-6.230149E-1,-2.1886514E-1,-7.927722E-1,7.6727015E-1,3.7488493E-1,-3.2466018E-1,1.4339486E-1,7.510806E-1,1.8862066E-1,-2.3271946E-2,4.2298445E-1,7.4797237E-1,2.773142E-1,1.1058575E0,7.610515E-1,-3.0111545E-1,2.0003456E-1,2.7338302E-1,1.0494709E0,-1.0014833E0,-3.4923255E-1,3.978473E-2,-6.03393E-1,-5.641656E-3,1.5089479E-2,-2.7822305E-2,7.271077E-3,-2.9804975E-2,-1.1170834E-2,-4.9870882E-2,-2.8267672E-2,-9.03799E-2,-3.8783755E-2,-1.0348995E-1,-4.3442313E-2,-4.2908795E-2,-1.4030878E-2,-7.166787E-2,-3.034912E-2,1.5237095E-2,-1.1255285E-2,-5.1340263E-2,3.1756427E-2,-6.811996E-3,-3.9344136E-2,-2.8426578E-2,-6.591465E-2,4.042861E-2,-1.8766267E-2,3.7872285E-2,1.6223766E-2,-3.56814E-3,-4.1931022E-2,1.3232583E-2,-5.644192E-2,3.0149642E-2,4.894882E-2,4.105037E-3,3.0372852E-2,4.211265E-3,-1.2636204E-2,7.0463717E-3,2.7535973E-2,5.315277E-2,2.9224703E-2,2.904824E-2,5.7322155E-3,5.5693116E-2,-4.52781E-3,8.696127E-3,4.080656E-2,-1.0371129E-2,-6.0712766E-2,2.4619767E-2,-1.9733189E-2,3.570634E-2,3.3820965E-3,-1.1532669E-2,6.0157668E-2,-5.1834803E-2,2.9559782E-2,-2.1118546E-2,3.427196E-2,2.0221625E-2,-8.644328E-3,-4.220746E-2,7.906291E-3],"categories":[],"categories_nodes":[],"categories_segments":[],"categories_sizes":[],"default_left":[0,0,0,0,0,0,0,0,0,0,0,0,0,0,0,0,0,0,0,0,0,0,0,0,0,0,0,0,0,0,0,0,0,0,0,0,0,0,0,0,0,0,0,0,0,0,0,0,0,0,0,0,0,0,0,0,0,0,0,0,0,0,0,0,0,0,0,0,0,0,0,0,0,0,0,0,0,0,0,0,0,0,0,0,0,0,0,0,0,0,0,0,0,0,0,0,0,0,0,0,0,0,0,0,0,0,0,0,0,0,0,0,0,0,0,0,0,0,0,0,0,0,0,0,0,0,0],"id":1,"left_children":[1,3,5,7,9,11,13,15,17,19,21,23,25,27,29,31,33,35,37,39,41,43,45,47,49,51,53,55,57,59,61,63,65,67,69,71,73,75,77,79,81,83,85,87,89,91,93,95,97,99,101,103,105,107,109,111,113,115,117,119,121,123,125,-1,-1,-1,-1,-1,-1,-1,-1,-1,-1,-1,-1,-1,-1,-1,-1,-1,-1,-1,-1,-1,-1,-1,-1,-1,-1,-1,-1,-1,-1,-1,-1,-1,-1,-1,-1,-1,-1,-1,-1,-1,-1,-1,-1,-1,-1,-1,-1,-1,-1,-1,-1,-1,-1,-1,-1,-1,-1,-1,-1,-1,-1,-1,-1],"loss_changes":[7.3475995E2,2.4203574E2,3.3351254E2,1.3075336E2,1.0183748E2,1.4359088E2,4.6879044E1,8.777084E1,3.1762512E1,5.8689552E1,3.565621E1,6.9596375E1,3.9955383E1,1.1725059E1,3.5591675E1,2.7192436E1,4.0053192E1,1.5719803E1,2.2269638E1,1.2943481E1,3.9617973E1,1.2975273E1,6.4944744E0,3.615901E1,5.278299E1,3.0136307E1,9.108093E0,8.662312E0,5.5826845E0,2.5805588E1,1.5227034E1,1.6058344E1,1.2694639E1,2.6245438E1,1.2589905E1,1.1720436E1,3.019806E0,1.3652306E1,6.909012E0,1.1546866E1,1.0819386E1,1.8732937E1,1.960183E1,6.4362564E0,4.6495895E0,8.6602E0,8.534398E0,1.2630539E1,7.24699E0,1.665477E1,1.5666664E1,2.3749817E1,9.530234E0,2.9534912E0,3.714798E0,6.9825463E0,1.0340511E1,5.2730575E0,2.5180063E0,9.345062E0,8.076659E0,9.478784E0,9.843447E0,0E0,0E0,0E0,0E0,0E0,0E0,0E0,0E0,0E0,0E0,0E0,0E0,0E0,0E0,0E0,0E0,0E0,0E0,0E0,0E0,0E0,0E0,0E0,0E0,0E0,0E0,0E0,0E0,0E0,0E0,0E0,0E0,0E0,0E0,0E0,0E0,0E0,0E0,0E0,0E0,0E0,0E0,0E0,0E0,0E0,0E0,0E0,0E0,0E0,0E0,0E0,0E0,0E0,0E0,0E0,0E0,0E0,0E0,0E0,0E0,0E0,0E0,0E0,0E0],"parents":[2147483647,0,0,1,1,2,2,3,3,4,4,5,5,6,6,7,7,8,8,9,9,10,10,11,11,12,12,13,13,14,14,15,15,16,16,17,17,18,18,19,19,20,20,21,21,22,22,23,23,24,24,25,25,26,26,27,27,28,28,29,29,30,30,31,31,32,32,33,33,34,34,35,35,36,36,37,37,38,38,39,39,40,40,41,41,42,42,43,43,44,44,45,45,46,46,47,47,48,48,49,49,50,50,51,51,52,52,53,53,54,54,55,55,56,56,57,57,58,58,59,59,60,60,61,61,62,62],"right_children":[2,4,6,8,10,12,14,16,18,20,22,24,26,28,30,32,34,36,38,40,42,44,46,48,50,52,54,56,58,60,62,64,66,68,70,72,74,76,78,80,82,84,86,88,90,92,94,96,98,100,102,104,106,108,110,112,114,116,118,120,122,124,126,-1,-1,-1,-1,-1,-1,-1,-1,-1,-1,-1,-1,-1,-1,-1,-1,-1,-1,-1,-1,-1,-1,-1,-1,-1,-1,-1,-1,-1,-1,-1,-1,-1,-1,-1,-1,-1,-1,-1,-1,-1,-1,-1,-1,-1,-1,-1,-1,-1,-1,-1,-1,-1,-1,-1,-1,-1,-1,-1,-1,-1,-1,-1,-1],"split_conditions":[7.01E2,1E0,4.9992E3,4.9992E3,7.063306E-1,1E0,1E0,1E0,4.598548E-1,1E0,4.37566E3,1E0,6.9682074E-1,7.17003E-1,1E0,1E0,1E0,1.630604E4,1E0,8.552752E-1,1E0,1E0,6.32E2,1E0,6.9418913E-1,1E0,1E0,1E0,8.032276E-1,6.9895154E-1,1E0,6.9895154E-1,7.7085686E-1,6.9895154E-1,7.4964803E-1,1.301417E4,4.3878022E-1,8.184192E-1,4.0443E4,5.04591E3,1E1,5.96774E3,3.92117E3,1.884346E4,2.3E1,1E0,6.94E2,5E0,8.035244E-1,1E0,1.6E-1,1E0,5.22466E3,1.19E2,3.3832E2,8.37E2,1E0,3E0,3.15E-1,1.992401E4,1.960617E4,4.4E1,8.14E2,-5.641656E-3,1.5089479E-2,-2.7822305E-2,7.271077E-3,-2.9804975E-2,-1.1170834E-2,-4.9870882E-2,-2.8267672E-2,-9.03799E-2,-3.8783755E-2,-1.0348995E-1,-4.3442313E-2,-4.2908795E-2,-1.4030878E-2,-7.166787E-2,-3.034912E-2,1.5237095E-2,-1.1255285E-2,-5.1340263E-2,3.1756427E-2,-6.811996E-3,-3.9344136E-2,-2.8426578E-2,-6.591465E-2,4.042861E-2,-1.8766267E-2,3.7872285E-2,1.6223766E-2,-3.56814E-3,-4.1931022E-2,1.3232583E-2,-5.644192E-2,3.0149642E-2,4.894882E-2,4.105037E-3,3.0372852E-2,4.211265E-3,-1.2636204E-2,7.0463717E-3,2.7535973E-2,5.315277E-2,2.9224703E-2,2.904824E-2,5.7322155E-3,5.5693116E-2,-4.52781E-3,8.696127E-3,4.080656E-2,-1.0371129E-2,-6.0712766E-2,2.4619767E-2,-1.9733189E-2,3.570634E-2,3.3820965E-3,-1.1532669E-2,6.0157668E-2,-5.1834803E-2,2.9559782E-2,-2.1118546E-2,3.427196E-2,2.0221625E-2,-8.644328E-3,-4.220746E-2,7.906291E-3],"split_indices":[16,11,4,4,23,11,7,7,23,7,4,7,23,23,11,9,9,18,9,22,9,7,16,9,23,9,9,11,22,23,9,23,22,23,23,18,23,23,0,4,15,4,4,18,6,9,16,5,23,9,21,7,18,24,4,16,9,12,21,18,18,1,16,0,0,0,0,0,0,0,0,0,0,0,0,0,0,0,0,0,0,0,0,0,0,0,0,0,0,0,0,0,0,0,0,0,0,0,0,0,0,0,0,0,0,0,0,0,0,0,0,0,0,0,0,0,0,0,0,0,0,0,0,0,0,0,0],"split_type":[0,0,0,0,0,0,0,0,0,0,0,0,0,0,0,0,0,0,0,0,0,0,0,0,0,0,0,0,0,0,0,0,0,0,0,0,0,0,0,0,0,0,0,0,0,0,0,0,0,0,0,0,0,0,0,0,0,0,0,0,0,0,0,0,0,0,0,0,0,0,0,0,0,0,0,0,0,0,0,0,0,0,0,0,0,0,0,0,0,0,0,0,0,0,0,0,0,0,0,0,0,0,0,0,0,0,0,0,0,0,0,0,0,0,0,0,0,0,0,0,0,0,0,0,0,0,0],"sum_hessian":[6.8390234E3,3.4579277E3,3.381096E3,2.088495E3,1.3694326E3,2.7432158E3,6.3788007E2,1.6899514E3,3.9854367E2,8.6926324E2,5.001694E2,1.6626569E3,1.0805591E3,2.0898701E2,4.2889304E2,5.5199225E2,1.1379591E3,1.00005806E2,2.9853787E2,2.9713492E2,5.721283E2,3.818016E2,1.1836778E2,5.5329956E2,1.1093573E3,6.654304E2,4.1512866E2,1.4091505E2,6.807196E1,2.566054E2,1.7228766E2,3.8466388E2,1.6732835E2,8.041601E2,3.3379904E2,5.329867E1,4.6707134E1,2.1048064E2,8.805723E1,2.7812173E2,1.90132E1,4.0042993E2,1.716984E2,1.2895522E2,2.5284639E2,6.598208E1,5.2385704E1,3.9074564E2,1.6255391E2,6.733631E2,4.359942E2,4.7214194E2,1.9328845E2,2.968686E2,1.1826005E2,8.355889E1,5.7356163E1,5.7683437E1,1.0388524E1,1.5470175E2,1.0190364E2,1.20326225E2,5.1961426E1,2.2771068E2,1.569532E2,1.3603523E2,3.1293121E1,4.96656E2,3.075041E2,2.316641E2,1.0213496E2,1.7154278E1,3.6144394E1,4.2369205E1,4.337929E0,1.5296768E2,5.7512947E1,7.3911995E1,1.4145236E1,2.2879144E2,4.9330284E1,1.4532871E1,4.4803286E0,3.5066168E2,4.976825E1,1.2180559E2,4.9892807E1,1.2473856E2,4.2166567E0,2.7805264E1,2.2504112E2,4.4962063E1,2.1020012E1,4.855034E1,3.8353634E0,2.3905347E2,1.5169215E2,1.3054842E2,3.2005497E1,4.589705E2,2.143926E2,1.3655801E2,2.994362E2,1.5940569E2,3.1273627E2,6.652916E1,1.267593E2,2.949641E2,1.9044997E0,1.04992895E1,1.0776076E2,7.689611E1,6.662785E0,3.85678E1,1.8788364E1,1.7571127E1,4.0112312E1,1.0598106E0,9.328713E0,1.5169695E2,3.0048058E0,9.572861E1,6.175033E0,4.3993305E1,7.6332924E1,3.9397346E1,1.2564079E1],"tree_param":{"num_deleted":"0","num_feature":"25","num_nodes":"127","size_leaf_vector":"1"}},{"base_weights":[1.5759473E-3,-3.082471E-1,3.2255393E-1,-5.001616E-1,-1.1380553E-2,4.5312008E-1,-2.3999089E-1,-3.783899E-1,-9.6945935E-1,-2.0190084E-1,2.9216576E-1,2.8546542E-1,7.115738E-1,9.2563674E-2,-4.0012985E-1,-7.0726246E-2,-5.2485555E-1,-1.4868034E0,-8.2222813E-1,-4.4845432E-2,-5.7671386E-1,4.429318E-1,-1.5970322E-1,4.2951566E-1,-4.7838107E-2,9.8115253E-1,5.746137E-1,-2.2298284E-1,2.1543823E-1,-6.074726E-1,-8.416743E-2,-2.2272699E-1,1.6689809E-1,-6.703995E-1,-2.774511E-1,-1.5795264E0,-8.344798E-1,-6.668075E-1,-1.1882395E0,2.5271514E-1,-1.9634952E-1,-4.0757787E-1,-1.2315552E0,6.983844E-1,3.1219828E-1,7.313655E-2,-6.3467366E-1,7.490671E-1,2.705503E-1,-1.8980859E-1,1.9286893E-1,1.1133034E0,6.809157E-1,3.9706743E-1,8.5927635E-1,-8.8881856E-1,-6.130932E-2,7.298246E-1,1.2685576E-1,-8.1749165E-1,-2.820403E-1,8.493185E-2,-4.4508645E-1,-1.6357651E-2,6.1109303E-3,1.4723514E-2,-7.3997974E-3,-2.791875E-2,-4.6557903E-2,-7.972474E-3,-2.73219E-2,-8.704084E-2,-5.0513905E-2,-6.1409183E-2,2.0190535E-2,-4.147143E-2,-8.92697E-3,-6.663847E-2,-1.8588802E-2,1.45078E-2,-3.2291632E-2,-4.975642E-3,-3.563301E-2,-2.495936E-3,-2.9427955E-2,-1.350631E-2,-7.7925146E-2,4.4624683E-2,2.3292255E-2,1.6562281E-2,-5.4950695E-2,-6.0393065E-2,7.4032E-3,-4.310211E-2,1.859762E-2,3.1810246E-2,4.7222294E-2,5.242489E-3,2.6191408E-2,2.0573244E-3,-1.515518E-2,-1.0814398E-2,1.4185227E-2,5.1334333E-2,6.218487E-2,3.752516E-2,8.901597E-4,2.5769824E-2,4.2643514E-3,4.804998E-2,2.9502956E-2,-9.363065E-4,-6.8804584E-2,-8.91346E-3,4.821913E-2,4.1559685E-2,-2.4443E-2,-5.591476E-3,1.5665272E-2,-2.6735608E-2,-5.2792024E-2,-2.2090275E-3,-4.633543E-2,-1.5290077E-2,1.5089288E-2,-2.6721377E-2,4.12303E-2],"categories":[],"categories_nodes":[],"categories_segments":[],"categories_sizes":[],"default_left":[0,0,0,0,0,0,0,0,0,0,0,0,0,0,0,0,0,0,0,0,0,0,0,0,0,0,0,0,0,0,0,0,0,0,0,0,0,0,0,0,0,0,0,0,0,0,0,0,0,0,0,0,0,0,0,0,0,0,0,0,0,0,0,0,0,0,0,0,0,0,0,0,0,0,0,0,0,0,0,0,0,0,0,0,0,0,0,0,0,0,0,0,0,0,0,0,0,0,0,0,0,0,0,0,0,0,0,0,0,0,0,0,0,0,0,0,0,0,0,0,0,0,0,0,0,0,0],"id":2,"left_children":[1,3,5,7,9,11,13,15,17,19,21,23,25,27,29,31,33,35,37,39,41,43,45,47,49,51,53,55,57,59,61,63,65,67,69,71,73,75,77,79,81,83,85,87,89,91,93,95,97,99,101,103,105,107,109,111,113,115,117,119,121,123,125,-1,-1,-1,-1,-1,-1,-1,-1,-1,-1,-1,-1,-1,-1,-1,-1,-1,-1,-1,-1,-1,-1,-1,-1,-1,-1,-1,-1,-1,-1,-1,-1,-1,-1,-1,-1,-1,-1,-1,-1,-1,-1,-1,-1,-1,-1,-1,-1,-1,-1,-1,-1,-1,-1,-1,-1,-1,-1,-1,-1,-1,-1,-1,-1],"loss_changes":[6.773952E2,1.9746619E2,2.4584079E2,1.199353E2,7.882201E1,1.17471375E2,3.363494E1,7.535504E1,3.1763092E1,4.9265408E1,3.5877563E1,7.9186874E1,3.886255E1,8.030086E0,2.7858505E1,1.9568708E1,4.062274E1,4.4100494E0,1.8512054E1,2.6700405E1,2.6874374E1,1.2952309E1,1.4669652E1,5.8285416E1,1.70712E1,1.3459442E1,3.5568375E1,6.209462E0,6.68206E0,1.7338875E1,1.0410498E1,1.1935055E1,8.54114E0,2.0303131E1,1.3290855E1,5.7514343E0,7.2754307E0,1.8946907E1,1.1289597E1,6.911952E0,1.9542406E1,1.2782669E1,1.5371994E1,5.5737915E0,7.4246044E0,8.781358E0,1.0299686E1,7.821106E0,3.228001E1,8.229912E0,6.9529495E0,1.5155334E0,5.159088E0,1.6168228E1,6.883621E0,4.7628126E0,5.917596E0,3.0787E0,5.733474E0,9.930214E0,1.5654058E1,9.969779E0,6.6097965E0,0E0,0E0,0E0,0E0,0E0,0E0,0E0,0E0,0E0,0E0,0E0,0E0,0E0,0E0,0E0,0E0,0E0,0E0,0E0,0E0,0E0,0E0,0E0,0E0,0E0,0E0,0E0,0E0,0E0,0E0,0E0,0E0,0E0,0E0,0E0,0E0,0E0,0E0,0E0,0E0,0E0,0E0,0E0,0E0,0E0,0E0,0E0,0E0,0E0,0E0,0E0,0E0,0E0,0E0,0E0,0E0,0E0,0E0,0E0,0E0,0E0,0E0,0E0,0E0],"parents":[2147483647,0,0,1,1,2,2,3,3,4,4,5,5,6,6,7,7,8,8,9,9,10,10,11,11,12,12,13,13,14,14,15,15,16,16,17,17,18,18,19,19,20,20,21,21,22,22,23,23,24,24,25,25,26,26,27,27,28,28,29,29,30,30,31,31,32,32,33,33,34,34,35,35,36,36,37,37,38,38,39,39,40,40,41,41,42,42,43,43,44,44,45,45,46,46,47,47,48,48,49,49,50,50,51,51,52,52,53,53,54,54,55,55,56,56,57,57,58,58,59,59,60,60,61,61,62,62],"right_children":[2,4,6,8,10,12,14,16,18,20,22,24,26,28,30,32,34,36,38,40,42,44,46,48,50,52,54,56,58,60,62,64,66,68,70,72,74,76,78,80,82,84,86,88,90,92,94,96,98,100,102,104,106,108,110,112,114,116,118,120,122,124,126,-1,-1,-1,-1,-1,-1,-1,-1,-1,-1,-1,-1,-1,-1,-1,-1,-1,-1,-1,-1,-1,-1,-1,-1,-1,-1,-1,-1,-1,-1,-1,-1,-1,-1,-1,-1,-1,-1,-1,-1,-1,-1,-1,-1,-1,-1,-1,-1,-1,-1,-1,-1,-1,-1,-1,-1,-1,-1,-1,-1,-1,-1,-1,-1],"split_conditions":[7.01E2,1E0,4.9992E3,4.84396E3,6.916192E-1,1E0,1E0,1E0,4.3878022E-1,1E0,4.41463E3,1E0,1E0,4.703037E-1,1E0,6.9895154E-1,7.0159525E-1,4.2959E4,1E0,1E0,4.9992E3,1E0,1E0,1E0,6.9418913E-1,1E0,6.9682074E-1,2.2E1,2.8E1,6.9895154E-1,1E0,7.635281E-1,1E0,1E0,1E0,7.235259E-1,8.2E1,8.184192E-1,4.0443E4,8.7645876E-1,5.46289E3,1E0,1E0,6.3222903E-1,6.99E2,7.11396E-1,6.72E2,7.11396E-1,6.9682074E-1,1E0,3.3E1,6.9418913E-1,9E0,1E0,1E0,5.051689E-1,4.3522E4,1.12E2,7.62E2,4.956981E-1,8.848357E-1,5.1865613E-1,8.38E2,-1.6357651E-2,6.1109303E-3,1.4723514E-2,-7.3997974E-3,-2.791875E-2,-4.6557903E-2,-7.972474E-3,-2.73219E-2,-8.704084E-2,-5.0513905E-2,-6.1409183E-2,2.0190535E-2,-4.147143E-2,-8.92697E-3,-6.663847E-2,-1.8588802E-2,1.45078E-2,-3.2291632E-2,-4.975642E-3,-3.563301E-2,-2.495936E-3,-2.9427955E-2,-1.350631E-2,-7.7925146E-2,4.4624683E-2,2.3292255E-2,1.6562281E-2,-5.4950695E-2,-6.0393065E-2,7.4032E-3,-4.310211E-2,1.859762E-2,3.1810246E-2,4.7222294E-2,5.242489E-3,2.6191408E-2,2.0573244E-3,-1.515518E-2,-1.0814398E-2,1.4185227E-2,5.1334333E-2,6.218487E-2,3.752516E-2,8.901597E-4,2.5769824E-2,4.2643514E-3,4.804998E-2,2.9502956E-2,-9.363065E-4,-6.8804584E-2,-8.91346E-3,4.821913E-2,4.1559685E-2,-2.4443E-2,-5.591476E-3,1.5665272E-2,-2.6735608E-2,-5.2792024E-2,-2.2090275E-3,-4.633543E-2,-1.5290077E-2,1.5089288E-2,-2.6721377E-2,4.12303E-2],"split_indices":[16,11,4,4,23,11,7,7,23,9,4,9,7,23,11,23,23,0,9,7,4,7,9,7,23,9,23,24,1,23,9,22,9,9,9,22,24,23,0,22,4,7,13,22,16,23,16,23,23,7,6,23,12,9,9,22,0,24,16,23,23,23,16,0,0,0,0,0,0,0,0,0,0,0,0,0,0,0,0,0,0,0,0,0,0,0,0,0,0,0,0,0,0,0,0,0,0,0,0,0,0,0,0,0,0,0,0,0,0,0,0,0,0,0,0,0,0,0,0,0,0,0,0,0,0,0,0],"split_type":[0,0,0,0,0,0,0,0,0,0,0,0,0,0,0,0,0,0,0,0,0,0,0,0,0,0,0,0,0,0,0,0,0,0,0,0,0,0,0,0,0,0,0,0,0,0,0,0,0,0,0,0,0,0,0,0,0,0,0,0,0,0,0,0,0,0,0,0,0,0,0,0,0,0,0,0,0,0,0,0,0,0,0,0,0,0,0,0,0,0,0,0,0,0,0,0,0,0,0,0,0,0,0,0,0,0,0,0,0,0,0,0,0,0,0,0,0,0,0,0,0,0,0,0,0,0,0],"sum_hessian":[6.809663E3,3.465062E3,3.3446008E3,2.1041277E3,1.3609344E3,2.7147131E3,6.298879E2,1.6720712E3,4.3205655E2,8.3634125E2,5.245932E2,1.6478708E3,1.0668422E3,2.0486806E2,4.2501984E2,5.397541E2,1.132317E3,9.370292E1,3.3835364E2,5.901671E2,2.4617413E2,3.933663E2,1.3122685E2,1.1503942E3,4.974767E2,3.5733517E2,7.09507E2,5.718923E1,1.4767883E2,2.560624E2,1.6895743E2,3.2922318E2,2.1053091E2,7.118422E2,4.2047482E2,8.079687E1,1.2906057E1,2.3948296E2,9.8870674E1,1.9888342E2,3.912837E2,1.9693188E2,4.924224E1,1.316943E2,2.6167203E2,8.862646E1,4.2600403E1,3.809327E2,7.694614E2,3.130496E2,1.8442712E2,2.462422E2,1.11092964E2,4.3844223E2,2.710648E2,1.0294555E1,4.6894676E1,2.0632097E1,1.2704674E2,1.5470859E2,1.0135382E2,1.1557325E2,5.338418E1,2.5275711E2,7.6466064E1,1.4987665E2,6.0654266E1,5.0012497E2,2.1171727E2,2.9336957E2,1.27105255E2,6.135459E1,1.9442274E1,9.79878E0,3.1072764E0,1.791253E2,6.035765E1,8.3463615E1,1.54070635E1,1.915778E2,7.30562E0,3.3049115E2,6.0792545E1,6.659707E1,1.3033482E2,1.2959493E1,3.628275E1,7.023146E1,6.1462845E1,2.5894232E2,2.7296987E0,4.061891E0,8.456456E1,3.486827E1,7.732132E0,2.4415228E2,1.3678041E2,4.6600412E2,3.034573E2,1.0323628E2,2.098133E2,3.3254692E1,1.5117242E2,1.5328995E2,9.2952255E1,1.0042275E2,1.0670206E1,3.1734735E2,1.2109488E2,1.948656E2,7.6199196E1,4.068365E0,6.2261896E0,4.2836246E1,4.058431E0,1.9341267E1,1.2908305E0,5.589388E1,7.1152855E1,7.224261E1,8.246598E1,7.481739E1,2.6536434E1,4.110284E1,7.4470406E1,5.041579E1,2.9683843E0],"tree_param":{"num_deleted":"0","num_feature":"25","num_nodes":"127","size_leaf_vector":"1"}},{"base_weights":[-4.3507392E-4,-2.8067607E-1,2.934895E-1,-4.5718202E-1,-7.889953E-3,1.2117749E-1,5.595826E-1,-6.0941327E-1,-2.0137799E-1,-1.8990226E-1,2.8666112E-1,4.084376E-1,-1.826075E-2,3.9927554E-1,8.25474E-1,-3.3620176E-1,-7.386447E-1,-3.668035E-1,7.917269E-2,-3.2651667E-2,-5.5029184E-1,5.559053E-1,1.02302976E-1,5.5288386E-1,6.0383234E-2,-1.5656644E-1,2.0120873E-1,7.004766E-1,2.4200247E-1,9.46855E-1,5.4138047E-1,-1.3884611E-1,-4.59024E-1,-6.430454E-1,-1.0055116E0,-1.0036106E-1,-4.9496123E-1,2.8640625E-1,-3.9866135E-1,2.1913387E-1,-1.655242E-1,-4.4449303E-1,-1.1846278E0,7.9857767E-1,4.3630078E-1,2.6650804E-1,-2.708474E-1,3.5220543E-1,7.398921E-1,-8.8632315E-2,3.1028336E-1,-5.2888308E-2,-3.790628E-1,3.455899E-1,-1.1881043E-1,3.520564E-1,8.6524963E-1,3.7702623E-1,-2.7767591E-2,1.082973E0,6.5189457E-1,7.9953486E-1,2.807951E-1,-1.3903404E-2,7.3283934E-3,-1.7841423E-2,-4.9021747E-2,-3.0387817E-2,-6.2031936E-2,-3.2364793E-2,-6.5049544E-2,-5.377471E-4,-3.8831796E-2,-1.8440844E-2,-3.9235324E-2,1.6941303E-2,-1.87383E-2,7.362056E-3,-3.0139903E-2,2.2926118E-2,2.856371E-3,-3.5229528E-3,-2.1520767E-2,-2.811915E-2,-3.4008306E-3,-2.6437318E-2,-7.666E-2,1.7060561E-2,4.5704197E-2,7.3802965E-3,2.9904643E-2,2.1685999E-2,1.6467822E-3,2.71226E-3,-3.0579275E-2,2.989166E-2,2.7394032E-3,3.0288303E-2,4.6781685E-2,-1.6755022E-2,8.947536E-3,1.0313286E-2,5.1703412E-2,3.2773248E-3,-1.2319045E-2,-1.3627536E-2,-4.1962836E-2,2.3812385E-2,7.6572335E-4,9.973026E-3,-2.9860994E-2,2.3864724E-2,-5.0469767E-2,4.935681E-2,3.024359E-2,2.5289545E-2,1.967933E-3,1.3773734E-2,-2.435692E-2,-8.408236E-3,5.4506667E-2,4.488583E-2,1.0315799E-2,1.6118532E-2,4.6763938E-2,2.1209627E-2,-1.7027784E-2],"categories":[],"categories_nodes":[],"categories_segments":[],"categories_sizes":[],"default_left":[0,0,0,0,0,0,0,0,0,0,0,0,0,0,0,0,0,0,0,0,0,0,0,0,0,0,0,0,0,0,0,0,0,0,0,0,0,0,0,0,0,0,0,0,0,0,0,0,0,0,0,0,0,0,0,0,0,0,0,0,0,0,0,0,0,0,0,0,0,0,0,0,0,0,0,0,0,0,0,0,0,0,0,0,0,0,0,0,0,0,0,0,0,0,0,0,0,0,0,0,0,0,0,0,0,0,0,0,0,0,0,0,0,0,0,0,0,0,0,0,0,0,0,0,0,0,0],"id":3,"left_children":[1,3,5,7,9,11,13,15,17,19,21,23,25,27,29,31,33,35,37,39,41,43,45,47,49,51,53,55,57,59,61,63,65,67,69,71,73,75,77,79,81,83,85,87,89,91,93,95,97,99,101,103,105,107,109,111,113,115,117,119,121,123,125,-1,-1,-1,-1,-1,-1,-1,-1,-1,-1,-1,-1,-1,-1,-1,-1,-1,-1,-1,-1,-1,-1,-1,-1,-1,-1,-1,-1,-1,-1,-1,-1,-1,-1,-1,-1,-1,-1,-1,-1,-1,-1,-1,-1,-1,-1,-1,-1,-1,-1,-1,-1,-1,-1,-1,-1,-1,-1,-1,-1,-1,-1,-1,-1],"loss_changes":[5.6004944E2,1.6758286E2,1.520929E2,8.216943E1,7.341665E1,8.07391E1,5.5255524E1,4.6510376E1,3.668876E1,4.7947014E1,2.590469E1,3.3081947E1,4.1247078E1,3.8461594E1,1.6369385E1,1.0289021E1,2.2269257E1,1.6924103E1,2.920934E1,1.978562E1,1.6724564E1,5.8149185E0,1.9169603E1,1.7204178E1,7.2633533E0,1.9207071E1,2.4314177E1,1.5725433E1,1.9581282E1,1.3012146E1,9.791477E0,6.60798E0,1.3655174E1,1.3250793E1,2.4045319E1,9.850806E0,1.1968925E1,7.2500763E0,1.0040162E1,7.8987846E0,9.714436E0,9.810574E0,7.45253E0,3.3280869E0,6.658598E0,8.458486E0,1.0638224E1,1.6505966E1,5.7337494E0,8.13906E0,5.2680364E0,1.3072073E1,1.2749493E1,1.5625656E1,2.5101173E1,1.6055103E1,5.3974304E0,1.5551704E1,2.5229092E1,2.2641602E0,1.1907314E1,4.5079803E0,6.8837457E0,0E0,0E0,0E0,0E0,0E0,0E0,0E0,0E0,0E0,0E0,0E0,0E0,0E0,0E0,0E0,0E0,0E0,0E0,0E0,0E0,0E0,0E0,0E0,0E0,0E0,0E0,0E0,0E0,0E0,0E0,0E0,0E0,0E0,0E0,0E0,0E0,0E0,0E0,0E0,0E0,0E0,0E0,0E0,0E0,0E0,0E0,0E0,0E0,0E0,0E0,0E0,0E0,0E0,0E0,0E0,0E0,0E0,0E0,0E0,0E0,0E0,0E0,0E0,0E0],"parents":[2147483647,0,0,1,1,2,2,3,3,4,4,5,5,6,6,7,7,8,8,9,9,10,10,11,11,12,12,13,13,14,14,15,15,16,16,17,17,18,18,19,19,20,20,21,21,22,22,23,23,24,24,25,25,26,26,27,27,28,28,29,29,30,30,31,31,32,32,33,33,34,34,35,35,36,36,37,37,38,38,39,39,40,40,41,41,42,42,43,43,44,44,45,45,46,46,47,47,48,48,49,49,50,50,51,51,52,52,53,53,54,54,55,55,56,56,57,57,58,58,59,59,60,60,61,61,62,62],"right_children":[2,4,6,8,10,12,14,16,18,20,22,24,26,28,30,32,34,36,38,40,42,44,46,48,50,52,54,56,58,60,62,64,66,68,70,72,74,76,78,80,82,84,86,88,90,92,94,96,98,100,102,104,106,108,110,112,114,116,118,120,122,124,126,-1,-1,-1,-1,-1,-1,-1,-1,-1,-1,-1,-1,-1,-1,-1,-1,-1,-1,-1,-1,-1,-1,-1,-1,-1,-1,-1,-1,-1,-1,-1,-1,-1,-1,-1,-1,-1,-1,-1,-1,-1,-1,-1,-1,-1,-1,-1,-1,-1,-1,-1,-1,-1,-1,-1,-1,-1,-1,-1,-1,-1,-1,-1,-1],"split_conditions":[7.01E2,1E0,1E0,7.039693E-1,6.916192E-1,1E0,6.9682074E-1,1E0,5E0,1E0,8.379E3,1E0,6.9418913E-1,1E0,1E0,2.34E-1,1.480187E4,1E0,1E0,1E0,4.6E-1,1E0,1E0,6.085213E-1,6.9895154E-1,1E0,1.393831E4,1E-1,3.69E-1,3.64E-1,1.048494E4,6.8E1,1.685417E4,6.842062E-1,2.7E-1,8.2E1,1.42438E4,8.5322124E-1,1.86E-1,1.8349E4,3.91E-1,6E0,1E0,3.5E1,3E0,3.18E-1,3E-1,1.119661E4,5E0,1.5E-1,4.3336E4,3.39E-1,4.26E-1,1E0,3.44E-1,8.5E1,1E0,1E0,1.231737E4,1E0,1.216801E4,2.53479E3,4.36E-1,-1.3903404E-2,7.3283934E-3,-1.7841423E-2,-4.9021747E-2,-3.0387817E-2,-6.2031936E-2,-3.2364793E-2,-6.5049544E-2,-5.377471E-4,-3.8831796E-2,-1.8440844E-2,-3.9235324E-2,1.6941303E-2,-1.87383E-2,7.362056E-3,-3.0139903E-2,2.2926118E-2,2.856371E-3,-3.5229528E-3,-2.1520767E-2,-2.811915E-2,-3.4008306E-3,-2.6437318E-2,-7.666E-2,1.7060561E-2,4.5704197E-2,7.3802965E-3,2.9904643E-2,2.1685999E-2,1.6467822E-3,2.71226E-3,-3.0579275E-2,2.989166E-2,2.7394032E-3,3.0288303E-2,4.6781685E-2,-1.6755022E-2,8.947536E-3,1.0313286E-2,5.1703412E-2,3.2773248E-3,-1.2319045E-2,-1.3627536E-2,-4.1962836E-2,2.3812385E-2,7.6572335E-4,9.973026E-3,-2.9860994E-2,2.3864724E-2,-5.0469767E-2,4.935681E-2,3.024359E-2,2.5289545E-2,1.967933E-3,1.3773734E-2,-2.435692E-2,-8.408236E-3,5.4506667E-2,4.488583E-2,1.0315799E-2,1.6118532E-2,4.6763938E-2,2.1209627E-2,-1.7027784E-2],"split_indices":[16,11,11,23,23,7,23,7,5,9,18,9,23,7,9,21,18,7,9,7,21,7,9,23,23,9,18,20,21,21,18,1,18,23,21,1,18,22,21,0,21,5,7,1,5,21,21,18,5,20,0,21,21,9,21,1,9,9,18,6,18,18,21,0,0,0,0,0,0,0,0,0,0,0,0,0,0,0,0,0,0,0,0,0,0,0,0,0,0,0,0,0,0,0,0,0,0,0,0,0,0,0,0,0,0,0,0,0,0,0,0,0,0,0,0,0,0,0,0,0,0,0,0,0,0,0,0],"split_type":[0,0,0,0,0,0,0,0,0,0,0,0,0,0,0,0,0,0,0,0,0,0,0,0,0,0,0,0,0,0,0,0,0,0,0,0,0,0,0,0,0,0,0,0,0,0,0,0,0,0,0,0,0,0,0,0,0,0,0,0,0,0,0,0,0,0,0,0,0,0,0,0,0,0,0,0,0,0,0,0,0,0,0,0,0,0,0,0,0,0,0,0,0,0,0,0,0,0,0,0,0,0,0,0,0,0,0,0,0,0,0,0,0,0,0,0,0,0,0,0,0,0,0,0,0,0,0],"sum_hessian":[6.797215E3,3.4796265E3,3.3175886E3,2.112233E3,1.3673937E3,2.0145175E3,1.3030712E3,1.3233269E3,7.88906E2,8.45369E2,5.2202466E2,6.576818E2,1.3568356E3,8.145046E2,4.885666E2,4.2609982E2,8.9722705E2,4.9608447E2,2.9282153E2,5.8931903E2,2.5604996E2,2.1134802E2,3.106766E2,4.643734E2,1.9330841E2,8.324974E2,5.243382E2,2.7821948E2,5.362851E2,3.4067703E2,1.4788956E2,1.6427182E2,2.61828E2,6.630967E2,2.3413039E2,1.6169678E2,3.343877E2,2.0452219E2,8.829934E1,2.0334436E2,3.8597467E2,2.2090643E2,3.5143524E1,6.790164E1,1.4344638E2,2.159385E2,9.4738106E1,2.2539046E2,2.3898297E2,1.2150203E2,7.180637E1,5.6872327E2,2.6377414E2,3.6126736E2,1.6307082E2,9.0336174E1,1.8788332E2,3.5713586E2,1.791492E2,2.3127632E2,1.0940071E2,7.325236E1,7.463721E1,1.1043064E2,5.384118E1,2.203284E2,4.1499596E1,6.280274E2,3.5069252E1,1.0727239E2,1.26857994E2,1.4367572E2,1.8021063E1,2.3454735E2,9.984033E1,1.899499E2,1.4572287E1,2.4108118E1,6.419122E1,8.1332825E1,1.2201154E2,2.8496967E2,1.0100501E2,1.6785153E2,5.3054897E1,1.3069166E1,2.2074356E1,1.4488007E1,5.341364E1,5.2205475E1,9.12409E1,1.25347046E2,9.059146E1,4.891239E1,4.582571E1,1.2288963E2,1.0250083E2,1.4424092E2,9.474205E1,6.311505E1,5.8386982E1,6.3907055E1,7.899322E0,3.5319656E2,2.155267E2,2.154909E2,4.8283226E1,2.5854453E2,1.0272284E2,9.827475E1,6.479606E1,8.3321014E1,7.0151606E0,1.2607476E2,6.1808556E1,2.5818347E2,9.8952415E1,1.08154205E2,7.0995E1,1.188103E0,2.3008821E2,6.985021E1,3.95505E1,1.6971018E1,5.6281338E1,6.089984E1,1.3737367E1],"tree_param":{"num_deleted":"0","num_feature":"25","num_nodes":"127","size_leaf_vector":"1"}},{"base_weights":[-3.072418E-3,-2.76601E-1,2.8796604E-1,-1.7443104E-1,-6.9716156E-1,4.2445382E-1,-2.6230794E-1,-6.939836E-2,-4.2008242E-1,-5.4202634E-1,-1.0619851E0,5.417977E-1,1.5081017E-1,-1.4379689E-1,-5.2342343E-1,-1.8136969E-1,1.20582074E-1,-5.4632205E-1,-3.5404113E-1,-8.1451726E-1,-4.590782E-1,-1.4525238E0,-9.288028E-1,4.4554263E-1,7.006486E-1,2.7846405E-1,7.886541E-2,-1.7374584E-1,8.265976E-1,8.7429005E-1,-5.501738E-1,-9.917527E-2,-2.4009301E-1,3.7043488E-1,7.6095514E-2,-1.5978709E-1,-6.348303E-1,-1.4835219E-1,-4.4728297E-1,-3.9365426E-1,-9.718607E-1,-6.092149E-1,-3.226405E-1,-1.5202968E0,1.2160524E-2,3.2941064E-1,-9.611271E-1,4.2575386E-1,5.940248E-1,9.7829825E-1,6.479674E-1,-4.2202866E-1,3.0682594E-1,2.9056016E-2,4.0718538E-1,-2.757767E-1,6.141428E-3,9.3142164E-1,-1.0562926E-2,1.3461842E-2,4.972951E-2,-4.5387214E-1,-8.9145786E-1,-3.8964357E-3,-3.4676436E-2,-1.8222408E-2,-7.884908E-3,2.3912534E-2,-9.3592135E-3,1.3564092E-2,4.8155893E-4,-2.843069E-2,1.841267E-2,-6.5387646E-3,-3.4841012E-2,-1.3679566E-2,8.622708E-3,1.312428E-2,-2.3668796E-2,-4.4224616E-2,4.9420805E-3,-2.6585525E-2,-5.5676855E-2,-1.3186439E-2,-3.84236E-2,2.36334E-2,-1.908595E-2,-5.3722974E-2,-9.415769E-2,-2.9160857E-2,3.9818257E-2,-6.4715627E-3,-5.06152E-2,1.764952E-2,2.4000159E-2,2.2391012E-2,4.1467987E-2,3.6747556E-2,5.6022156E-2,-1.29775135E-2,3.2689407E-2,-7.012834E-2,-1.1353786E-3,3.8666602E-2,1.1126029E-2,-4.6124854E-3,8.97958E-3,-3.1705197E-2,2.3788737E-2,-2.174304E-2,-5.7276827E-3,1.3459644E-2,-8.163036E-3,1.2775522E-3,5.5626698E-2,-1.3883814E-2,-3.5439283E-2,-2.870055E-2,-6.590533E-2],"categories":[],"categories_nodes":[],"categories_segments":[],"categories_sizes":[],"default_left":[0,0,0,0,0,0,0,0,0,0,0,0,0,0,0,0,0,0,0,0,0,0,0,0,0,0,0,0,0,0,0,0,0,0,0,0,0,0,0,0,0,0,0,0,0,0,0,0,0,0,0,0,0,0,0,0,0,0,0,0,0,0,0,0,0,0,0,0,0,0,0,0,0,0,0,0,0,0,0,0,0,0,0,0,0,0,0,0,0,0,0,0,0,0,0,0,0,0,0,0,0,0,0,0,0,0,0,0,0,0,0,0,0,0,0,0,0,0,0],"id":4,"left_children":[1,3,5,7,9,11,13,15,17,19,21,23,25,27,29,31,33,35,37,39,41,43,45,47,49,51,53,55,57,59,61,63,65,67,69,71,73,75,77,79,81,83,85,87,-1,89,91,93,95,97,99,101,103,105,107,109,111,113,-1,-1,-1,115,117,-1,-1,-1,-1,-1,-1,-1,-1,-1,-1,-1,-1,-1,-1,-1,-1,-1,-1,-1,-1,-1,-1,-1,-1,-1,-1,-1,-1,-1,-1,-1,-1,-1,-1,-1,-1,-1,-1,-1,-1,-1,-1,-1,-1,-1,-1,-1,-1,-1,-1,-1,-1,-1,-1,-1,-1],"loss_changes":[5.414104E2,1.50525E2,2.4758792E2,7.278358E1,3.8188934E1,8.470792E1,2.0208576E1,4.2098957E1,6.851593E0,1.0534348E1,9.225708E0,2.7939392E1,7.2690296E0,1.32865E1,8.11768E0,5.9850655E0,8.131392E0,9.764961E0,1.062838E1,6.98999E0,7.4292755E0,6.1077957E0,6.5954895E0,3.135727E0,9.537811E0,5.8066845E0,8.314046E0,8.068643E0,1.6886282E0,3.9518833E-2,6.202339E0,6.5186353E0,7.375458E0,6.7444305E0,8.097758E0,1.2097489E1,7.2306595E0,7.0956E0,7.2211227E0,7.817531E0,4.4188843E0,9.487343E0,9.44421E0,5.765747E0,0E0,2.429713E0,6.2863464E0,3.8615417E0,4.2080307E0,2.9449234E0,3.2729492E0,4.4868574E0,1.0651842E1,8.108561E0,5.0860367E0,7.1437225E0,7.1758957E0,2.0453148E0,0E0,0E0,0E0,6.9366302E0,5.094795E0,0E0,0E0,0E0,0E0,0E0,0E0,0E0,0E0,0E0,0E0,0E0,0E0,0E0,0E0,0E0,0E0,0E0,0E0,0E0,0E0,0E0,0E0,0E0,0E0,0E0,0E0,0E0,0E0,0E0,0E0,0E0,0E0,0E0,0E0,0E0,0E0,0E0,0E0,0E0,0E0,0E0,0E0,0E0,0E0,0E0,0E0,0E0,0E0,0E0,0E0,0E0,0E0,0E0,0E0,0E0,0E0],"parents":[2147483647,0,0,1,1,2,2,3,3,4,4,5,5,6,6,7,7,8,8,9,9,10,10,11,11,12,12,13,13,14,14,15,15,16,16,17,17,18,18,19,19,20,20,21,21,22,22,23,23,24,24,25,25,26,26,27,27,28,28,29,29,30,30,31,31,32,32,33,33,34,34,35,35,36,36,37,37,38,38,39,39,40,40,41,41,42,42,43,43,45,45,46,46,47,47,48,48,49,49,50,50,51,51,52,52,53,53,54,54,55,55,56,56,57,57,61,61,62,62],"right_children":[2,4,6,8,10,12,14,16,18,20,22,24,26,28,30,32,34,36,38,40,42,44,46,48,50,52,54,56,58,60,62,64,66,68,70,72,74,76,78,80,82,84,86,88,-1,90,92,94,96,98,100,102,104,106,108,110,112,114,-1,-1,-1,116,118,-1,-1,-1,-1,-1,-1,-1,-1,-1,-1,-1,-1,-1,-1,-1,-1,-1,-1,-1,-1,-1,-1,-1,-1,-1,-1,-1,-1,-1,-1,-1,-1,-1,-1,-1,-1,-1,-1,-1,-1,-1,-1,-1,-1,-1,-1,-1,-1,-1,-1,-1,-1,-1,-1,-1,-1],"split_conditions":[7.01E2,4.9992E3,4.95237E3,1E0,1E0,1E0,1E0,5E0,5E0,5.84E2,3.66E-1,5E0,6.65E-1,8.8568693E-1,2.76E-1,4.8E1,9.7E-2,6.0449E2,1.6206E4,5.59E2,4E0,4.7469E4,3.71E-1,3.88917E3,5E-2,4E0,4.3522E4,5E0,8.45E2,1.3862E4,5.03E-1,6.96E2,4E0,9.41E-1,1E0,2.8763E4,2.8E1,1.173E4,5.55E2,5.17E-1,1E0,3E0,3.158E3,2E0,1.2160524E-2,4.752013E-1,5.61E2,4.9E1,6.46E-1,4.5E1,4.07E-1,3.31877E3,2.2E1,6.8E1,1.37656E3,2E0,2.074E4,1E0,-1.0562926E-2,1.3461842E-2,4.972951E-2,7.2E1,9E0,-3.8964357E-3,-3.4676436E-2,-1.8222408E-2,-7.884908E-3,2.3912534E-2,-9.3592135E-3,1.3564092E-2,4.8155893E-4,-2.843069E-2,1.841267E-2,-6.5387646E-3,-3.4841012E-2,-1.3679566E-2,8.622708E-3,1.312428E-2,-2.3668796E-2,-4.4224616E-2,4.9420805E-3,-2.6585525E-2,-5.5676855E-2,-1.3186439E-2,-3.84236E-2,2.36334E-2,-1.908595E-2,-5.3722974E-2,-9.415769E-2,-2.9160857E-2,3.9818257E-2,-6.4715627E-3,-5.06152E-2,1.764952E-2,2.4000159E-2,2.2391012E-2,4.1467987E-2,3.6747556E-2,5.6022156E-2,-1.29775135E-2,3.2689407E-2,-7.012834E-2,-1.1353786E-3,3.8666602E-2,1.1126029E-2,-4.6124854E-3,8.97958E-3,-3.1705197E-2,2.3788737E-2,-2.174304E-2,-5.7276827E-3,1.3459644E-2,-8.163036E-3,1.2775522E-3,5.5626698E-2,-1.3883814E-2,-3.5439283E-2,-2.870055E-2,-6.590533E-2],"split_indices":[16,4,4,9,9,9,9,5,15,16,21,5,19,22,21,1,21,4,0,16,5,0,21,4,20,24,0,5,16,0,21,16,12,19,10,0,1,0,16,19,3,12,0,14,0,22,16,1,19,24,19,18,24,24,18,3,0,17,0,0,0,24,15,0,0,0,0,0,0,0,0,0,0,0,0,0,0,0,0,0,0,0,0,0,0,0,0,0,0,0,0,0,0,0,0,0,0,0,0,0,0,0,0,0,0,0,0,0,0,0,0,0,0,0,0,0,0,0,0],"split_type":[0,0,0,0,0,0,0,0,0,0,0,0,0,0,0,0,0,0,0,0,0,0,0,0,0,0,0,0,0,0,0,0,0,0,0,0,0,0,0,0,0,0,0,0,0,0,0,0,0,0,0,0,0,0,0,0,0,0,0,0,0,0,0,0,0,0,0,0,0,0,0,0,0,0,0,0,0,0,0,0,0,0,0,0,0,0,0,0,0,0,0,0,0,0,0,0,0,0,0,0,0,0,0,0,0,0,0,0,0,0,0,0,0,0,0,0,0,0,0],"sum_hessian":[6.7990107E3,3.5049658E3,3.294045E3,2.8210432E3,6.839225E2,2.6395662E3,6.544789E2,1.9770166E3,8.440267E2,4.8161102E2,2.0231146E2,1.846689E3,7.928772E2,4.512316E2,2.0324728E2,1.2439175E3,7.330992E2,2.8739377E2,5.566329E2,1.1033443E2,3.712766E2,4.8928673E1,1.5338278E2,1.1522764E3,6.944126E2,2.8475565E2,5.0812155E2,4.3851868E2,1.27128935E1,3.2218409E0,2.0002544E2,5.1948645E2,7.244311E2,1.0969349E2,6.2340564E2,5.406882E1,2.3332497E2,1.7443193E2,3.8220096E2,3.0977509E1,7.935692E1,1.7511453E2,1.9616206E2,4.7147785E1,1.780887E0,3.6116002E0,1.4977118E2,1.02018054E3,1.3209581E2,1.0794289E2,5.864697E2,1.0540574E1,2.742151E2,4.4213397E2,6.59876E1,2.7947134E2,1.5904736E2,1.1639816E1,1.0730766E0,1.0713742E0,2.1504667E0,1.5782199E2,4.2203445E1,5.026492E2,1.6837248E1,2.87339E2,4.3709207E2,9.203989E1,1.7653603E1,1.5757433E2,4.6583136E2,3.043116E1,2.3637663E1,2.5892904E1,2.0743205E2,1.25561386E2,4.8870552E1,1.3231231E1,3.6896973E2,1.5116227E1,1.5861282E1,2.0480995E1,5.8875923E1,5.609035E1,1.19024185E2,1.3079988E1,1.8308208E2,2.2932297E1,2.4215488E1,1.1381636E0,2.4734368E0,8.886243E0,1.4088493E2,4.3894238E2,5.8123816E2,8.326769E1,4.882811E1,4.2077713E1,6.586517E1,3.4597788E0,5.8300995E2,2.3233008E0,8.217273E0,4.0719505E1,2.3349557E2,2.4505173E2,1.9708223E2,3.5684383E0,6.2419163E1,1.3981451E2,1.3965681E2,6.20718E1,9.6975555E1,2.1295428E0,9.510274E0,9.455501E1,6.326698E1,2.5543365E1,1.6660082E1],"tree_param":{"num_deleted":"0","num_feature":"25","num_nodes":"119","size_leaf_vector":"1"}},{"base_weights":[1.2559998E-2,-2.451973E-1,2.8608918E-1,-4.1257364E-1,1.3825825E-2,4.112234E-1,-2.1728583E-1,-3.117172E-1,-8.2718027E-1,-1.6738375E-1,2.997117E-1,6.9815385E-1,2.7132973E-1,-3.8733143E-1,5.2730218E-2,-5.835997E-2,-4.326101E-1,-1.2542393E0,-7.046011E-1,1.2136603E-1,-3.155689E-1,4.3179846E-1,-2.6128605E-1,8.2941234E-1,4.1285923E-1,1.16418935E-1,5.160438E-1,-6.989974E-2,-5.33701E-1,-2.3043782E-1,2.1701305E-1,-2.0557314E-1,1.931348E-1,-5.5646694E-1,-2.173554E-1,-1.5019029E0,-9.9276E-1,-7.661782E-1,-5.4177668E-2,2.446494E-1,-1.5934122E-1,-1.6638762E-1,-6.4834136E-1,6.848967E-1,3.0212566E-1,-1.0806183E0,-1.9059692E-1,6.966846E-1,1.0397556E0,2.1047236E-1,7.163272E-1,2.3052654E-1,-1.4033362E-1,3.3813214E-1,7.965361E-1,-3.8345575E-1,1.726394E-1,-7.113565E-1,-2.4987632E-1,-1.180352E-2,-8.505328E-1,-1.5425655E-1,3.3298904E-1,-3.796494E-3,-2.438832E-2,-2.1545298E-3,2.114473E-2,-3.3466198E-2,-1.8784996E-2,-3.1247553E-3,-2.7561242E-2,9.325239E-3,-7.84235E-2,-5.704203E-2,2.455247E-2,-2.4765046E-2,-4.4764247E-2,-4.425395E-2,1.2739751E-2,5.867244E-3,2.1457698E-2,3.6938004E-3,-3.315949E-2,-4.9682013E-3,-4.0605698E-2,-3.9695926E-2,-3.3241888E-3,3.6156412E-2,-7.04813E-3,2.8215615E-2,7.831081E-3,6.9666986E-4,-8.218422E-2,-2.8660629E-2,3.4695088E-3,2.695558E-2,4.7352713E-2,4.747884E-2,5.8232654E-2,-1.8354973E-3,1.857692E-2,1.150874E-2,3.874304E-2,4.820499E-3,2.1870507E-2,-3.0989105E-2,-3.9612586E-3,2.1848138E-2,4.8655486E-3,4.646387E-2,2.4173044E-2,-5.5808265E-2,-6.3576186E-3,5.292468E-2,4.490989E-3,-1.5450378E-2,-4.2928766E-2,-1.7743E-2,1.8398007E-2,8.104844E-3,-3.4463845E-2,-4.8979532E-2,1.7253727E-2,-2.3230245E-2,9.130103E-3,2.1319898E-2,-1.0257405E-2],"categories":[],"categories_nodes":[],"categories_segments":[],"categories_sizes":[],"default_left":[0,0,0,0,0,0,0,0,0,0,0,0,0,0,0,0,0,0,0,0,0,0,0,0,0,0,0,0,0,0,0,0,0,0,0,0,0,0,0,0,0,0,0,0,0,0,0,0,0,0,0,0,0,0,0,0,0,0,0,0,0,0,0,0,0,0,0,0,0,0,0,0,0,0,0,0,0,0,0,0,0,0,0,0,0,0,0,0,0,0,0,0,0,0,0,0,0,0,0,0,0,0,0,0,0,0,0,0,0,0,0,0,0,0,0,0,0,0,0,0,0,0,0,0,0,0,0],"id":5,"left_children":[1,3,5,7,9,11,13,15,17,19,21,23,25,27,29,31,33,35,37,39,41,43,45,47,49,51,53,55,57,59,61,63,65,67,69,71,73,75,77,79,81,83,85,87,89,91,93,95,97,99,101,103,105,107,109,111,113,115,117,119,121,123,125,-1,-1,-1,-1,-1,-1,-1,-1,-1,-1,-1,-1,-1,-1,-1,-1,-1,-1,-1,-1,-1,-1,-1,-1,-1,-1,-1,-1,-1,-1,-1,-1,-1,-1,-1,-1,-1,-1,-1,-1,-1,-1,-1,-1,-1,-1,-1,-1,-1,-1,-1,-1,-1,-1,-1,-1,-1,-1,-1,-1,-1,-1,-1,-1],"loss_changes":[4.7966592E2,1.5186275E2,2.0799747E2,8.871777E1,7.132877E1,1.0593494E2,3.0223785E1,5.2444717E1,2.0878815E1,3.6098614E1,3.9692543E1,3.2083435E1,6.737846E1,1.872155E1,1.191561E1,2.05701E1,3.0793533E1,4.430023E0,1.2986832E1,9.955182E0,2.7554295E1,1.3994896E1,5.725857E0,1.5805054E1,1.672955E1,3.198581E1,3.4129105E1,9.843651E0,1.3747902E1,1.2752002E1,7.02394E0,1.2777223E1,1.1158767E1,1.4751205E1,2.1947344E1,5.3509216E0,1.0980679E1,9.9461975E0,7.724185E0,4.6354E0,1.0395132E1,1.662862E1,1.4527748E1,4.705536E0,1.0895325E1,4.904213E0,9.5394E0,1.3930069E1,1.4511261E0,6.634398E0,2.9389038E0,2.0919178E1,9.8009815E0,1.0037411E1,1.06380005E1,1.0446844E1,5.2740297E0,9.763824E0,7.1267247E0,8.430426E0,4.1221447E0,4.1858006E0,6.30577E0,0E0,0E0,0E0,0E0,0E0,0E0,0E0,0E0,0E0,0E0,0E0,0E0,0E0,0E0,0E0,0E0,0E0,0E0,0E0,0E0,0E0,0E0,0E0,0E0,0E0,0E0,0E0,0E0,0E0,0E0,0E0,0E0,0E0,0E0,0E0,0E0,0E0,0E0,0E0,0E0,0E0,0E0,0E0,0E0,0E0,0E0,0E0,0E0,0E0,0E0,0E0,0E0,0E0,0E0,0E0,0E0,0E0,0E0,0E0,0E0,0E0,0E0,0E0,0E0],"parents":[2147483647,0,0,1,1,2,2,3,3,4,4,5,5,6,6,7,7,8,8,9,9,10,10,11,11,12,12,13,13,14,14,15,15,16,16,17,17,18,18,19,19,20,20,21,21,22,22,23,23,24,24,25,25,26,26,27,27,28,28,29,29,30,30,31,31,32,32,33,33,34,34,35,35,36,36,37,37,38,38,39,39,40,40,41,41,42,42,43,43,44,44,45,45,46,46,47,47,48,48,49,49,50,50,51,51,52,52,53,53,54,54,55,55,56,56,57,57,58,58,59,59,60,60,61,61,62,62],"right_children":[2,4,6,8,10,12,14,16,18,20,22,24,26,28,30,32,34,36,38,40,42,44,46,48,50,52,54,56,58,60,62,64,66,68,70,72,74,76,78,80,82,84,86,88,90,92,94,96,98,100,102,104,106,108,110,112,114,116,118,120,122,124,126,-1,-1,-1,-1,-1,-1,-1,-1,-1,-1,-1,-1,-1,-1,-1,-1,-1,-1,-1,-1,-1,-1,-1,-1,-1,-1,-1,-1,-1,-1,-1,-1,-1,-1,-1,-1,-1,-1,-1,-1,-1,-1,-1,-1,-1,-1,-1,-1,-1,-1,-1,-1,-1,-1,-1,-1,-1,-1,-1,-1,-1,-1,-1,-1],"split_conditions":[7.01E2,1E0,4.95237E3,4.9992E3,6.916192E-1,1E0,1E0,1E0,4.3878022E-1,1E0,5.04591E3,1E0,1E0,1E0,5.1350117E-1,7.17003E-1,5E0,4E0,9.086048E-1,1.378793E4,1E0,1E0,7.0889276E-1,1E0,1E0,1E0,6.9682074E-1,5.6115323E-1,6.9682074E-1,1.790581E4,1E0,1E0,4E0,1.09E2,1E0,5.09297E3,8.56721E3,1E0,4.7E1,3E0,6.7E1,6.5165323E-1,8.43E-1,1.884346E4,1E0,6.11E2,6.09E2,5E0,6.866353E-1,5.4310805E-1,1E0,6.9418913E-1,1.8E1,1E0,1E0,2E0,5.831874E-1,7.44E2,6.19E-1,7.6E1,1.65E2,1.621829E4,8.56721E3,-3.796494E-3,-2.438832E-2,-2.1545298E-3,2.114473E-2,-3.3466198E-2,-1.8784996E-2,-3.1247553E-3,-2.7561242E-2,9.325239E-3,-7.84235E-2,-5.704203E-2,2.455247E-2,-2.4765046E-2,-4.4764247E-2,-4.425395E-2,1.2739751E-2,5.867244E-3,2.1457698E-2,3.6938004E-3,-3.315949E-2,-4.9682013E-3,-4.0605698E-2,-3.9695926E-2,-3.3241888E-3,3.6156412E-2,-7.04813E-3,2.8215615E-2,7.831081E-3,6.9666986E-4,-8.218422E-2,-2.8660629E-2,3.4695088E-3,2.695558E-2,4.7352713E-2,4.747884E-2,5.8232654E-2,-1.8354973E-3,1.857692E-2,1.150874E-2,3.874304E-2,4.820499E-3,2.1870507E-2,-3.0989105E-2,-3.9612586E-3,2.1848138E-2,4.8655486E-3,4.646387E-2,2.4173044E-2,-5.5808265E-2,-6.3576186E-3,5.292468E-2,4.490989E-3,-1.5450378E-2,-4.2928766E-2,-1.7743E-2,1.8398007E-2,8.104844E-3,-3.4463845E-2,-4.8979532E-2,1.7253727E-2,-2.3230245E-2,9.130103E-3,2.1319898E-2,-1.0257405E-2],"split_indices":[16,11,4,4,23,7,11,7,23,7,4,9,11,7,23,23,5,5,23,18,9,7,23,11,11,9,23,23,23,18,13,9,5,6,9,4,4,7,6,17,1,23,19,18,8,16,16,5,23,23,5,23,6,9,9,5,23,16,19,1,6,18,4,0,0,0,0,0,0,0,0,0,0,0,0,0,0,0,0,0,0,0,0,0,0,0,0,0,0,0,0,0,0,0,0,0,0,0,0,0,0,0,0,0,0,0,0,0,0,0,0,0,0,0,0,0,0,0,0,0,0,0,0,0,0,0,0],"split_type":[0,0,0,0,0,0,0,0,0,0,0,0,0,0,0,0,0,0,0,0,0,0,0,0,0,0,0,0,0,0,0,0,0,0,0,0,0,0,0,0,0,0,0,0,0,0,0,0,0,0,0,0,0,0,0,0,0,0,0,0,0,0,0,0,0,0,0,0,0,0,0,0,0,0,0,0,0,0,0,0,0,0,0,0,0,0,0,0,0,0,0,0,0,0,0,0,0,0,0,0,0,0,0,0,0,0,0,0,0,0,0,0,0,0,0,0,0,0,0,0,0,0,0,0,0,0,0],"sum_hessian":[6.8013774E3,3.5016956E3,3.299682E3,2.1268005E3,1.3748951E3,2.642872E3,6.5680975E2,1.7120759E3,4.1472452E2,8.417586E2,5.3313654E2,8.649061E2,1.777966E3,4.0274326E2,2.5406648E2,5.5352576E2,1.1585502E3,9.0432076E1,3.2429245E2,2.8554123E2,5.5621735E2,4.3171878E2,1.0141776E2,5.910626E2,2.738435E2,1.0896578E3,6.8830804E2,1.27566765E2,2.7517648E2,9.313337E1,1.6093312E2,3.4926508E2,2.042607E2,7.3439606E2,4.2415414E2,4.400668E1,4.6425396E1,2.960836E2,2.8208878E1,1.984936E2,8.704762E1,3.8508463E2,1.7113272E2,1.4480447E2,2.869143E2,6.920288E0,9.4497475E1,3.650354E2,2.260272E2,1.6529778E2,1.08545746E2,7.544587E2,3.351992E2,4.2251764E2,2.657904E2,5.5384438E1,7.218233E1,1.6831566E2,1.0686083E2,6.960939E1,2.352398E1,3.822733E1,1.2270579E2,2.4018845E2,1.0907662E2,1.0111386E2,1.03146835E2,4.504606E2,2.839355E2,2.9056647E2,1.3358768E2,1.6008539E0,4.2405827E1,4.242284E1,4.0025554E0,9.713085E1,1.9895273E2,7.140847E0,2.106803E1,1.18421265E2,8.007234E1,6.008798E1,2.6959648E1,3.499185E2,3.516614E1,1.3659344E2,3.4539276E1,1.3851653E2,6.287957E0,1.01371925E2,1.8554237E2,2.681989E0,4.2382994E0,3.7744778E1,5.6752693E1,2.2597115E2,1.3906427E2,1.3625258E2,8.977462E1,6.551947E1,9.9778305E1,1.2194692E1,9.635105E1,4.5861685E2,2.9584186E2,3.6859825E1,2.9833936E2,2.989976E2,1.2352007E2,1.8526947E2,8.052094E1,1.3483501E1,4.1900936E1,5.1642146E0,6.701811E1,4.591873E1,1.2239693E2,9.1703995E1,1.5156838E1,5.5996426E1,1.3612969E1,2.1395185E1,2.128793E0,1.9699198E1,1.852813E1,1.047339E2,1.7971888E1],"tree_param":{"num_deleted":"0","num_feature":"25","num_nodes":"127","size_leaf_vector":"1"}},{"base_weights":[2.392963E-3,1.0940147E-1,-4.255368E-1,-4.9930222E-2,3.6035007E-1,-5.804075E-1,-1.770962E-1,2.2284614E-1,-1.7982943E-1,2.0237306E-1,6.119893E-1,-7.4360186E-1,-3.016204E-1,-3.2914188E-2,-4.8729855E-1,3.5878256E-1,-8.417345E-2,-3.1162563E-1,3.8935572E-2,5.0336504E-1,5.006985E-2,8.3453166E-1,5.047557E-1,-4.1081136E-1,-9.080569E-1,-1.7012087E-1,-6.169887E-1,2.1283306E-1,-1.5576047E-1,-6.837034E-1,-1.325439E-1,2.2113924E-1,5.7085276E-1,-1.5178647E0,-6.701543E-2,-2.3364216E-1,-4.844371E-1,-7.1335524E-2,2.2642498E-1,5.894807E-1,2.9912737E-1,1.8827558E-1,-2.779849E-1,9.189236E-1,6.326928E-1,5.9303725E-1,2.847194E-1,-6.7825127E-1,-1.05707094E-1,-8.059878E-1,-1.1347549E0,-4.417286E-1,-5.052473E-2,-4.1391534E-1,-1.0710313E0,4.2860729E-1,-1.3736577E-1,5.4735583E-1,-2.1699116E-1,-9.0163785E-1,-2.9761654E-1,-6.8188375E-1,8.713486E-2,4.982011E-3,2.0125465E-2,2.0702027E-2,4.1359276E-2,-9.92436E-2,-9.084371E-3,-8.919186E-3,6.66707E-3,-1.612406E-2,-3.8591237E-3,-1.8923301E-2,-3.354093E-2,3.3668291E-3,-1.0646206E-2,1.8507287E-2,-4.556074E-3,3.5566386E-2,2.2870405E-2,-3.7282337E-2,1.7386513E-2,2.1186927E-2,6.7209676E-3,-2.03433E-2,-2.7451068E-3,4.662515E-2,-3.1209243E-2,4.427927E-2,1.932319E-2,2.504601E-2,3.7599888E-2,8.190603E-3,3.1105572E-2,1.7571634E-2,-3.7830565E-2,2.8302232E-2,-1.1412936E-2,-3.8202353E-2,-8.597417E-2,2.6065473E-2,-5.8097135E-2,-2.4969531E-2,4.874521E-2,-7.1930857E-3,2.2078415E-2,7.838161E-3,-3.202423E-2,-7.2329275E-2,-2.7564762E-2,1.7586483E-3,4.4485953E-2,-1.3336464E-2,4.7359064E-2,3.424428E-2,-2.71886E-2,-1.7622603E-2,1.9218446E-3,-4.8519786E-2,1.9855594E-2,-6.3920766E-2,-4.93531E-3,-2.1628968E-3,-6.489718E-2,-3.6949325E-2,1.1264749E-2],"categories":[],"categories_nodes":[],"categories_segments":[],"categories_sizes":[],"default_left":[0,0,0,0,0,0,0,0,0,0,0,0,0,0,0,0,0,0,0,0,0,0,0,0,0,0,0,0,0,0,0,0,0,0,0,0,0,0,0,0,0,0,0,0,0,0,0,0,0,0,0,0,0,0,0,0,0,0,0,0,0,0,0,0,0,0,0,0,0,0,0,0,0,0,0,0,0,0,0,0,0,0,0,0,0,0,0,0,0,0,0,0,0,0,0,0,0,0,0,0,0,0,0,0,0,0,0,0,0,0,0,0,0,0,0,0,0,0,0,0,0,0,0,0,0,0,0],"id":6,"left_children":[1,3,5,7,9,11,13,15,17,19,21,23,25,27,29,31,33,35,37,39,41,43,45,47,49,51,53,55,57,59,61,63,65,67,69,71,73,75,77,79,81,83,85,87,89,91,93,95,97,99,101,103,105,107,109,111,113,115,117,119,121,123,125,-1,-1,-1,-1,-1,-1,-1,-1,-1,-1,-1,-1,-1,-1,-1,-1,-1,-1,-1,-1,-1,-1,-1,-1,-1,-1,-1,-1,-1,-1,-1,-1,-1,-1,-1,-1,-1,-1,-1,-1,-1,-1,-1,-1,-1,-1,-1,-1,-1,-1,-1,-1,-1,-1,-1,-1,-1,-1,-1,-1,-1,-1,-1,-1],"loss_changes":[3.091612E2,2.1596564E2,5.1861008E1,1.1712322E2,8.3259766E1,3.7605988E1,2.3243313E1,4.453595E1,6.456575E1,5.9114178E1,1.8871948E1,2.8294037E1,1.2697069E1,1.0783528E1,1.1401997E1,2.1454498E1,7.968508E0,1.8717392E1,1.7437262E1,7.4452972E0,3.8940872E1,3.870453E0,1.0478134E1,1.4212973E1,7.177948E0,7.099296E0,7.897476E0,9.058931E0,1.036503E1,8.644478E0,7.3023214E0,9.87541E0,1.1328651E1,2.0315542E0,7.2808576E0,1.3384815E1,8.309196E0,1.044679E1,1.4286259E1,4.5633545E0,6.88871E0,7.603487E0,7.2990093E0,4.397644E0,4.6560593E0,5.3376007E0,6.378645E0,7.7782097E0,6.958677E0,8.057831E0,5.384094E0,5.9512587E0,7.1067076E0,8.392887E0,4.5361805E0,1.3382644E1,6.729703E0,3.2760372E0,7.6134176E0,6.387596E0,7.6211905E0,6.733779E0,5.161136E0,0E0,0E0,0E0,0E0,0E0,0E0,0E0,0E0,0E0,0E0,0E0,0E0,0E0,0E0,0E0,0E0,0E0,0E0,0E0,0E0,0E0,0E0,0E0,0E0,0E0,0E0,0E0,0E0,0E0,0E0,0E0,0E0,0E0,0E0,0E0,0E0,0E0,0E0,0E0,0E0,0E0,0E0,0E0,0E0,0E0,0E0,0E0,0E0,0E0,0E0,0E0,0E0,0E0,0E0,0E0,0E0,0E0,0E0,0E0,0E0,0E0,0E0,0E0,0E0],"parents":[2147483647,0,0,1,1,2,2,3,3,4,4,5,5,6,6,7,7,8,8,9,9,10,10,11,11,12,12,13,13,14,14,15,15,16,16,17,17,18,18,19,19,20,20,21,21,22,22,23,23,24,24,25,25,26,26,27,27,28,28,29,29,30,30,31,31,32,32,33,33,34,34,35,35,36,36,37,37,38,38,39,39,40,40,41,41,42,42,43,43,44,44,45,45,46,46,47,47,48,48,49,49,50,50,51,51,52,52,53,53,54,54,55,55,56,56,57,57,58,58,59,59,60,60,61,61,62,62],"right_children":[2,4,6,8,10,12,14,16,18,20,22,24,26,28,30,32,34,36,38,40,42,44,46,48,50,52,54,56,58,60,62,64,66,68,70,72,74,76,78,80,82,84,86,88,90,92,94,96,98,100,102,104,106,108,110,112,114,116,118,120,122,124,126,-1,-1,-1,-1,-1,-1,-1,-1,-1,-1,-1,-1,-1,-1,-1,-1,-1,-1,-1,-1,-1,-1,-1,-1,-1,-1,-1,-1,-1,-1,-1,-1,-1,-1,-1,-1,-1,-1,-1,-1,-1,-1,-1,-1,-1,-1,-1,-1,-1,-1,-1,-1,-1,-1,-1,-1,-1,-1,-1,-1,-1,-1,-1,-1],"split_conditions":[4.9992E3,1E0,1E0,1E0,6.888557E-1,7.063306E-1,1E0,1E0,6.9895154E-1,1E0,1E0,1E0,1E0,1E0,7.063306E-1,5E0,4.7E-2,1E0,5E0,1E0,1E0,1E0,1E0,4.34E-1,1E0,7.800023E-1,7E0,5.35E-1,4.129E3,2.9546E4,3.81E-1,7.0159525E-1,6.9895154E-1,1.238014E4,7.0159525E-1,5E0,5.509382E-1,1E0,3.3833E4,2.5812E4,6E0,1E0,5E0,4.9617E4,1.5E-1,5E0,7.5411433E-1,3.3499253E-1,4.15E-1,5.66E-1,2E0,5.75E-1,1.1E1,1E0,5.82284E-1,9.8E1,8.7377644E-1,8.21703E3,7.11396E-1,6.61E-1,3.48E-1,3.42E-1,1E0,4.982011E-3,2.0125465E-2,2.0702027E-2,4.1359276E-2,-9.92436E-2,-9.084371E-3,-8.919186E-3,6.66707E-3,-1.612406E-2,-3.8591237E-3,-1.8923301E-2,-3.354093E-2,3.3668291E-3,-1.0646206E-2,1.8507287E-2,-4.556074E-3,3.5566386E-2,2.2870405E-2,-3.7282337E-2,1.7386513E-2,2.1186927E-2,6.7209676E-3,-2.03433E-2,-2.7451068E-3,4.662515E-2,-3.1209243E-2,4.427927E-2,1.932319E-2,2.504601E-2,3.7599888E-2,8.190603E-3,3.1105572E-2,1.7571634E-2,-3.7830565E-2,2.8302232E-2,-1.1412936E-2,-3.8202353E-2,-8.597417E-2,2.6065473E-2,-5.8097135E-2,-2.4969531E-2,4.874521E-2,-7.1930857E-3,2.2078415E-2,7.838161E-3,-3.202423E-2,-7.2329275E-2,-2.7564762E-2,1.7586483E-3,4.4485953E-2,-1.3336464E-2,4.7359064E-2,3.424428E-2,-2.71886E-2,-1.7622603E-2,1.9218446E-3,-4.8519786E-2,1.9855594E-2,-6.3920766E-2,-4.93531E-3,-2.1628968E-3,-6.489718E-2,-3.6949325E-2,1.1264749E-2],"split_indices":[4,11,11,7,23,23,9,9,23,7,7,7,9,7,23,5,21,9,5,9,9,9,9,21,9,23,12,19,0,0,21,23,23,18,23,5,23,2,0,0,6,17,5,0,20,5,22,22,19,21,6,21,15,7,22,6,23,4,23,19,21,21,17,0,0,0,0,0,0,0,0,0,0,0,0,0,0,0,0,0,0,0,0,0,0,0,0,0,0,0,0,0,0,0,0,0,0,0,0,0,0,0,0,0,0,0,0,0,0,0,0,0,0,0,0,0,0,0,0,0,0,0,0,0,0,0,0],"split_type":[0,0,0,0,0,0,0,0,0,0,0,0,0,0,0,0,0,0,0,0,0,0,0,0,0,0,0,0,0,0,0,0,0,0,0,0,0,0,0,0,0,0,0,0,0,0,0,0,0,0,0,0,0,0,0,0,0,0,0,0,0,0,0,0,0,0,0,0,0,0,0,0,0,0,0,0,0,0,0,0,0,0,0,0,0,0,0,0,0,0,0,0,0,0,0,0,0,0,0,0,0,0,0,0,0,0,0,0,0,0,0,0,0,0,0,0,0,0,0,0,0,0,0,0,0,0,0],"sum_hessian":[6.749388E3,5.3998433E3,1.3495453E3,3.3033127E3,2.0965305E3,8.3049963E2,5.1904565E2,1.0653856E3,2.237927E3,1.2890684E3,8.074621E2,5.2279974E2,3.0769995E2,3.551009E2,1.6394475E2,7.3831824E2,3.270674E2,1.3962963E3,8.4163086E2,4.3234116E2,8.567272E2,2.60358E2,5.4710406E2,1.7406355E2,3.4873618E2,2.182397E2,8.946025E1,1.1810526E2,2.3699562E2,1.04926445E2,5.901829E1,4.489632E2,2.89355E2,2.8335965E0,3.2423383E2,9.637454E2,4.3255078E2,5.303357E2,3.1129517E2,3.0278668E2,1.2955447E2,6.030817E2,2.536454E2,1.8108913E2,7.926889E1,3.8924036E2,1.5786372E2,9.210537E1,8.195819E1,2.436085E2,1.0512766E2,6.589529E1,1.523444E2,6.3134552E1,2.6325697E1,7.293972E1,4.5165543E1,1.8349365E1,2.1864626E2,6.6214836E1,3.871161E1,1.6258204E1,4.276009E1,2.6978485E2,1.7917834E2,1.8115079E2,1.08204216E2,1.739973E0,1.0936235E0,2.084671E2,1.15766716E2,6.14032E2,3.4971344E2,2.7769318E2,1.5485764E2,2.6819223E2,2.621435E2,2.1418839E2,9.710679E1,1.5520883E2,1.4757787E2,5.1214485E0,1.2443303E2,1.10984085E2,4.920977E2,1.6024411E2,9.34013E1,1.7990167E2,1.1874411E0,3.7824337E1,4.1444553E1,2.4906136E2,1.4017899E2,1.1731014E2,4.0553574E1,6.2671785E0,8.583819E1,1.2086839E1,6.987135E1,2.3467062E2,8.93788E0,1.4044679E0,1.037232E2,6.3940174E1,1.955113E0,1.2865048E2,2.3693926E1,1.802972E1,4.510483E1,1.4247409E1,1.2078289E1,3.993892E1,3.30008E1,4.1026066E1,4.139477E0,1.6626068E1,1.7232971E0,1.4262712E2,7.601914E1,6.3125687E1,3.089154E0,5.61209E0,3.3099518E1,8.508382E0,7.7498217E0,5.503489E0,3.72566E1],"tree_param":{"num_deleted":"0","num_feature":"25","num_nodes":"127","size_leaf_vector":"1"}},{"base_weights":[-4.5711384E-3,9.379476E-2,-3.947527E-1,-5.158041E-2,3.2543212E-1,-5.73434E-1,-1.1227651E-1,2.0690107E-1,-1.7540306E-1,1.6511519E-1,6.039414E-1,-7.145189E-1,-3.3360732E-1,6.3562565E-2,-4.8562822E-1,6.6040866E-2,4.409388E-1,-3.0149364E-1,3.812418E-2,4.4668674E-1,2.7612263E-2,7.0333457E-1,3.68326E-1,-4.6188748E-1,-8.366537E-1,-1.8810368E-1,-6.992014E-1,-6.464243E-2,3.1791723E-1,-6.6593736E-1,-2.1960236E-1,1.7495903E-1,-1.8194582E-1,2.4923877E-1,6.321514E-1,-2.1324484E-1,-4.9408543E-1,1.3312809E-1,-1.878498E-1,5.187622E-1,1.8040799E-1,1.4117703E-1,-2.3649272E-1,9.1657436E-1,6.048445E-1,7.509544E-1,2.933158E-1,-6.2147146E-1,-2.4666622E-1,-1.0421178E0,-7.1267927E-1,-1.322743E-1,-7.756066E-1,-7.7940935E-1,7.969278E-1,1.7797112E-1,-1.8465012E-1,7.8210384E-1,1.9142984E-1,-1.0510148E0,-4.1604155E-1,5.545941E-2,-2.8929216E-1,5.458507E-3,2.0411795E-2,-6.5144494E-2,-7.6117027E-3,-1.1946555E-2,1.5168642E-2,4.0452756E-2,9.119006E-3,-1.592715E-2,-1.6413959E-3,-3.2826915E-2,-1.9950075E-2,1.2240614E-3,1.5990797E-2,2.8705366E-3,-1.832862E-2,2.998029E-2,1.7003564E-2,-1.1779706E-3,2.7944043E-2,4.3322463E-3,1.6933288E-2,-1.880238E-2,4.935154E-4,-7.1340413E-3,4.7158383E-2,2.143409E-2,3.551929E-2,-1.0012884E-2,4.308119E-2,-5.6588897E-3,2.1441104E-2,2.8130717E-3,-3.5228368E-2,3.3577714E-2,-1.8373525E-2,-5.311901E-2,2.4644164E-2,-2.9332194E-2,-4.8945174E-2,-3.6055043E-3,-3.90541E-2,-6.631348E-2,-1.1350426E-2,2.4131186E-2,-4.342373E-2,-7.632792E-3,5.5457063E-2,3.204674E-2,-2.2826677E-3,1.7587614E-3,-1.7086355E-2,4.9767215E-2,1.5126566E-2,-3.3290084E-2,1.4993516E-2,-2.5163237E-2,-6.2353667E-2,-9.423233E-3,-4.0293287E-2,-7.662553E-3,-4.101282E-2],"categories":[],"categories_nodes":[],"categories_segments":[],"categories_sizes":[],"default_left":[0,0,0,0,0,0,0,0,0,0,0,0,0,0,0,0,0,0,0,0,0,0,0,0,0,0,0,0,0,0,0,0,0,0,0,0,0,0,0,0,0,0,0,0,0,0,0,0,0,0,0,0,0,0,0,0,0,0,0,0,0,0,0,0,0,0,0,0,0,0,0,0,0,0,0,0,0,0,0,0,0,0,0,0,0,0,0,0,0,0,0,0,0,0,0,0,0,0,0,0,0,0,0,0,0,0,0,0,0,0,0,0,0,0,0,0,0,0,0,0,0,0,0,0,0],"id":7,"left_children":[1,3,5,7,9,11,13,15,17,19,21,23,25,27,29,31,33,35,37,39,41,43,45,47,49,51,53,55,57,59,61,63,65,67,69,71,73,75,77,79,81,83,85,87,89,91,93,95,97,99,101,103,105,107,109,111,113,115,117,119,121,-1,123,-1,-1,-1,-1,-1,-1,-1,-1,-1,-1,-1,-1,-1,-1,-1,-1,-1,-1,-1,-1,-1,-1,-1,-1,-1,-1,-1,-1,-1,-1,-1,-1,-1,-1,-1,-1,-1,-1,-1,-1,-1,-1,-1,-1,-1,-1,-1,-1,-1,-1,-1,-1,-1,-1,-1,-1,-1,-1,-1,-1,-1,-1],"loss_changes":[2.5978925E2,1.8205884E2,6.8722855E1,1.06369286E2,9.297995E1,2.799945E1,3.4779022E1,3.545949E1,6.0503723E1,5.1266155E1,1.7567566E1,1.5799133E1,1.6411308E1,1.1783163E1,7.98822E0,1.821526E1,1.46621475E1,2.3905487E1,1.7952421E1,8.245392E0,2.675558E1,1.0666382E1,6.3219433E0,5.79496E0,8.233246E0,7.238615E0,1.1201092E1,7.0397654E0,6.957691E0,9.241894E0,6.8031373E0,7.1419783E0,6.6603637E0,5.451416E0,1.5905327E1,1.8428013E1,6.5834656E0,1.1928379E1,1.0873286E1,4.7281036E0,7.276493E0,6.6872206E0,9.227501E0,4.8349E0,6.5451355E0,4.0381317E0,1.0636641E1,5.6031494E0,8.610233E0,4.5808105E0,6.9060516E0,7.9692802E0,5.5044365E0,9.881794E0,1.6459022E0,8.327612E0,5.5887027E0,2.3166437E0,9.165867E0,3.5531387E0,5.406497E0,0E0,4.735952E0,0E0,0E0,0E0,0E0,0E0,0E0,0E0,0E0,0E0,0E0,0E0,0E0,0E0,0E0,0E0,0E0,0E0,0E0,0E0,0E0,0E0,0E0,0E0,0E0,0E0,0E0,0E0,0E0,0E0,0E0,0E0,0E0,0E0,0E0,0E0,0E0,0E0,0E0,0E0,0E0,0E0,0E0,0E0,0E0,0E0,0E0,0E0,0E0,0E0,0E0,0E0,0E0,0E0,0E0,0E0,0E0,0E0,0E0,0E0,0E0,0E0,0E0],"parents":[2147483647,0,0,1,1,2,2,3,3,4,4,5,5,6,6,7,7,8,8,9,9,10,10,11,11,12,12,13,13,14,14,15,15,16,16,17,17,18,18,19,19,20,20,21,21,22,22,23,23,24,24,25,25,26,26,27,27,28,28,29,29,30,30,31,31,32,32,33,33,34,34,35,35,36,36,37,37,38,38,39,39,40,40,41,41,42,42,43,43,44,44,45,45,46,46,47,47,48,48,49,49,50,50,51,51,52,52,53,53,54,54,55,55,56,56,57,57,58,58,59,59,60,60,62,62],"right_children":[2,4,6,8,10,12,14,16,18,20,22,24,26,28,30,32,34,36,38,40,42,44,46,48,50,52,54,56,58,60,62,64,66,68,70,72,74,76,78,80,82,84,86,88,90,92,94,96,98,100,102,104,106,108,110,112,114,116,118,120,122,-1,124,-1,-1,-1,-1,-1,-1,-1,-1,-1,-1,-1,-1,-1,-1,-1,-1,-1,-1,-1,-1,-1,-1,-1,-1,-1,-1,-1,-1,-1,-1,-1,-1,-1,-1,-1,-1,-1,-1,-1,-1,-1,-1,-1,-1,-1,-1,-1,-1,-1,-1,-1,-1,-1,-1,-1,-1,-1,-1,-1,-1,-1,-1],"split_conditions":[4.95237E3,1E0,1E0,1E0,6.9895154E-1,6.9682074E-1,1E0,7.0159525E-1,7.0159525E-1,1E0,1E0,1E0,1E0,7.1414846E-1,2.9546E4,1E0,4E0,1E0,1E0,7.686691E-1,1E0,1E0,3.4E1,5.21241E-1,4.75E-1,1.67E2,4.6889E4,1E0,1.0551E4,5.1865613E-1,3.0524E4,7.753909E-1,3.118279E-1,1.67331E3,1E0,5E0,3E0,5E0,2.1724E4,1E0,2E-1,1.356593E4,5E0,5.1553E2,3E0,4.885E3,7.6E1,3.2539362E-1,4.28E-1,8.9516443E-1,1E0,4.6079E4,8.184192E-1,2.2E1,5.40515E3,1.480187E4,1E-1,2E0,1.9E1,1.457209E4,2E0,5.545941E-2,8.06975E3,5.458507E-3,2.0411795E-2,-6.5144494E-2,-7.6117027E-3,-1.1946555E-2,1.5168642E-2,4.0452756E-2,9.119006E-3,-1.592715E-2,-1.6413959E-3,-3.2826915E-2,-1.9950075E-2,1.2240614E-3,1.5990797E-2,2.8705366E-3,-1.832862E-2,2.998029E-2,1.7003564E-2,-1.1779706E-3,2.7944043E-2,4.3322463E-3,1.6933288E-2,-1.880238E-2,4.935154E-4,-7.1340413E-3,4.7158383E-2,2.143409E-2,3.551929E-2,-1.0012884E-2,4.308119E-2,-5.6588897E-3,2.1441104E-2,2.8130717E-3,-3.5228368E-2,3.3577714E-2,-1.8373525E-2,-5.311901E-2,2.4644164E-2,-2.9332194E-2,-4.8945174E-2,-3.6055043E-3,-3.90541E-2,-6.631348E-2,-1.1350426E-2,2.4131186E-2,-4.342373E-2,-7.632792E-3,5.5457063E-2,3.204674E-2,-2.2826677E-3,1.7587614E-3,-1.7086355E-2,4.9767215E-2,1.5126566E-2,-3.3290084E-2,1.4993516E-2,-2.5163237E-2,-6.2353667E-2,-9.423233E-3,-4.0293287E-2,-7.662553E-3,-4.101282E-2],"split_indices":[4,11,11,7,23,23,9,23,23,7,9,7,9,23,0,9,5,9,9,22,9,7,6,23,19,6,0,7,0,23,0,22,22,18,9,5,5,5,0,9,20,18,5,18,5,0,6,23,19,22,9,0,23,1,4,18,20,8,6,18,7,0,4,0,0,0,0,0,0,0,0,0,0,0,0,0,0,0,0,0,0,0,0,0,0,0,0,0,0,0,0,0,0,0,0,0,0,0,0,0,0,0,0,0,0,0,0,0,0,0,0,0,0,0,0,0,0,0,0,0,0,0,0,0,0],"split_type":[0,0,0,0,0,0,0,0,0,0,0,0,0,0,0,0,0,0,0,0,0,0,0,0,0,0,0,0,0,0,0,0,0,0,0,0,0,0,0,0,0,0,0,0,0,0,0,0,0,0,0,0,0,0,0,0,0,0,0,0,0,0,0,0,0,0,0,0,0,0,0,0,0,0,0,0,0,0,0,0,0,0,0,0,0,0,0,0,0,0,0,0,0,0,0,0,0,0,0,0,0,0,0,0,0,0,0,0,0,0,0,0,0,0,0,0,0,0,0,0,0,0,0,0,0],"sum_hessian":[6.766807E3,5.4049604E3,1.3618466E3,3.3212976E3,2.0836628E3,8.3355096E2,5.282956E2,1.0755018E3,2.245796E3,1.3234467E3,7.6021625E2,5.235679E2,3.099831E2,3.597108E2,1.6858481E2,6.722045E2,4.032973E2,1.4117357E3,8.340601E2,4.3349957E2,8.899471E2,5.332727E2,2.2694351E2,1.7218701E2,3.5138086E2,2.2281783E2,8.716527E1,2.3965889E2,1.2005189E2,9.95844E1,6.9000404E1,4.6726965E2,2.049349E2,2.0254222E2,2.0075508E2,9.6956976E2,4.4216595E2,5.87482E2,2.4657812E2,3.404103E2,9.308926E1,6.2266675E2,2.6728033E2,1.6586147E2,3.6741125E2,3.572062E1,1.912229E2,9.77896E1,7.439742E1,1.2944475E2,2.2193613E2,2.0460017E2,1.8217651E1,8.318475E1,3.9805102E0,7.915407E1,1.6050482E2,2.4598057E1,9.545383E1,3.793011E1,6.1654285E1,2.695158E0,6.6305244E1,3.6562408E2,1.0164555E2,4.1852646E0,2.0074963E2,1.9877478E1,1.8266475E2,1.4351074E2,5.724435E1,6.117586E2,3.578112E2,1.6106993E2,2.8109604E2,3.7207584E2,2.1540613E2,1.04226776E2,1.4235135E2,2.3275247E2,1.07657845E2,6.1099266E1,3.198999E1,4.8906195E2,1.336048E2,1.7029091E2,9.698942E1,3.9551651E0,1.619063E2,1.3954814E2,2.2786311E2,3.6384408E0,3.2082176E1,4.7849148E1,1.4337375E2,1.0715607E1,8.707399E1,8.1199E0,6.627752E1,1.280622E2,1.3825475E0,1.5280093E2,6.9135185E1,1.882544E2,1.634577E1,8.384266E0,9.833385E0,5.1923056E0,7.7992455E1,1.1113722E0,2.869138E0,2.5172993E1,5.398108E1,6.721507E1,9.328976E1,1.6282576E1,8.315481E0,1.0141847E1,8.531198E1,1.0938089E1,2.6992023E1,3.9864883E1,2.1789404E1,5.380756E1,1.24976845E1],"tree_param":{"num_deleted":"0","num_feature":"25","num_nodes":"125","size_leaf_vector":"1"}},{"base_weights":[-2.3035142E-3,-2.4826649E-1,2.6271826E-1,-1.5792385E-1,-6.086322E-1,3.7550357E-1,-1.7957857E-1,8.876512E-2,-2.7356678E-1,-4.7487357E-1,-9.2079777E-1,2.3779114E-1,6.049607E-1,9.686705E-2,-3.1514418E-1,-4.205327E-2,2.9776546E-1,-3.8721254E-1,-4.446313E-2,-6.3909024E-1,-1.8921089E-1,-5.4709655E-1,-1.106802E0,4.9451798E-1,1.1436305E-1,7.1434397E-1,3.4201097E-1,1.456607E-1,-5.8211225E-1,-4.443165E-1,-9.2878774E-2,-6.611074E-1,-1.755916E-2,3.926296E-1,8.225404E-2,-2.98591E-1,-5.8615386E-1,4.6898626E-2,-2.6028484E-1,-3.7525794E-1,-7.5699174E-1,1.5558172E-2,-3.9549235E-1,-1.3215023E0,-4.071669E-1,-3.643178E-1,-1.2194135E0,6.299364E-1,1.8734553E-1,2.1330741E-1,-1.0432072E-1,9.2996883E-1,6.144644E-1,6.105325E-1,2.1390268E-1,3.4926626E-1,-4.943989E-2,-1.7004484E0,1.2273886E-1,-6.098984E-1,-2.6221287E-1,2.8551593E-1,-1.8176039E-1,4.4322573E-2,-4.1359585E-2,2.7409581E-2,-2.073432E-3,2.7720792E-2,1.3679581E-2,1.0484641E-2,-3.278835E-2,-1.5733477E-2,2.0727552E-2,-2.8337494E-2,-6.861427E-2,3.172985E-3,-3.36656E-2,-2.0298848E-2,-4.6347282E-4,-2.7070945E-2,5.8131636E-4,-6.087165E-2,-2.8701542E-2,1.0253734E-2,-2.764519E-2,-3.4538154E-2,-1.0134137E-2,-1.30593525E-2,-9.903028E-2,-8.8811957E-4,-3.7527498E-2,-5.9676122E-2,3.352629E-3,-6.2745005E-2,1.4868665E-2,-3.9169148E-2,3.1899046E-2,-9.088359E-3,1.859963E-2,9.918849E-3,4.274514E-2,8.720074E-3,-9.181238E-3,4.763435E-2,1.591125E-2,3.3662874E-2,2.0128818E-2,2.2053098E-2,4.6207543E-2,-1.1834278E-2,1.5363799E-2,2.9872118E-2,-6.817697E-3,-1.871112E-2,6.3794227E-3,-2.402125E-2,-1.0591587E-1,3.7609532E-2,-3.761643E-2,-3.2363918E-2,4.324761E-2,2.5919012E-3,-2.324274E-2,1.1403022E-3,4.161102E-2,-5.2315503E-2,-4.3085017E-3],"categories":[],"categories_nodes":[],"categories_segments":[],"categories_sizes":[],"default_left":[0,0,0,0,0,0,0,0,0,0,0,0,0,0,0,0,0,0,0,0,0,0,0,0,0,0,0,0,0,0,0,0,0,0,0,0,0,0,0,0,0,0,0,0,0,0,0,0,0,0,0,0,0,0,0,0,0,0,0,0,0,0,0,0,0,0,0,0,0,0,0,0,0,0,0,0,0,0,0,0,0,0,0,0,0,0,0,0,0,0,0,0,0,0,0,0,0,0,0,0,0,0,0,0,0,0,0,0,0,0,0,0,0,0,0,0,0,0,0,0,0,0,0,0,0,0,0],"id":8,"left_children":[1,3,5,7,9,11,13,15,17,19,21,23,25,27,29,31,33,35,37,39,41,43,45,47,49,51,53,55,57,59,61,63,65,67,69,71,73,75,77,79,81,83,85,87,89,91,93,95,97,99,101,103,105,107,109,111,113,115,117,119,121,123,125,-1,-1,-1,-1,-1,-1,-1,-1,-1,-1,-1,-1,-1,-1,-1,-1,-1,-1,-1,-1,-1,-1,-1,-1,-1,-1,-1,-1,-1,-1,-1,-1,-1,-1,-1,-1,-1,-1,-1,-1,-1,-1,-1,-1,-1,-1,-1,-1,-1,-1,-1,-1,-1,-1,-1,-1,-1,-1,-1,-1,-1,-1,-1,-1],"loss_changes":[4.406899E2,1.1405788E2,1.6240186E2,8.004099E1,2.8894775E1,8.180252E1,2.4835741E1,2.4509151E1,4.9710205E1,2.3045036E1,1.3967285E1,5.134974E1,2.7713043E1,7.325261E0,1.2715942E1,8.357334E0,7.021782E0,2.2330368E1,1.2521159E1,9.456871E0,7.6803713E0,7.2260437E0,1.11779175E1,2.1779587E1,2.3755913E1,1.4192688E1,9.758499E0,8.148493E0,1.19165325E1,8.305725E0,5.5871973E0,6.12554E0,7.218259E0,4.4572144E0,1.0175139E1,1.0279778E1,5.2072906E0,5.3691E0,6.9020624E0,6.351371E0,1.7451149E1,1.0039563E1,5.0147667E0,6.834612E0,8.294331E0,7.137956E0,6.8467407E0,4.64888E0,1.11423645E1,7.067711E0,7.5994606E0,2.685852E0,5.6022644E0,4.4987335E0,8.325839E0,1.2168155E1,6.108188E0,1.9440193E0,6.097866E0,8.6250725E0,8.644853E0,4.533148E0,1.0974705E1,0E0,0E0,0E0,0E0,0E0,0E0,0E0,0E0,0E0,0E0,0E0,0E0,0E0,0E0,0E0,0E0,0E0,0E0,0E0,0E0,0E0,0E0,0E0,0E0,0E0,0E0,0E0,0E0,0E0,0E0,0E0,0E0,0E0,0E0,0E0,0E0,0E0,0E0,0E0,0E0,0E0,0E0,0E0,0E0,0E0,0E0,0E0,0E0,0E0,0E0,0E0,0E0,0E0,0E0,0E0,0E0,0E0,0E0,0E0,0E0,0E0,0E0,0E0,0E0],"parents":[2147483647,0,0,1,1,2,2,3,3,4,4,5,5,6,6,7,7,8,8,9,9,10,10,11,11,12,12,13,13,14,14,15,15,16,16,17,17,18,18,19,19,20,20,21,21,22,22,23,23,24,24,25,25,26,26,27,27,28,28,29,29,30,30,31,31,32,32,33,33,34,34,35,35,36,36,37,37,38,38,39,39,40,40,41,41,42,42,43,43,44,44,45,45,46,46,47,47,48,48,49,49,50,50,51,51,52,52,53,53,54,54,55,55,56,56,57,57,58,58,59,59,60,60,61,61,62,62],"right_children":[2,4,6,8,10,12,14,16,18,20,22,24,26,28,30,32,34,36,38,40,42,44,46,48,50,52,54,56,58,60,62,64,66,68,70,72,74,76,78,80,82,84,86,88,90,92,94,96,98,100,102,104,106,108,110,112,114,116,118,120,122,124,126,-1,-1,-1,-1,-1,-1,-1,-1,-1,-1,-1,-1,-1,-1,-1,-1,-1,-1,-1,-1,-1,-1,-1,-1,-1,-1,-1,-1,-1,-1,-1,-1,-1,-1,-1,-1,-1,-1,-1,-1,-1,-1,-1,-1,-1,-1,-1,-1,-1,-1,-1,-1,-1,-1,-1,-1,-1,-1,-1,-1,-1,-1,-1,-1],"split_conditions":[7.01E2,4.9992E3,4.9992E3,1E0,1E0,6.9682074E-1,1E0,6.9682074E-1,7.244354E-1,7.0889276E-1,1E0,1E0,1E0,8.5E1,6.9895154E-1,5.56E2,1E0,1E0,1E0,1E0,2E0,5.40515E3,4.26E-1,1E0,1E0,1E0,1E0,2E0,4.4E1,5E0,3.9E1,3.5867596E-1,2.1E1,2.0936E4,6.83E2,1.76E2,1.76E2,9.447597E-1,2E-1,4.72E-1,5.93E2,3E0,6.8E1,4.4E1,2E0,5.308399E-1,9.421796E-1,4.02E-1,1E-1,5.29E-1,6.8329E2,4.63295E3,8.5E-1,1.18E2,3.3E1,5.53E-1,4.932481E-1,1E0,1E0,8.885671E-1,7E0,3E0,5.4E1,4.4322573E-2,-4.1359585E-2,2.7409581E-2,-2.073432E-3,2.7720792E-2,1.3679581E-2,1.0484641E-2,-3.278835E-2,-1.5733477E-2,2.0727552E-2,-2.8337494E-2,-6.861427E-2,3.172985E-3,-3.36656E-2,-2.0298848E-2,-4.6347282E-4,-2.7070945E-2,5.8131636E-4,-6.087165E-2,-2.8701542E-2,1.0253734E-2,-2.764519E-2,-3.4538154E-2,-1.0134137E-2,-1.30593525E-2,-9.903028E-2,-8.8811957E-4,-3.7527498E-2,-5.9676122E-2,3.352629E-3,-6.2745005E-2,1.4868665E-2,-3.9169148E-2,3.1899046E-2,-9.088359E-3,1.859963E-2,9.918849E-3,4.274514E-2,8.720074E-3,-9.181238E-3,4.763435E-2,1.591125E-2,3.3662874E-2,2.0128818E-2,2.2053098E-2,4.6207543E-2,-1.1834278E-2,1.5363799E-2,2.9872118E-2,-6.817697E-3,-1.871112E-2,6.3794227E-3,-2.402125E-2,-1.0591587E-1,3.7609532E-2,-3.761643E-2,-3.2363918E-2,4.324761E-2,2.5919012E-3,-2.324274E-2,1.1403022E-3,4.161102E-2,-5.2315503E-2,-4.3085017E-3],"split_indices":[16,4,4,7,9,23,7,23,23,23,7,7,9,1,23,16,9,9,9,7,3,4,19,9,9,7,7,13,24,12,6,22,1,0,16,6,6,23,20,21,16,10,6,1,14,23,23,19,20,21,4,4,19,6,6,19,23,10,2,22,12,3,6,0,0,0,0,0,0,0,0,0,0,0,0,0,0,0,0,0,0,0,0,0,0,0,0,0,0,0,0,0,0,0,0,0,0,0,0,0,0,0,0,0,0,0,0,0,0,0,0,0,0,0,0,0,0,0,0,0,0,0,0,0,0,0,0],"split_type":[0,0,0,0,0,0,0,0,0,0,0,0,0,0,0,0,0,0,0,0,0,0,0,0,0,0,0,0,0,0,0,0,0,0,0,0,0,0,0,0,0,0,0,0,0,0,0,0,0,0,0,0,0,0,0,0,0,0,0,0,0,0,0,0,0,0,0,0,0,0,0,0,0,0,0,0,0,0,0,0,0,0,0,0,0,0,0,0,0,0,0,0,0,0,0,0,0,0,0,0,0,0,0,0,0,0,0,0,0,0,0,0,0,0,0,0,0,0,0,0,0,0,0,0,0,0,0],"sum_hessian":[6.758547E3,3.505347E3,3.2532E3,2.8038643E3,7.014825E2,2.5923132E3,6.608868E2,8.9496387E2,1.9089005E3,4.92832E2,2.0865047E2,1.6212997E3,9.710134E2,2.17548E2,4.4333875E2,5.5092523E2,3.4403867E2,1.2755032E3,6.3339734E2,3.1215097E2,1.8068103E2,7.064959E1,1.3800087E2,5.254248E2,1.0958749E3,6.845385E2,2.8647498E2,2.0369527E2,1.3852732E1,2.79756E2,1.6358275E2,1.9979559E1,5.309457E2,2.3831499E2,1.0572368E2,8.841469E2,3.9135623E2,4.4556375E2,1.8783359E2,9.770219E1,2.1444879E2,9.1136894E1,8.9544136E1,9.519917E0,6.112967E1,1.8731726E1,1.1926915E2,3.639326E2,1.6149217E2,7.5451575E2,3.4135913E2,2.1407416E2,4.7046432E2,9.131283E1,1.9516214E2,9.9288414E1,1.0440685E2,4.809444E0,9.043288E0,1.4529451E2,1.344615E2,3.0694609E1,1.3288814E2,1.5160232E0,1.8463535E1,2.06396E1,5.1030606E2,9.9468475E1,1.3884651E2,9.076635E1,1.4957331E1,8.6519885E2,1.8948057E1,3.836086E2,7.7476335E0,4.3643982E2,9.123944E0,1.1846048E2,6.937311E1,6.80684E1,2.9633795E1,5.9373867E1,1.5507492E2,6.882945E1,2.230744E1,3.435298E1,5.519115E1,4.1844945E0,5.335422E0,2.9138102E1,3.199157E1,5.8054132E0,1.2926312E1,1.1671124E2,2.5579078E0,1.5142756E0,3.6241833E2,5.3853558E1,1.0763862E2,7.386363E2,1.587945E1,7.53466E1,2.660125E2,2.0587146E2,8.202706E0,3.6657297E2,1.03891365E2,6.0841927E1,3.0470901E1,3.3236942E1,1.6192519E2,6.555585E1,3.3732567E1,3.6439583E1,6.796727E1,1.7754592E0,3.0339847E0,5.341483E0,3.7018049E0,1.422503E2,3.0442023E0,5.3026363E1,8.1435135E1,2.1435732E1,9.258876E0,1.223999E1,1.2064814E2],"tree_param":{"num_deleted":"0","num_feature":"25","num_nodes":"127","size_leaf_vector":"1"}},{"base_weights":[5.9328144E-3,-2.2682437E-1,2.5928417E-1,-1.4645782E-1,-5.527984E-1,3.7176397E-1,-1.8897784E-1,8.657912E-2,-2.5566792E-1,-4.4310045E-1,-8.156806E-1,6.1935306E-1,2.5522387E-1,-6.679272E-2,-4.4910207E-1,-4.542505E-2,3.1856057E-1,-1.5312228E-1,-4.9081266E-1,-5.6366974E-1,-2.5706893E-1,-5.001585E-1,-9.618416E-1,7.3445666E-1,3.6693907E-1,1.1840404E-1,4.8284593E-1,1.9230673E-1,-1.9128123E-1,-6.196776E-1,-2.0810217E-1,4.2381704E-2,-2.4555624E-1,3.472414E-1,-1.5500844E-1,-2.6396897E-1,3.555191E-2,-5.9992796E-1,-2.8555965E-1,-8.3299536E-1,-4.6322647E-1,-4.903343E-1,-1.1344527E-1,4.0724494E-2,-5.6060785E-1,-1.031685E0,-4.0870555E-2,6.235431E-1,9.2225647E-1,2.4390082E-1,5.757197E-1,2.046556E-1,-7.6076E-2,5.9272575E-1,2.2762054E-1,-3.7319615E-2,4.35682E-1,-2.8661346E-1,7.6592915E-2,-5.348349E-1,-1.6736976E0,-4.3903723E-1,8.770309E-2,1.4936715E-2,-1.0056533E-3,-2.3324527E-2,-3.5545852E-3,3.4484547E-2,1.4396955E-2,-7.104053E-2,8.408031E-3,-4.4270676E-2,-1.1875191E-2,-1.3192026E-3,1.2585381E-2,-3.9408866E-2,-2.4997104E-2,-2.1362511E-2,-1.3197586E-3,1.8400831E-2,-4.6801087E-2,-1.463287E-2,-3.4911215E-2,-2.1284295E-2,-8.065996E-2,-4.584306E-2,-8.953646E-4,-6.4462565E-2,-1.9974992E-2,-7.315748E-2,-4.318996E-2,2.0597506E-2,-5.3105194E-2,1.6738234E-2,3.2992523E-2,4.681484E-2,-2.9264265E-3,-4.4794944E-3,2.099905E-2,1.2440369E-2,3.6501102E-2,6.4405426E-3,1.5568216E-2,9.451227E-3,-8.968568E-3,-4.1838914E-5,3.0775398E-2,-1.603399E-3,1.9796409E-2,-1.1815383E-2,2.132324E-2,3.8573068E-2,3.7188006E-3,-2.5140422E-3,-2.1144453E-2,-2.928561E-2,9.873479E-3,-3.0497698E-2,1.2860447E-2,-1.1661465E-2,-9.831845E-2,-9.5476046E-2,-1.6732492E-2,-3.0487943E-2,1.9052854E-2],"categories":[],"categories_nodes":[],"categories_segments":[],"categories_sizes":[],"default_left":[0,0,0,0,0,0,0,0,0,0,0,0,0,0,0,0,0,0,0,0,0,0,0,0,0,0,0,0,0,0,0,0,0,0,0,0,0,0,0,0,0,0,0,0,0,0,0,0,0,0,0,0,0,0,0,0,0,0,0,0,0,0,0,0,0,0,0,0,0,0,0,0,0,0,0,0,0,0,0,0,0,0,0,0,0,0,0,0,0,0,0,0,0,0,0,0,0,0,0,0,0,0,0,0,0,0,0,0,0,0,0,0,0,0,0,0,0,0,0,0,0,0,0,0,0],"id":9,"left_children":[1,3,5,7,9,11,13,15,17,19,21,23,25,27,29,31,33,35,37,39,41,43,45,47,49,51,53,55,57,59,61,63,65,67,69,71,73,75,77,79,81,83,85,-1,87,89,91,93,95,97,99,101,103,105,107,109,111,113,115,117,119,121,123,-1,-1,-1,-1,-1,-1,-1,-1,-1,-1,-1,-1,-1,-1,-1,-1,-1,-1,-1,-1,-1,-1,-1,-1,-1,-1,-1,-1,-1,-1,-1,-1,-1,-1,-1,-1,-1,-1,-1,-1,-1,-1,-1,-1,-1,-1,-1,-1,-1,-1,-1,-1,-1,-1,-1,-1,-1,-1,-1,-1,-1,-1],"loss_changes":[3.978756E2,9.204263E1,1.6296075E2,7.185155E1,1.9684784E1,7.437036E1,2.0587885E1,2.761637E1,4.6270546E1,1.0905334E1,8.9028015E0,2.372815E1,5.4691658E1,1.4311286E1,8.386658E0,1.0120867E1,4.495449E0,2.8030169E1,1.28901825E1,7.677948E0,6.4966154E0,5.7414513E0,8.833099E0,1.1220428E1,6.5561028E0,1.8455666E1,1.8364594E1,8.070656E0,7.668494E0,9.906715E0,6.00605E0,6.4262395E0,6.735322E0,6.0694733E0,8.160708E0,1.367223E1,6.656638E0,6.7559357E0,7.492098E0,1.02085495E1,8.588638E0,4.7016087E0,9.3745365E0,0E0,7.0179195E0,8.023285E0,5.4167857E0,3.5442963E0,2.921524E0,9.771201E0,4.6572723E0,6.1256275E0,9.3027315E0,6.2277985E0,8.760761E0,7.0294952E0,8.440537E0,7.097885E0,6.470729E0,6.895706E0,3.1370983E0,6.9169292E0,8.239094E0,0E0,0E0,0E0,0E0,0E0,0E0,0E0,0E0,0E0,0E0,0E0,0E0,0E0,0E0,0E0,0E0,0E0,0E0,0E0,0E0,0E0,0E0,0E0,0E0,0E0,0E0,0E0,0E0,0E0,0E0,0E0,0E0,0E0,0E0,0E0,0E0,0E0,0E0,0E0,0E0,0E0,0E0,0E0,0E0,0E0,0E0,0E0,0E0,0E0,0E0,0E0,0E0,0E0,0E0,0E0,0E0,0E0,0E0,0E0,0E0,0E0,0E0],"parents":[2147483647,0,0,1,1,2,2,3,3,4,4,5,5,6,6,7,7,8,8,9,9,10,10,11,11,12,12,13,13,14,14,15,15,16,16,17,17,18,18,19,19,20,20,21,21,22,22,23,23,24,24,25,25,26,26,27,27,28,28,29,29,30,30,31,31,32,32,33,33,34,34,35,35,36,36,37,37,38,38,39,39,40,40,41,41,42,42,44,44,45,45,46,46,47,47,48,48,49,49,50,50,51,51,52,52,53,53,54,54,55,55,56,56,57,57,58,58,59,59,60,60,61,61,62,62],"right_children":[2,4,6,8,10,12,14,16,18,20,22,24,26,28,30,32,34,36,38,40,42,44,46,48,50,52,54,56,58,60,62,64,66,68,70,72,74,76,78,80,82,84,86,-1,88,90,92,94,96,98,100,102,104,106,108,110,112,114,116,118,120,122,124,-1,-1,-1,-1,-1,-1,-1,-1,-1,-1,-1,-1,-1,-1,-1,-1,-1,-1,-1,-1,-1,-1,-1,-1,-1,-1,-1,-1,-1,-1,-1,-1,-1,-1,-1,-1,-1,-1,-1,-1,-1,-1,-1,-1,-1,-1,-1,-1,-1,-1,-1,-1,-1,-1,-1,-1,-1,-1,-1,-1,-1,-1],"split_conditions":[7.01E2,4.9992E3,4.9992E3,1E0,1E0,1E0,1E0,7.063306E-1,1E0,6.866353E-1,1E0,1E0,6.9682074E-1,1E0,6.590754E-1,1E0,4.46245E3,6.9895154E-1,7.063306E-1,5.9E2,6.8E1,5.61E2,9.0080184E-1,7.0159525E-1,6.916192E-1,1E0,1E0,4.32E-1,7.8298926E-1,6.3383913E-1,6.092218E-1,2.3E1,5.1E1,3.852011E-1,1E0,3.2342097E-1,8.9268297E-1,5E0,2E-1,5.24974E3,7E1,6.95E2,1E0,4.0724494E-2,5.84E2,3.68E-1,3E0,2.1E1,8.47E2,1E-1,5E0,6.1E1,3.8E1,4.26E-1,1.88E-1,7.1414846E-1,2E0,2.0358E4,7.211E3,4.4897E4,4.432429E-1,4.07E-1,4.47E-1,1.4936715E-2,-1.0056533E-3,-2.3324527E-2,-3.5545852E-3,3.4484547E-2,1.4396955E-2,-7.104053E-2,8.408031E-3,-4.4270676E-2,-1.1875191E-2,-1.3192026E-3,1.2585381E-2,-3.9408866E-2,-2.4997104E-2,-2.1362511E-2,-1.3197586E-3,1.8400831E-2,-4.6801087E-2,-1.463287E-2,-3.4911215E-2,-2.1284295E-2,-8.065996E-2,-4.584306E-2,-8.953646E-4,-6.4462565E-2,-1.9974992E-2,-7.315748E-2,-4.318996E-2,2.0597506E-2,-5.3105194E-2,1.6738234E-2,3.2992523E-2,4.681484E-2,-2.9264265E-3,-4.4794944E-3,2.099905E-2,1.2440369E-2,3.6501102E-2,6.4405426E-3,1.5568216E-2,9.451227E-3,-8.968568E-3,-4.1838914E-5,3.0775398E-2,-1.603399E-3,1.9796409E-2,-1.1815383E-2,2.132324E-2,3.8573068E-2,3.7188006E-3,-2.5140422E-3,-2.1144453E-2,-2.928561E-2,9.873479E-3,-3.0497698E-2,1.2860447E-2,-1.1661465E-2,-9.831845E-2,-9.5476046E-2,-1.6732492E-2,-3.0487943E-2,1.9052854E-2],"split_indices":[16,4,4,7,9,7,9,23,9,23,7,9,23,7,23,9,4,23,23,16,6,16,23,23,23,9,9,21,23,23,22,24,1,22,3,22,23,15,20,4,24,16,12,0,16,21,3,6,16,20,15,1,1,19,21,23,13,0,0,0,22,19,19,0,0,0,0,0,0,0,0,0,0,0,0,0,0,0,0,0,0,0,0,0,0,0,0,0,0,0,0,0,0,0,0,0,0,0,0,0,0,0,0,0,0,0,0,0,0,0,0,0,0,0,0,0,0,0,0,0,0,0,0,0,0],"split_type":[0,0,0,0,0,0,0,0,0,0,0,0,0,0,0,0,0,0,0,0,0,0,0,0,0,0,0,0,0,0,0,0,0,0,0,0,0,0,0,0,0,0,0,0,0,0,0,0,0,0,0,0,0,0,0,0,0,0,0,0,0,0,0,0,0,0,0,0,0,0,0,0,0,0,0,0,0,0,0,0,0,0,0,0,0,0,0,0,0,0,0,0,0,0,0,0,0,0,0,0,0,0,0,0,0,0,0,0,0,0,0,0,0,0,0,0,0,0,0,0,0,0,0,0,0],"sum_hessian":[6.745162E3,3.515516E3,3.2296458E3,2.8213755E3,6.941406E2,2.581944E3,6.477016E2,9.003594E2,1.9210162E3,4.9166122E2,2.024794E2,8.249742E2,1.75697E3,4.415529E2,2.061487E2,5.743447E2,3.2601462E2,1.3388156E3,5.822007E2,2.970861E2,1.9457513E2,6.550142E1,1.3697798E2,5.6528723E2,2.5968692E2,1.0983125E3,6.5865735E2,1.4312349E2,2.984294E2,1.1979125E2,8.6357445E1,3.9974603E2,1.7459872E2,3.0764917E2,1.8365442E1,8.430953E2,4.9572025E2,3.7886694E2,2.0333372E2,7.871878E1,2.1836731E2,7.322814E1,1.2134699E2,2.3310905E0,6.317033E1,1.2721053E2,9.767449E0,3.581098E2,2.0717744E2,1.647594E2,9.492752E1,7.608324E2,3.3748016E2,4.5950745E2,1.9914992E2,7.407749E1,6.904599E1,2.2004785E2,7.838156E1,1.122622E2,7.5290546E0,4.8224434E1,3.813301E1,7.761016E1,3.2213586E2,7.6300835E1,9.82979E1,4.384279E1,2.638064E2,3.044423E0,1.5321018E1,3.3112186E1,8.099831E2,3.8599695E2,1.0972331E2,1.2903752E2,2.498294E2,1.3104185E2,7.229187E1,6.0160165E0,7.270277E1,1.2782973E2,9.053758E1,7.0545616E1,2.6825218E0,1.1982731E1,1.09364265E2,1.017037E1,5.299996E1,3.3472202E1,9.3738335E1,7.1802855E0,2.5871642E0,4.1137127E1,3.1697266E2,2.0429819E2,2.879258E0,5.7101685E1,1.0765772E2,3.1276365E1,6.3651154E1,4.460226E2,3.1480978E2,9.439413E1,2.4308604E2,1.7020544E1,4.424869E2,7.8633156E1,1.20516754E2,5.2179996E1,2.18975E1,3.5198814E1,3.384718E1,8.0979706E1,1.3906815E2,1.1503928E1,6.687763E1,1.0274734E2,9.51486E0,1.5748527E0,5.9542017E0,2.050257E0,4.6174175E1,1.0970822E1,2.7162188E1],"tree_param":{"num_deleted":"0","num_feature":"25","num_nodes":"125","size_leaf_vector":"1"}},{"base_weights":[9.236656E-3,-1.3982324E-1,2.500387E-1,-5.1498983E-2,-4.9022588E-1,1.17463216E-1,4.7868198E-1,1.7257175E-1,-1.5497738E-1,-3.8621053E-1,-7.31727E-1,2.3056658E-1,-1.4013326E-1,5.9108293E-1,1.4784348E-1,2.8416458E-1,-8.4187485E-2,-2.4811295E-1,-3.6061117E-3,-4.8860922E-1,-9.042555E-2,-7.76733E-1,-1.0883849E-1,4.5926142E-1,1.2218606E-1,-2.7424118E-2,-5.520661E-1,8.0421805E-1,4.887751E-1,2.5635013E-1,-7.381788E-2,1.5040126E-1,5.0376815E-1,-3.4092337E-2,-8.508834E-1,-2.2967212E-1,-8.1513983E-1,9.5787875E-2,-2.3071752E-1,-2.5107983E-1,-6.010265E-1,-2.5577548E-1,2.2085121E-1,-5.506365E-1,-8.993688E-1,4.547108E-1,-1.2878939E0,5.056886E-1,4.1403428E-2,1.9233876E-1,-2.7110937E-1,2.6692432E-1,-1.7870139E-1,-2.9463547E-1,-9.043289E-1,5.671762E-1,9.3398684E-1,5.961944E-1,2.397465E-1,4.638361E-2,4.163098E-1,-4.3932682E-1,8.890537E-2,2.28852E-2,5.0002164E-3,1.1607584E-2,3.7982684E-2,-6.9013983E-3,1.3817782E-2,3.7986908E-2,-4.9316287E-2,-1.4717564E-2,-5.8897617E-3,-4.8950557E-2,2.0526228E-2,-1.2038004E-3,1.5196982E-2,-3.6087535E-2,-7.2566727E-3,-2.8883955E-2,-2.6802518E-3,-3.6437016E-2,-1.8780664E-2,1.4038575E-2,-1.9077674E-2,4.0346216E-2,-2.3886103E-3,-1.331831E-2,-4.5405734E-2,-6.2836066E-2,-3.8230166E-2,4.64403E-2,-5.7129697E-3,-3.7643078E-4,-9.2443034E-2,4.6537753E-2,2.2617985E-2,-1.673555E-2,1.8852875E-2,3.201978E-3,1.568683E-2,3.8847495E-2,-1.630667E-2,-4.809159E-2,1.6507355E-2,3.3626358E-3,-1.5767783E-2,-6.0125686E-2,-6.9519067E-3,-5.584086E-2,-1.3672895E-2,3.2272022E-2,-6.531866E-3,2.7503434E-3,4.7418885E-2,2.5156915E-2,3.8114194E-2,4.296222E-2,8.5970955E-3,-2.4972077E-2,1.163851E-2,1.22271925E-2,3.6310088E-2,2.0279514E-2,-3.8628448E-2,1.0224506E-2,-2.6974577E-2],"categories":[],"categories_nodes":[],"categories_segments":[],"categories_sizes":[],"default_left":[0,0,0,0,0,0,0,0,0,0,0,0,0,0,0,0,0,0,0,0,0,0,0,0,0,0,0,0,0,0,0,0,0,0,0,0,0,0,0,0,0,0,0,0,0,0,0,0,0,0,0,0,0,0,0,0,0,0,0,0,0,0,0,0,0,0,0,0,0,0,0,0,0,0,0,0,0,0,0,0,0,0,0,0,0,0,0,0,0,0,0,0,0,0,0,0,0,0,0,0,0,0,0,0,0,0,0,0,0,0,0,0,0,0,0,0,0,0,0,0,0,0,0,0,0,0,0],"id":10,"left_children":[1,3,5,7,9,11,13,15,17,19,21,23,25,27,29,31,33,35,37,39,41,43,45,47,49,51,53,55,57,59,61,63,65,67,69,71,73,75,77,79,81,83,85,87,89,91,93,95,97,99,101,103,105,107,109,111,113,115,117,119,121,123,125,-1,-1,-1,-1,-1,-1,-1,-1,-1,-1,-1,-1,-1,-1,-1,-1,-1,-1,-1,-1,-1,-1,-1,-1,-1,-1,-1,-1,-1,-1,-1,-1,-1,-1,-1,-1,-1,-1,-1,-1,-1,-1,-1,-1,-1,-1,-1,-1,-1,-1,-1,-1,-1,-1,-1,-1,-1,-1,-1,-1,-1,-1,-1,-1],"loss_changes":[2.4170836E2,1.2870232E2,7.798787E1,7.707773E1,2.0748688E1,4.7552147E1,3.5040146E1,3.0117552E1,3.2055267E1,1.77443E1,6.94989E0,2.8045368E1,2.3118322E1,1.4974243E1,5.812552E0,2.1436543E1,1.2221552E1,1.4532005E1,1.9596333E1,1.1492638E1,7.893385E0,5.9890137E0,1.2593431E1,7.044113E0,2.1313114E1,1.751478E1,9.4356575E0,6.4536133E0,1.2663208E1,5.4197016E0,4.793638E0,7.0247784E0,1.90615E1,9.732325E0,5.0077066E0,9.840607E0,9.228491E0,1.5073776E1,1.1000838E1,9.114067E0,8.226173E0,6.8491983E0,8.439037E0,8.377245E0,6.264763E0,3.603768E0,4.3711042E0,7.0067444E0,4.861118E0,1.0174286E1,7.0040073E0,1.0693631E1,8.75005E0,8.774541E0,5.685501E0,4.609686E0,1.7839966E0,4.7753296E0,5.9825115E0,7.3547335E0,4.7083607E0,7.2944055E0,4.18838E0,0E0,0E0,0E0,0E0,0E0,0E0,0E0,0E0,0E0,0E0,0E0,0E0,0E0,0E0,0E0,0E0,0E0,0E0,0E0,0E0,0E0,0E0,0E0,0E0,0E0,0E0,0E0,0E0,0E0,0E0,0E0,0E0,0E0,0E0,0E0,0E0,0E0,0E0,0E0,0E0,0E0,0E0,0E0,0E0,0E0,0E0,0E0,0E0,0E0,0E0,0E0,0E0,0E0,0E0,0E0,0E0,0E0,0E0,0E0,0E0,0E0,0E0,0E0,0E0],"parents":[2147483647,0,0,1,1,2,2,3,3,4,4,5,5,6,6,7,7,8,8,9,9,10,10,11,11,12,12,13,13,14,14,15,15,16,16,17,17,18,18,19,19,20,20,21,21,22,22,23,23,24,24,25,25,26,26,27,27,28,28,29,29,30,30,31,31,32,32,33,33,34,34,35,35,36,36,37,37,38,38,39,39,40,40,41,41,42,42,43,43,44,44,45,45,46,46,47,47,48,48,49,49,50,50,51,51,52,52,53,53,54,54,55,55,56,56,57,57,58,58,59,59,60,60,61,61,62,62],"right_children":[2,4,6,8,10,12,14,16,18,20,22,24,26,28,30,32,34,36,38,40,42,44,46,48,50,52,54,56,58,60,62,64,66,68,70,72,74,76,78,80,82,84,86,88,90,92,94,96,98,100,102,104,106,108,110,112,114,116,118,120,122,124,126,-1,-1,-1,-1,-1,-1,-1,-1,-1,-1,-1,-1,-1,-1,-1,-1,-1,-1,-1,-1,-1,-1,-1,-1,-1,-1,-1,-1,-1,-1,-1,-1,-1,-1,-1,-1,-1,-1,-1,-1,-1,-1,-1,-1,-1,-1,-1,-1,-1,-1,-1,-1,-1,-1,-1,-1,-1,-1,-1,-1,-1,-1,-1,-1],"split_conditions":[1E0,4.9992E3,6.9682074E-1,1E0,1E0,1E0,4.37566E3,1E0,6.9418913E-1,7.800023E-1,9.060816E-1,1E0,4.89149E3,1E0,1E0,6.9682074E-1,1.13E2,6.816222E-1,1E0,1E0,2E0,5E0,7.6E1,6.53029E3,5.62827E3,1E0,8E0,4.5E1,1E0,5.542103E-1,5E0,1.7E1,4E0,8.4E1,6.7422E2,5E0,8.4E1,5E0,2.3E1,4.3E1,5E0,3.2E1,4.7768334E-1,3E0,2E0,5.39E-1,3E0,2.5E1,9.2E1,4E0,3.3274364E-1,6E0,4.3E1,2E0,6E0,9.05E-1,2E0,5E0,1.8E1,2E0,1.700371E4,1E0,1.861057E4,2.28852E-2,5.0002164E-3,1.1607584E-2,3.7982684E-2,-6.9013983E-3,1.3817782E-2,3.7986908E-2,-4.9316287E-2,-1.4717564E-2,-5.8897617E-3,-4.8950557E-2,2.0526228E-2,-1.2038004E-3,1.5196982E-2,-3.6087535E-2,-7.2566727E-3,-2.8883955E-2,-2.6802518E-3,-3.6437016E-2,-1.8780664E-2,1.4038575E-2,-1.9077674E-2,4.0346216E-2,-2.3886103E-3,-1.331831E-2,-4.5405734E-2,-6.2836066E-2,-3.8230166E-2,4.64403E-2,-5.7129697E-3,-3.7643078E-4,-9.2443034E-2,4.6537753E-2,2.2617985E-2,-1.673555E-2,1.8852875E-2,3.201978E-3,1.568683E-2,3.8847495E-2,-1.630667E-2,-4.809159E-2,1.6507355E-2,3.3626358E-3,-1.5767783E-2,-6.0125686E-2,-6.9519067E-3,-5.584086E-2,-1.3672895E-2,3.2272022E-2,-6.531866E-3,2.7503434E-3,4.7418885E-2,2.5156915E-2,3.8114194E-2,4.296222E-2,8.5970955E-3,-2.4972077E-2,1.163851E-2,1.22271925E-2,3.6310088E-2,2.0279514E-2,-3.8628448E-2,1.0224506E-2,-2.6974577E-2],"split_indices":[11,4,23,7,9,9,4,9,23,23,23,7,4,7,9,23,24,23,9,7,8,15,24,4,4,7,15,1,9,22,15,24,5,24,18,5,1,5,6,1,5,1,22,17,5,19,12,1,6,5,22,6,24,15,5,19,6,5,6,5,18,3,18,0,0,0,0,0,0,0,0,0,0,0,0,0,0,0,0,0,0,0,0,0,0,0,0,0,0,0,0,0,0,0,0,0,0,0,0,0,0,0,0,0,0,0,0,0,0,0,0,0,0,0,0,0,0,0,0,0,0,0,0,0,0,0,0],"split_type":[0,0,0,0,0,0,0,0,0,0,0,0,0,0,0,0,0,0,0,0,0,0,0,0,0,0,0,0,0,0,0,0,0,0,0,0,0,0,0,0,0,0,0,0,0,0,0,0,0,0,0,0,0,0,0,0,0,0,0,0,0,0,0,0,0,0,0,0,0,0,0,0,0,0,0,0,0,0,0,0,0,0,0,0,0,0,0,0,0,0,0,0,0,0,0,0,0,0,0,0,0,0,0,0,0,0,0,0,0,0,0,0,0,0,0,0,0,0,0,0,0,0,0,0,0,0,0],"sum_hessian":[6.7319883E3,4.1583374E3,2.573651E3,3.322099E3,8.362382E2,1.6300206E3,9.436301E2,1.0492972E3,2.2728018E3,5.8631116E2,2.4992705E2,1.1327617E3,4.9725888E2,7.037481E2,2.3988205E2,7.313367E2,3.1796063E2,1.406669E3,8.6613293E2,4.350485E2,1.5126266E2,2.3285541E2,1.7071648E1,3.6317825E2,7.6958356E2,3.912699E2,1.05988976E2,2.26022E2,4.777261E2,1.6094199E2,7.894006E1,4.5554395E2,2.7579272E2,2.9944E2,1.8520645E1,1.363723E3,4.29459E1,6.02869E2,2.632639E2,1.4079422E2,2.9425427E2,9.890351E1,5.2359154E1,8.381696E1,1.4903844E2,1.1966434E1,5.1052146E0,3.266723E2,3.6505943E1,6.5352435E2,1.1605917E2,1.325655E2,2.587044E2,6.229831E1,4.3690666E1,8.1861176E1,1.4416081E2,3.327844E2,1.4494171E2,7.015068E1,9.079131E1,2.3794043E1,5.514602E1,6.304372E1,3.925002E2,1.3470926E2,1.4108345E2,2.2475058E2,7.468941E1,1.0791032E0,1.7441542E1,8.631061E2,5.0061697E2,3.8058697E1,4.887206E0,3.831291E2,2.1973996E2,3.797151E1,2.2529237E2,5.2326782E1,8.846744E1,1.8640735E2,1.0784692E2,1.8548134E1,8.035538E1,1.5826196E1,3.6532955E1,4.7661324E1,3.6155643E1,3.8534016E1,1.10504425E2,6.182459E0,5.7839746E0,1.8640589E0,3.2411556E0,3.4581543E1,2.9209076E2,1.7216711E1,1.9289234E1,3.1847345E2,3.350509E2,5.134804E0,1.1092437E2,5.79154E0,1.2677396E2,9.258151E1,1.661229E2,8.130451E0,5.416786E1,3.2106396E1,1.1584271E1,7.36733E1,8.187879E0,2.3998916E0,1.4176093E2,2.158679E2,1.1691649E2,1.3147447E1,1.3179427E2,1.7429508E1,5.272117E1,5.9564957E1,3.1226355E1,6.6687326E0,1.712531E1,4.714833E1,7.9976864E0],"tree_param":{"num_deleted":"0","num_feature":"25","num_nodes":"127","size_leaf_vector":"1"}},{"base_weights":[-1.44062E-4,-2.2903152E-1,2.5268197E-1,-3.5827845E-1,-2.191258E-2,3.6096326E-1,-1.6192994E-1,-2.8531235E-1,-6.4481497E-1,-1.4804421E-1,2.1711124E-1,2.3193708E-1,5.724501E-1,-2.964146E-1,5.526107E-2,-3.849113E-1,-1.1847253E-1,-9.6878594E-1,-5.3896457E-1,6.798906E-2,-2.4905059E-1,3.3641696E-1,-1.3064298E-1,4.6627426E-1,1.2376346E-1,8.251717E-1,4.5434234E-1,-3.310828E-1,6.9350916E-1,2.6340294E-1,-1.0219232E-1,-2.281525E-1,-4.5603332E-1,-2.4093892E-1,9.252532E-2,-6.482166E-1,-1.2926643E0,-6.4369226E-1,-3.073509E-1,9.516094E-1,2.9653016E-2,-3.0102688E-1,1.8660188E-1,6.0733485E-1,2.0572487E-1,-6.144998E-2,-8.950936E-1,3.661054E-1,6.268245E-1,9.7391205E-3,3.228126E-1,8.551484E-1,-1.8012509E-1,3.393297E-1,6.5524125E-1,-2.848225E-1,-9.0228945E-1,9.817034E-1,-1.6325565E-1,-4.576178E-1,3.3403733E-1,-3.9335003E-1,5.9869293E-2,-5.6345083E-2,-9.564158E-3,-3.036697E-2,-1.8785479E-2,-2.104325E-2,-5.272375E-3,1.8553916E-2,-4.9971547E-3,-5.894629E-2,-1.986108E-2,-7.9916775E-2,-3.795583E-2,1.2186854E-3,-3.7433323E-2,-1.8724494E-2,3.0589659E-2,5.8289867E-2,-5.5065085E-3,-2.3572664E-3,2.0854441E-2,-1.2385885E-2,-2.7683815E-2,-2.7694762E-2,1.4737402E-2,3.5483178E-2,-1.1711734E-2,2.4606593E-2,7.1287365E-3,-7.102524E-2,-1.02532E-3,4.3754753E-2,-6.379144E-2,1.2388269E-2,2.673564E-2,2.349246E-2,4.3790754E-2,-3.6794916E-3,7.786244E-3,1.4577389E-2,4.2285953E-2,4.4880558E-2,2.1524472E-2,-4.286827E-2,2.5200797E-2,1.1104725E-2,2.2678882E-2,3.4332555E-2,-1.4290268E-2,-2.0408308E-2,-3.97074E-3,-5.275169E-2,3.669715E-2,5.6472987E-2,-7.689523E-3,3.836988E-2,-3.4939706E-2,1.6830768E-2,-6.190866E-2,2.6101578E-2,1.9441877E-3,-3.2608435E-2,2.213745E-2,-5.8695734E-3,1.7030498E-2],"categories":[],"categories_nodes":[],"categories_segments":[],"categories_sizes":[],"default_left":[0,0,0,0,0,0,0,0,0,0,0,0,0,0,0,0,0,0,0,0,0,0,0,0,0,0,0,0,0,0,0,0,0,0,0,0,0,0,0,0,0,0,0,0,0,0,0,0,0,0,0,0,0,0,0,0,0,0,0,0,0,0,0,0,0,0,0,0,0,0,0,0,0,0,0,0,0,0,0,0,0,0,0,0,0,0,0,0,0,0,0,0,0,0,0,0,0,0,0,0,0,0,0,0,0,0,0,0,0,0,0,0,0,0,0,0,0,0,0,0,0,0,0,0,0,0,0],"id":11,"left_children":[1,3,5,7,9,11,13,15,17,19,21,23,25,27,29,31,33,35,37,39,41,43,45,47,49,51,53,55,57,59,61,63,65,67,69,71,73,75,77,79,81,83,85,87,89,91,93,95,97,99,101,103,105,107,109,111,113,115,117,119,121,123,125,-1,-1,-1,-1,-1,-1,-1,-1,-1,-1,-1,-1,-1,-1,-1,-1,-1,-1,-1,-1,-1,-1,-1,-1,-1,-1,-1,-1,-1,-1,-1,-1,-1,-1,-1,-1,-1,-1,-1,-1,-1,-1,-1,-1,-1,-1,-1,-1,-1,-1,-1,-1,-1,-1,-1,-1,-1,-1,-1,-1,-1,-1,-1,-1],"loss_changes":[3.8717798E2,9.399477E1,1.4278185E2,4.5022003E1,4.074355E1,6.8660126E1,1.926547E1,2.8621185E1,1.4499817E1,1.9317749E1,1.941299E1,3.967614E1,2.8118042E1,1.4202808E1,8.313732E0,1.1934738E1,1.672352E1,1.0232353E1,7.8657074E0,9.54424E0,1.3708706E1,1.2192219E1,6.290848E0,7.7260895E0,2.4367876E1,9.279282E0,1.4860748E1,1.015567E1,3.6417074E0,5.713247E0,6.8502626E0,1.1018051E1,8.787262E0,9.932222E0,1.280172E1,6.9367924E0,7.272644E0,1.6008255E1,6.734848E0,2.7932224E0,8.108935E0,7.123028E0,5.35927E0,9.871017E0,4.2015705E0,6.152289E0,7.7780266E0,5.993679E0,6.9621353E0,8.328939E0,6.1465454E0,4.9188843E0,4.877247E0,5.4871902E0,7.189148E0,9.240381E0,8.037495E0,1.9677906E0,2.732417E0,6.7174816E0,5.529311E0,1.1512437E1,4.7084866E0,0E0,0E0,0E0,0E0,0E0,0E0,0E0,0E0,0E0,0E0,0E0,0E0,0E0,0E0,0E0,0E0,0E0,0E0,0E0,0E0,0E0,0E0,0E0,0E0,0E0,0E0,0E0,0E0,0E0,0E0,0E0,0E0,0E0,0E0,0E0,0E0,0E0,0E0,0E0,0E0,0E0,0E0,0E0,0E0,0E0,0E0,0E0,0E0,0E0,0E0,0E0,0E0,0E0,0E0,0E0,0E0,0E0,0E0,0E0,0E0,0E0,0E0,0E0,0E0],"parents":[2147483647,0,0,1,1,2,2,3,3,4,4,5,5,6,6,7,7,8,8,9,9,10,10,11,11,12,12,13,13,14,14,15,15,16,16,17,17,18,18,19,19,20,20,21,21,22,22,23,23,24,24,25,25,26,26,27,27,28,28,29,29,30,30,31,31,32,32,33,33,34,34,35,35,36,36,37,37,38,38,39,39,40,40,41,41,42,42,43,43,44,44,45,45,46,46,47,47,48,48,49,49,50,50,51,51,52,52,53,53,54,54,55,55,56,56,57,57,58,58,59,59,60,60,61,61,62,62],"right_children":[2,4,6,8,10,12,14,16,18,20,22,24,26,28,30,32,34,36,38,40,42,44,46,48,50,52,54,56,58,60,62,64,66,68,70,72,74,76,78,80,82,84,86,88,90,92,94,96,98,100,102,104,106,108,110,112,114,116,118,120,122,124,126,-1,-1,-1,-1,-1,-1,-1,-1,-1,-1,-1,-1,-1,-1,-1,-1,-1,-1,-1,-1,-1,-1,-1,-1,-1,-1,-1,-1,-1,-1,-1,-1,-1,-1,-1,-1,-1,-1,-1,-1,-1,-1,-1,-1,-1,-1,-1,-1,-1,-1,-1,-1,-1,-1,-1,-1,-1,-1,-1,-1,-1,-1,-1,-1],"split_conditions":[7.01E2,1E0,4.95237E3,4.9992E3,7.0889276E-1,1E0,1E0,6.9895154E-1,4.4923133E-1,1E0,4.41463E3,1E0,1E0,1.97698E4,6.1708E3,1E0,5E0,1.630604E4,1.24E2,3.1518012E-1,8.9E-1,1E0,4.6079E4,5E0,7.0159525E-1,8.8E1,6.9682074E-1,1.69E2,1.32E2,8E0,5.1865613E-1,5.56E2,5E0,7.9E1,2.1525E4,1.301417E4,6.4418316E-1,4.3E-1,8.5E1,1.04E2,4.1616E4,5.62827E3,6.64E3,4.5283E4,2.92492E3,4E0,1E0,1.05E2,6.816222E-1,5E0,4.41463E3,9E0,5E0,4E0,8.7E1,6.9682074E-1,8.4E1,8E0,1E0,2.5444E4,1.13E2,3E0,5E0,-5.6345083E-2,-9.564158E-3,-3.036697E-2,-1.8785479E-2,-2.104325E-2,-5.272375E-3,1.8553916E-2,-4.9971547E-3,-5.894629E-2,-1.986108E-2,-7.9916775E-2,-3.795583E-2,1.2186854E-3,-3.7433323E-2,-1.8724494E-2,3.0589659E-2,5.8289867E-2,-5.5065085E-3,-2.3572664E-3,2.0854441E-2,-1.2385885E-2,-2.7683815E-2,-2.7694762E-2,1.4737402E-2,3.5483178E-2,-1.1711734E-2,2.4606593E-2,7.1287365E-3,-7.102524E-2,-1.02532E-3,4.3754753E-2,-6.379144E-2,1.2388269E-2,2.673564E-2,2.349246E-2,4.3790754E-2,-3.6794916E-3,7.786244E-3,1.4577389E-2,4.2285953E-2,4.4880558E-2,2.1524472E-2,-4.286827E-2,2.5200797E-2,1.1104725E-2,2.2678882E-2,3.4332555E-2,-1.4290268E-2,-2.0408308E-2,-3.97074E-3,-5.275169E-2,3.669715E-2,5.6472987E-2,-7.689523E-3,3.836988E-2,-3.4939706E-2,1.6830768E-2,-6.190866E-2,2.6101578E-2,1.9441877E-3,-3.2608435E-2,2.213745E-2,-5.8695734E-3,1.7030498E-2],"split_indices":[16,11,4,4,23,11,11,23,23,7,4,7,7,18,4,7,5,18,6,23,19,7,0,5,23,1,23,6,6,24,23,16,15,6,0,18,22,19,1,24,0,4,0,0,18,6,14,6,23,5,4,12,12,5,1,23,1,12,7,0,6,3,5,0,0,0,0,0,0,0,0,0,0,0,0,0,0,0,0,0,0,0,0,0,0,0,0,0,0,0,0,0,0,0,0,0,0,0,0,0,0,0,0,0,0,0,0,0,0,0,0,0,0,0,0,0,0,0,0,0,0,0,0,0,0,0,0],"split_type":[0,0,0,0,0,0,0,0,0,0,0,0,0,0,0,0,0,0,0,0,0,0,0,0,0,0,0,0,0,0,0,0,0,0,0,0,0,0,0,0,0,0,0,0,0,0,0,0,0,0,0,0,0,0,0,0,0,0,0,0,0,0,0,0,0,0,0,0,0,0,0,0,0,0,0,0,0,0,0,0,0,0,0,0,0,0,0,0,0,0,0,0,0,0,0,0,0,0,0,0,0,0,0,0,0,0,0,0,0,0,0,0,0,0,0,0,0,0,0,0,0,0,0,0,0,0,0],"sum_hessian":[6.688628E3,3.5105579E3,3.17807E3,2.1611938E3,1.3493641E3,2.5200547E3,6.580155E2,1.7241398E3,4.3705402E2,8.835173E2,4.6584683E2,1.5664655E3,9.535892E2,4.0615784E2,2.5185768E2,1.078811E3,6.453287E2,1.05623886E2,3.314301E2,2.815859E2,6.019314E2,3.4687527E2,1.1897157E2,4.936841E2,1.0727812E3,3.0180783E2,6.517814E2,3.9305807E2,1.3099764E1,1.0817946E2,1.4367822E2,3.3801224E2,7.407989E2,4.0823874E2,2.3708992E2,5.4591522E1,5.1032364E1,2.2700645E2,1.0442366E2,1.0718094E1,2.7086783E2,5.3804767E2,6.3883698E1,1.11693474E2,2.3518181E2,1.1008756E2,8.88401E0,3.060296E2,1.8765451E2,6.82731E2,3.9005026E2,2.9321393E2,8.593898E0,4.162E2,2.3558134E2,3.6499673E2,2.8061344E1,9.693341E0,3.406423E0,9.163344E0,9.901611E1,5.086596E1,9.281227E1,1.2154802E1,3.2585742E2,2.5461632E2,4.8618256E2,1.7445917E2,2.3377957E2,9.6500305E1,1.4058961E2,1.6341566E1,3.8249958E1,3.1175909E1,1.9856455E1,3.0930374E1,1.960761E2,9.7867485E1,6.5561748E0,8.83731E0,1.8807845E0,2.2679112E2,4.4076702E1,4.459355E2,9.2112175E1,7.615717E0,5.6267982E1,9.972445E1,1.1969023E1,4.1260155E1,1.9392165E2,2.2341583E0,1.078534E2,1.3427229E0,7.5412874E0,1.8127092E2,1.2475869E2,1.1686459E2,7.078992E1,4.3495422E2,2.4777681E2,3.6951437E2,2.0535873E1,2.6554742E2,2.7666533E1,4.191488E0,4.40241E0,2.0686748E2,2.0933252E2,2.282338E2,7.347548E0,2.2743748E2,1.3755925E2,2.5990322E1,2.0710225E0,8.58193E0,1.1114112E0,1.0860869E0,2.320336E0,4.8237824E0,4.3395615E0,6.0019077E1,3.8997036E1,3.901016E1,1.1855803E1,5.7247696E1,3.556457E1],"tree_param":{"num_deleted":"0","num_feature":"25","num_nodes":"127","size_leaf_vector":"1"}},{"base_weights":[3.875995E-3,-2.0558906E-1,2.3846701E-1,-3.3350912E-1,2.5435076E-3,1.1036679E-1,4.4850025E-1,-4.425742E-1,-1.4400001E-1,-1.1916768E-1,2.0996647E-1,2.0881584E-1,-1.0795004E-1,5.622781E-1,1.9887725E-1,-3.700274E-1,-6.107198E-1,-2.51627E-1,4.061209E-2,-2.2797955E-2,-3.3210954E-1,4.1948044E-1,6.997248E-2,9.629827E-2,4.0091324E-1,-3.1889254E-1,-2.037153E-2,4.1011345E-1,6.9436425E-1,6.320783E-2,4.69134E-1,-1.0203034E0,-3.537677E-1,-5.57598E-1,-1.0544225E0,6.2384464E-2,-3.3932707E-1,1.8297182E-1,-2.7120325E-1,6.1027426E-2,-2.7333716E-1,-3.816137E-1,2.8756696E-1,-8.7914184E-2,4.847724E-1,1.0228458E-1,-8.644851E-1,-1.4232181E-1,1.7668799E-1,5.280818E-1,2.2546399E-1,4.754312E-1,-3.8847673E-1,-1.0018009E-1,3.0732322E-1,4.459462E-1,-5.0326574E-1,5.7213527E-1,8.3776164E-1,3.7560347E-1,-6.896526E-2,4.1146362E-1,9.395265E-1,-6.2052906E-2,2.6428076E-3,-3.2443132E-2,-1.6060455E-2,-1.662283E-2,-3.304522E-2,-7.436969E-2,-3.4885556E-2,4.5782264E-2,-2.4828406E-3,-1.5333684E-2,-5.0027173E-2,4.8125624E-3,3.17479E-2,3.290161E-2,-1.8815437E-2,-1.0141691E-3,1.4164087E-2,4.2673387E-2,-1.5192595E-2,-5.3829006E-3,-2.2864789E-2,-4.1015353E-2,2.6780615E-2,1.6228644E-2,-3.4758717E-2,-3.921298E-3,2.692059E-2,-1.740398E-2,8.123131E-3,-9.540423E-2,-8.248973E-3,2.3916462E-3,-2.3948133E-2,3.2884271E-3,1.8293602E-2,1.0981239E-2,2.961353E-2,7.142856E-5,2.0458624E-2,-5.7007708E-2,3.924522E-2,-6.2344205E-3,-2.9057814E-2,-1.5972925E-2,5.9435243E-4,3.5938542E-2,8.334825E-3,-3.937363E-3,2.492898E-2,-5.2909132E-2,1.5625801E-2,3.102234E-2,6.907241E-3,4.301815E-2,4.0648133E-3,2.8797552E-2,-1.4539333E-2,-1.036696E-2,9.528032E-3,2.3706371E-2,-2.662607E-2,-6.0703107E-3,5.6830812E-2],"categories":[],"categories_nodes":[],"categories_segments":[],"categories_sizes":[],"default_left":[0,0,0,0,0,0,0,0,0,0,0,0,0,0,0,0,0,0,0,0,0,0,0,0,0,0,0,0,0,0,0,0,0,0,0,0,0,0,0,0,0,0,0,0,0,0,0,0,0,0,0,0,0,0,0,0,0,0,0,0,0,0,0,0,0,0,0,0,0,0,0,0,0,0,0,0,0,0,0,0,0,0,0,0,0,0,0,0,0,0,0,0,0,0,0,0,0,0,0,0,0,0,0,0,0,0,0,0,0,0,0,0,0,0,0,0,0,0,0,0,0,0,0,0,0,0,0],"id":12,"left_children":[1,3,5,7,9,11,13,15,17,19,21,23,25,27,29,31,33,35,37,39,41,43,45,47,49,51,53,55,57,59,61,63,65,67,69,71,73,75,77,79,81,83,85,87,89,91,93,95,97,99,101,103,105,107,109,111,113,115,117,119,121,123,125,-1,-1,-1,-1,-1,-1,-1,-1,-1,-1,-1,-1,-1,-1,-1,-1,-1,-1,-1,-1,-1,-1,-1,-1,-1,-1,-1,-1,-1,-1,-1,-1,-1,-1,-1,-1,-1,-1,-1,-1,-1,-1,-1,-1,-1,-1,-1,-1,-1,-1,-1,-1,-1,-1,-1,-1,-1,-1,-1,-1,-1,-1,-1,-1],"loss_changes":[3.3041788E2,9.45797E1,8.529022E1,4.5410507E1,3.4187756E1,4.2397003E1,3.4007416E1,1.6802704E1,1.6008186E1,1.7506035E1,1.4658541E1,2.9338226E1,1.132552E1,1.6289642E1,1.3817815E1,9.977127E0,9.293243E0,1.4032177E1,1.3250725E1,1.2378516E1,8.2643795E0,6.6809845E0,9.188618E0,1.6491875E1,1.1075058E1,1.0127562E1,1.1394566E1,1.2846024E1,7.2328033E0,1.0455822E1,3.0334034E0,5.590433E0,8.971252E0,8.53759E0,5.7118073E0,1.0744875E1,8.28323E0,7.9651837E0,9.391146E0,7.99102E0,5.339548E0,5.063469E0,6.000108E0,6.1601386E0,5.4101295E0,7.9760056E0,7.1159234E0,1.39058275E1,1.3459253E1,5.614479E0,8.748641E0,8.364092E0,8.362192E0,8.608833E0,4.8182545E0,1.03018875E1,7.133622E0,4.960762E0,3.354889E0,1.0214699E1,6.4441724E0,7.0007725E0,2.8539848E0,0E0,0E0,0E0,0E0,0E0,0E0,0E0,0E0,0E0,0E0,0E0,0E0,0E0,0E0,0E0,0E0,0E0,0E0,0E0,0E0,0E0,0E0,0E0,0E0,0E0,0E0,0E0,0E0,0E0,0E0,0E0,0E0,0E0,0E0,0E0,0E0,0E0,0E0,0E0,0E0,0E0,0E0,0E0,0E0,0E0,0E0,0E0,0E0,0E0,0E0,0E0,0E0,0E0,0E0,0E0,0E0,0E0,0E0,0E0,0E0,0E0,0E0,0E0,0E0],"parents":[2147483647,0,0,1,1,2,2,3,3,4,4,5,5,6,6,7,7,8,8,9,9,10,10,11,11,12,12,13,13,14,14,15,15,16,16,17,17,18,18,19,19,20,20,21,21,22,22,23,23,24,24,25,25,26,26,27,27,28,28,29,29,30,30,31,31,32,32,33,33,34,34,35,35,36,36,37,37,38,38,39,39,40,40,41,41,42,42,43,43,44,44,45,45,46,46,47,47,48,48,49,49,50,50,51,51,52,52,53,53,54,54,55,55,56,56,57,57,58,58,59,59,60,60,61,61,62,62],"right_children":[2,4,6,8,10,12,14,16,18,20,22,24,26,28,30,32,34,36,38,40,42,44,46,48,50,52,54,56,58,60,62,64,66,68,70,72,74,76,78,80,82,84,86,88,90,92,94,96,98,100,102,104,106,108,110,112,114,116,118,120,122,124,126,-1,-1,-1,-1,-1,-1,-1,-1,-1,-1,-1,-1,-1,-1,-1,-1,-1,-1,-1,-1,-1,-1,-1,-1,-1,-1,-1,-1,-1,-1,-1,-1,-1,-1,-1,-1,-1,-1,-1,-1,-1,-1,-1,-1,-1,-1,-1,-1,-1,-1,-1,-1,-1,-1,-1,-1,-1,-1,-1,-1,-1,-1,-1,-1],"split_conditions":[7.01E2,1E0,1E0,7.039693E-1,6.916192E-1,1E0,1E0,1E0,5E0,1E0,8.379E3,7.0159525E-1,5.64E-1,6.5E-1,7.1414846E-1,3.1406724E-1,1.828829E4,3.4E1,1E0,3E0,9.05E-1,5.858E3,6.96E2,5.33E-1,1.164202E4,3.4930643E-1,8E0,8.7E1,6.3610715E-1,6.08616E3,8.35E2,2.5E-1,4.5E-1,1E-1,5.5E1,3.852011E-1,9.26E-1,2.5E-1,4.52E3,6E0,3.079908E-1,3.4E1,2.2E1,6.36E2,8.9934E2,4.59E-1,5.3E1,1.356593E4,5E0,3.3E1,6.21E-1,5E-2,9.54627E3,7.55E2,6.65E-1,1E1,6.4206845E-1,6.059654E-1,8.810626E-1,6.110692E-1,7.38E-1,8.27E2,1E0,-6.2052906E-2,2.6428076E-3,-3.2443132E-2,-1.6060455E-2,-1.662283E-2,-3.304522E-2,-7.436969E-2,-3.4885556E-2,4.5782264E-2,-2.4828406E-3,-1.5333684E-2,-5.0027173E-2,4.8125624E-3,3.17479E-2,3.290161E-2,-1.8815437E-2,-1.0141691E-3,1.4164087E-2,4.2673387E-2,-1.5192595E-2,-5.3829006E-3,-2.2864789E-2,-4.1015353E-2,2.6780615E-2,1.6228644E-2,-3.4758717E-2,-3.921298E-3,2.692059E-2,-1.740398E-2,8.123131E-3,-9.540423E-2,-8.248973E-3,2.3916462E-3,-2.3948133E-2,3.2884271E-3,1.8293602E-2,1.0981239E-2,2.961353E-2,7.142856E-5,2.0458624E-2,-5.7007708E-2,