tree
version=v4
num_class=1
num_tree_per_iteration=1
label_index=0
max_feature_idx=20
objective=binary sigmoid:1
feature_names=claim_id age gender medical_specialty insurance_type plan_type hospital_region payer_id cpt_code diagnosis_code claim_amount allowed_amount provider_experience_yrs patient_prev_denials risk_score chronic_condition urgent_case year month day_of_week claim_category
feature_infos=-1:0:1 [1:89] -1:0:1 -1:8:2:4:5:0:6:7:3:1 -1:0:2:3:1 -1:2:1:0:3 -1:0:2:3:4:1 -1:2:1:0:3:4 [27245:99213] -1:2:9:5:3:1:6:7:0:4:8 [100.06999999999999:29999.889999999999] [53.960000000000001:26888.400000000001] [1:34] [0:4] [0.10000000000000001:0.90000000000000002] [0:1] [0:1] [2023:2025] [1:12] [0:6] -1:0:1
tree_sizes=3247 3304 3389 3426 3374 3350 3341

Tree=0
num_leaves=31
num_cat=9
split_feature=10 4 4 12 11 14 10 2 9 10 9 11 11 14 2 14 14 9 9 14 11 14 14 19 12 10 11 9 13 10
split_gain=638.56 161.638 116.23 13.7585 9.00155 8.67283 8.19545 8.67512 8.09594 8.1585 7.68957 11.6959 7.66743 7.56543 7.13878 7.79448 7.10175 10.7163 6.87666 6.7937 12.4721 9.87067 6.64076 6.62423 6.78783 11.6795 11.6099 6.10651 12.8228 6.04543
threshold=9932.220000000003 0 1 9.5000000000000018 20128.245000000006 0.53850000000000009 11140.720000000001 2 3 17020.290000000005 4 20128.245000000006 20128.245000000006 0.11850000000000001 5 0.12650000000000003 0.20550000000000002 6 7 0.38150000000000006 22341.615000000002 0.42350000000000004 0.48950000000000005 4.5000000000000009 12.500000000000002 7114.9150000000009 3052.3400000000006 8 2.5000000000000004 27385.550000000003
decision_type=2 1 1 2 2 2 2 1 1 2 1 2 2 2 1 2 2 1 1 2 2 2 2 2 2 2 2 1 2 2
left_child=2 6 13 5 -5 10 7 -2 9 -7 -3 14 29 -1 -12 -16 17 -15 -8 -6 21 -21 -23 -18 25 26 -25 28 -22 -11
right_child=1 3 -4 4 19 8 18 -9 -10 12 11 -13 -14 16 15 -17 23 -19 -20 20 27 22 -24 24 -26 -27 -28 -29 -30 -31
leaf_value=0.4318278260560533 0.48838578976923813 0.46012317351624776 0.43658264805024594 0.4730519662560268 0.47440841468236938 0.46476309007705635 0.48411345435491476 0.46439911015806679 0.46438292263108344 0.43467747414415819 0.46102686749102784 0.50714070556463842 0.47059100110552904 0.45346054245732231 0.41905398397138816 0.48329082144865365 0.45509919644110708 0.47981052433091875 0.49068647406681826 0.38980015606376051 0.48166071446321629 0.48204630680078447 0.44220176525206994 0.47867171807778114 0.45850099372658892 0.49980906425456256 0.43798293144102957 0.48333869116382727 0.41049568325373115 0.38829444433322086
leaf_weight=26.281386092305183 74.108773395419121 149.63816225528717 1219.3616069853306 1632.9974763840437 76.950004324316978 36.462463587522507 954.890361353755 76.713235080242157 192.73016467690468 55.167233869433403 98.022467046976089 24.624001383781433 13.259077668190001 53.983387649059296 4.97215412557125 93.997389897704124 779.44435149431229 87.367851063609123 1421.7993106693029 7.8133850544691077 14.679693132638933 12.548769935965536 62.74384967982769 46.406771838665009 211.43493495881557 31.016770973801613 28.175540044903755 38.356617540121078 11.128154471516607 8.0501542985439283
leaf_count=111 313 632 5150 6897 325 154 4033 324 814 233 414 104 56 228 21 397 3292 369 6005 33 62 53 265 196 893 131 119 162 47 34
internal_value=0.468312 0.478501 0.447546 0.469534 0.471762 0.463435 0.487413 0.476185 0.457198 0.447187 0.468571 0.474386 0.436022 0.458453 0.470591 0.480064 0.458938 0.469486 0.488205 0.462368 0.456077 0.443292 0.448843 0.457578 0.463671 0.474024 0.4633 0.472637 0.455865 0.428771
internal_weight=7545.13 5061.65 2483.47 2534.14 1857.22 676.923 2527.51 150.822 305.669 112.939 371.254 221.616 76.4765 1264.11 196.992 98.9695 1237.83 141.351 2376.69 224.22 147.27 83.106 75.2926 1096.48 317.034 105.599 74.5823 64.1645 25.8078 63.2174
internal_count=31867 21378 10489 10703 7844 2859 10675 637 1291 477 1568 936 323 5339 832 418 5228 597 10038 947 622 351 318 4631 1339 446 315 271 109 267
cat_boundaries=0 1 2 3 4 5 6 7 8 9
cat_threshold=5 5 1 387 610 1 43 564 432
is_linear=0
shrinkage=1


Tree=1
num_leaves=31
num_cat=15
split_feature=8 3 8 3 8 20 20 20 20 20 4 4 4 20 4 8 8 8 8 8 8 8 8 8 4 4 11 7 14 1
split_gain=2423.17 765.843 315.594 249.365 209.918 154.452 127.326 113.66 73.0404 72.2968 47.7366 34.1694 32.3672 20.3073 20.2849 19.0713 61.4716 18.7595 67.3376 16.1394 47.2377 15.326 25.8243 42.5488 14.0224 11.8429 10.7014 10.453 10.1902 9.84136
threshold=59006.000000000007 0 77113.500000000015 1 77113.500000000015 2 3 4 5 6 7 8 9 10 11 96106.000000000015 86526.500000000015 96106.000000000015 86526.500000000015 86526.500000000015 96106.000000000015 99212.500000000015 86526.500000000015 96106.000000000015 12 13 2383.8600000000006 14 0.14350000000000002 86.500000000000014
decision_type=2 1 2 1 2 1 1 1 1 1 1 1 1 1 1 2 2 2 2 2 2 2 2 2 1 1 2 1 2 2
left_child=3 4 7 13 8 10 12 11 -2 17 21 -3 -5 -1 -10 16 -7 18 27 -12 -21 22 -4 -24 -8 -11 -26 -6 -28 -13
right_child=1 2 5 6 9 15 24 -9 14 25 19 29 -14 -15 -16 -17 -18 -19 -20 20 -22 -23 23 -25 26 -27 28 -29 -30 -31
leaf_value=0.069354332438972127 0.040989270594561679 0.0048261508664178589 -0.032627229588319352 0.047316746167416213 -0.02164896903421009 -0.070855852719668613 0.016504555279777445 -0.035507983786889817 0.019638750553335815 -0.01356780976962786 -0.056246793468823532 -0.016304814848478729 0.027896775934942733 0.052637039767422102 -0.0090676803366284611 -0.075828638730041309 -0.027386328261750525 -0.0069362165592106164 0.041895128971851117 -0.012892415949584422 -0.051291525068081961 -0.040437025586542469 0.013051618031620497 -0.028506595058353252 -0.014028582479119337 -0.035274571318478068 0.059607665236396351 0.001508936044047858 0.0045182823782016985 0.022450407401074984
leaf_weight=542.05451542139053 445.19904831051826 453.2903366535902 270.85462586581707 565.23527333140373 53.401411607861519 293.51175451278687 262.17980363965034 456.26428228616714 119.35675978660583 170.86511579155922 274.84573730826378 429.39855922758579 576.80723440647125 273.22866342961788 110.63810740411282 276.92101569473743 112.50188603997231 289.39332966506481 115.05107039213181 111.49774856865406 284.33845214545727 142.38073775172234 109.37295530736446 140.97936168313026 88.228608220815659 166.67222021520138 8.8209245502948743 210.93496032059193 173.57444907724857 17.030469879508018
leaf_count=2295 1885 1923 1149 2398 226 1234 1105 1918 503 720 1161 1814 2437 1149 464 1164 473 1225 487 471 1201 604 464 598 370 699 37 893 728 72
internal_value=-0.000161221 -0.0200497 -0.0337337 0.0402102 0.00755684 -0.0463728 0.02858 -0.0151802 0.0291692 -0.006869 -0.0364745 -0.00487153 0.038167 0.0629793 0.00628926 -0.0657114 -0.0588109 0.00265197 0.00996575 -0.0462489 -0.0404754 -0.0255142 -0.0219272 -0.0103508 0.00856701 -0.0257334 0.00025775 -0.00393135 0.00718249 -0.0145015
internal_weight=7544.83 5054.7 3373.19 2490.13 1681.51 2017.2 1674.85 1355.98 675.194 1006.32 1334.27 899.719 1142.04 815.283 229.995 682.935 406.014 668.781 379.387 670.682 395.836 663.588 521.207 250.352 532.804 337.537 270.624 264.336 182.395 446.429
internal_count=31867 21348 14246 10519 7102 8519 7075 5727 2852 4250 5648 3809 4835 3444 967 2871 1707 2831 1606 2833 1672 2815 2211 1062 2240 1419 1135 1119 765 1886
cat_boundaries=0 1 2 3 4 5 6 7 8 9 10 11 12 13 14 15
cat_threshold=137 137 1 1 1 1 1 5 5 5 1 5 5 5 16
is_linear=0
shrinkage=0.05


Tree=2
num_leaves=31
num_cat=8
split_feature=8 8 10 10 10 4 4 4 4 4 8 8 8 8 8 8 12 14 18 15 6 9 11 14 18 4 13 13 10 14
split_gain=2200.32 466.366 206.907 165.928 125.583 60.3377 52.0489 35.5013 23.4986 22.8996 19.9269 88.7324 19.7025 74.7693 13.8993 61.8888 11.5323 9.49191 8.76218 8.51201 8.39462 8.6833 14.6725 10.8009 8.33948 7.97666 7.27451 7.01067 6.71874 7.02365
threshold=59006.000000000007 77113.500000000015 10680.025000000001 10070.725000000002 9932.220000000003 0 1 2 3 4 96106.000000000015 86526.500000000015 86526.500000000015 96106.000000000015 96106.000000000015 86526.500000000015 11.500000000000002 0.11050000000000001 2.5000000000000004 1.0000000180025095e-35 5 6 16033.560000000001 0.84750000000000003 5.5000000000000009 7 2.5000000000000004 2.5000000000000004 6525.7200000000003 0.23850000000000002
decision_type=2 2 2 2 2 1 1 1 1 1 2 2 2 2 2 2 2 2 2 2 1 1 2 2 2 1 2 2 2 2
left_child=4 3 7 8 9 10 24 14 -2 -1 11 -4 -7 -14 15 -3 18 -12 -15 -10 -8 -22 23 26 27 -6 -23 -5 29 -11
right_child=1 2 5 6 25 12 20 -9 19 28 17 -13 13 16 -16 -17 -18 -19 -20 -21 21 22 -24 -25 -26 -27 -28 -29 -30 -31
leaf_value=0.03072183039328847 -0.01019128098919804 -0.044614316579889998 -0.018939267232574188 0.019731781314733191 0.051985951886923933 -0.03914900655990846 0.0041746187841795483 -0.059099453755731092 -0.03578794491194269 -0.010413154509619096 0.044890978325212612 0.025367932819133122 0.0034374189657770358 -0.018745607244570691 -0.047178606086542924 0.0034854690071325386 -0.030227809869302631 -0.021501630908941572 -0.053342661388650563 -0.018772620121701888 0.0021184147452163907 0.011416458547049603 -0.041372532058311422 -0.067735695079940636 0.015225641449501538 0.039832838156803274 -0.020680543796654346 0.035989260055671414 0.021670583079395893 0.011795202201026889
leaf_weight=398.45016603171825 352.44197745621204 240.06518331170082 389.57814227044582 157.96152740716934 825.40264235436916 397.738720074296 410.43193797767162 535.15313419699669 232.82059536874294 42.788036450743675 5.4553882181644431 159.16530410945415 168.03997048735619 21.723921582102776 231.02145610749722 92.698478281497955 280.22015804052353 407.78958483040333 116.14754740893841 107.40963691473007 127.43595677614212 49.435897275805473 42.376244783401489 6.3821584731340399 402.37956200540066 846.39854200184345 27.457522049546242 114.29165522754192 140.94404803216457 211.97360345721245
leaf_count=1691 1480 1001 1644 673 3550 1666 1736 2221 971 180 23 679 711 91 963 389 1175 1720 486 448 539 209 179 27 1714 3612 116 487 594 892
internal_value=-0.00014113 -0.0189659 -0.0313438 -0.000407881 0.0386054 -0.0215486 0.00987477 -0.0486877 -0.0202726 0.0222342 -0.0122058 -0.00608778 -0.0302522 -0.0247311 -0.0370984 -0.0312151 -0.0360526 -0.0206252 -0.0478913 -0.0295478 -0.000211837 -0.00721364 -0.0161367 -0.00523267 0.0195092 0.0463823 -4.49143e-05 0.0265567 0.012593 0.00806524
internal_weight=7541.58 5075.62 3044.8 2030.82 2465.96 1945.86 1338.15 1098.94 692.672 794.156 961.988 548.743 983.87 586.132 563.785 332.764 418.092 413.245 137.871 340.23 663.52 253.088 125.652 83.2756 674.633 1671.8 76.8934 272.253 395.706 254.762
internal_count=31867 21348 12769 8579 10519 8195 5680 4574 2899 3357 4066 2323 4129 2463 2353 1390 1752 1743 577 1419 2806 1070 531 352 2874 7162 325 1160 1666 1072
cat_boundaries=0 1 2 3 4 5 6 7 8
cat_threshold=5 5 5 5 5 19 781 5
is_linear=0
shrinkage=0.05


Tree=3
num_leaves=31
num_cat=5
split_feature=8 3 8 3 8 10 10 10 10 20 10 8 8 8 8 8 8 11 7 18 18 14 14 9 11 19 10 10 14 1
split_gain=1999.58 680.826 246.327 236.456 174.779 121.423 111.592 91.1562 64.7663 61.8223 20.3358 18.8192 93.0499 14.9076 48.5436 14.5295 58.0413 11.0466 9.23437 8.1365 7.87823 9.06696 7.79446 7.2051 11.5636 8.71423 8.80104 6.94403 6.8744 6.4194
threshold=59006.000000000007 0 77113.500000000015 1 77113.500000000015 9932.220000000003 9932.220000000003 10070.725000000002 11140.720000000001 2 9344.9850000000024 86526.500000000015 96106.000000000015 96106.000000000015 86526.500000000015 96106.000000000015 86526.500000000015 5918.5700000000006 3 1.5000000000000002 10.500000000000002 0.32450000000000007 0.22650000000000003 4 12235.105000000001 1.5000000000000002 22559.005000000001 1295.2400000000002 0.19150000000000003 75.500000000000014
decision_type=2 1 2 1 2 2 2 2 2 1 2 2 2 2 2 2 2 2 1 2 2 2 2 1 2 2 2 2 2 2
left_child=3 4 7 10 9 13 -5 19 -6 -2 -1 -7 -13 14 -4 16 18 27 20 -3 21 -10 28 24 -17 26 -25 -16 -14 -21
right_child=1 2 5 6 8 11 -8 -9 15 -11 -12 12 22 -15 17 23 -18 -19 -20 29 -22 -23 -24 25 -26 -27 -28 -29 -30 -31
leaf_value=0.04857090647262121 0.038941797903918281 -0.01025953910554004 -0.063294810886386138 0.0068260609626707748 -0.021276777315396261 -0.040135966054903639 0.034776785403395176 -0.0050364137199803141 0.022596436814350473 0.0069772888699881092 0.065747340522781306 -0.00053264832794485751 -0.033822294308933389 -0.067630392726795802 0.017581751898019141 0.024751700983847779 0.042170884324709217 -0.059878955586173579 0.0033841522167434787 -0.03685790460664095 -0.076388239425767959 -0.028594210280394036 -0.041306828390361927 -0.050040842890204232 -0.00590462523743267 -0.0041526392575722132 -0.0020488755385124793 -0.023067438694156412 -0.0036964492403910934 -0.019400507942129205
leaf_weight=252.74501629173756 439.57182435691357 38.262567564845085 298.49899706244469 523.47535911202431 380.30718012154102 556.40665745735168 1123.5503652244806 896.40853689610958 11.693981751799582 230.63732519745827 541.53425121307373 220.59338437020779 70.482425972819328 282.76606115698814 12.040841162204741 47.123074561357498 107.63971425592899 18.773478478193283 199.87884332239628 363.81839543581009 5.9736132323741904 33.23180615901947 481.19065415859222 24.986720114946365 88.587004974484444 99.070971950888634 15.465860500931738 82.435450971126556 25.89294259250164 61.571196794509888
leaf_count=1082 1885 159 1226 2216 1578 2318 4859 3800 49 967 2362 937 294 1160 50 198 462 78 841 1512 25 139 2005 105 372 416 65 343 108 256
internal_value=-0.000123205 -0.017956 -0.0307527 0.0370815 0.00808202 -0.0417926 0.0257369 -0.0143459 -0.00496533 0.0279419 0.0595322 -0.0330774 -0.0281567 -0.0587907 -0.0527201 0.00482453 0.0114593 -0.0248478 -0.00172282 -0.0323446 -0.0187573 -0.0152695 -0.0387073 -0.00381547 0.00441495 -0.0113256 -0.0316925 -0.0178868 -0.0257285 -0.0343311
internal_weight=7534.61 5093.31 3409.14 2441.3 1684.17 2049.08 1647.03 1360.06 1013.96 670.209 794.279 1354.57 798.159 694.515 411.749 633.652 358.418 113.25 250.778 463.652 50.8994 44.9258 577.566 275.234 135.71 139.524 40.4526 94.4763 96.3754 425.39
internal_count=31867 21348 14246 10519 7102 8519 7075 5727 4250 2852 3444 5662 3344 2857 1697 2672 1516 471 1054 1927 213 188 2407 1156 570 586 170 393 402 1768
cat_boundaries=0 1 2 3 4 5
cat_threshold=137 137 1 16 453
is_linear=0
shrinkage=0.05


Tree=4
num_leaves=31
num_cat=9
split_feature=8 3 3 8 8 10 10 10 10 10 4 4 4 10 4 8 8 4 12 4 4 8 8 8 8 8 1 11 14 11
split_gain=1816.37 609.91 221.763 219.084 159.044 107.972 102.743 81.4666 58.2411 56.9727 38.719 31.2584 28.5808 19.591 16.163 15.3186 42.1559 14.1412 12.8182 12.2016 11.4892 10.6429 18.9059 28.8374 9.58136 22.7725 8.92221 8.91667 9.33446 8.86791
threshold=59006.000000000007 0 1 77113.500000000015 77113.500000000015 10550.635000000002 9932.220000000003 10070.725000000002 11140.720000000001 10550.635000000002 2 3 4 9344.9850000000024 5 96106.000000000015 86526.500000000015 6 11.500000000000002 7 8 99212.500000000015 86526.500000000015 96106.000000000015 86526.500000000015 96106.000000000015 86.500000000000014 2383.8600000000006 0.13650000000000004 5918.5700000000006
decision_type=2 1 1 2 2 2 2 2 2 2 1 1 1 2 1 2 2 1 2 1 1 2 2 2 2 2 2 2 2 2
left_child=2 4 13 7 9 15 20 -3 19 14 21 -8 -9 -1 -2 16 -5 -10 -12 -6 -4 22 -7 -24 -20 -26 -14 -22 -29 -18
right_child=1 3 6 5 8 10 11 12 17 -11 18 -13 26 -15 -16 -17 29 -19 24 -21 27 -23 23 -25 25 -27 -28 28 -30 -31
leaf_value=0.046760777032787748 0.019017241678202967 -0.030538759250194159 0.013779114839408255 -0.058103423883185734 -0.0096172909692288124 -0.02722364368244657 0.042320762198167217 0.0041632961308119042 0.012044997943273485 0.037838202688011524 -0.049830313813857961 0.023523413111388704 -0.015243831667680076 0.063748261855221977 -0.0061107256810919788 -0.063331836367301705 -0.016453892522572781 -0.002763788183358715 -0.043934603977041055 -0.029126116223987308 -0.014017302007544223 -0.033507056969459825 0.011469926085868516 -0.023025164103994834 -0.0048081951689241589 -0.038139508712991994 0.021723592818762509 0.060010808154205855 0.0030189081472101306 -0.051778774437298926
leaf_weight=249.4860578328371 125.82188232243061 466.43575301766396 256.02343736588955 319.97401982545853 195.87402141094208 267.39422254264355 547.87947557866573 449.49208742380142 308.19035413861275 422.53138110041618 227.12308186292648 564.71925984323025 431.01669605076313 530.86194574832916 116.94574145972729 303.46871849894524 95.266349464654922 324.52129271626472 183.52787488698959 185.91963155567646 88.230975419282913 141.35759198665619 107.18829661607742 139.35823741555214 70.666159316897392 186.45192389190197 16.964444786310196 7.4999419152736655 170.87933856248856 21.839255228638649
leaf_count=1082 533 1927 1093 1303 814 1112 2410 1916 1307 1831 937 2449 1812 2362 488 1234 395 1365 755 764 370 587 459 580 298 769 72 32 721 90
internal_value=-0.000109116 -0.0170055 0.0356153 -0.0290527 0.00770313 -0.0394144 0.0246312 -0.0135883 -0.00470995 0.0267475 -0.0308579 0.0333716 -0.00477877 0.0575793 0.00744427 -0.0547015 -0.0487094 0.00459618 -0.0395884 -0.0201322 0.00649547 -0.021036 -0.0180152 -0.00802812 -0.0352078 -0.0289788 -0.0135416 -0.000979044 0.00541513 -0.0230417
internal_weight=7522.91 5107.33 2415.58 3427.52 1679.8 2063.62 1635.23 1363.91 1014.51 665.299 1323.07 1112.6 897.473 780.348 242.768 740.548 437.08 632.712 667.769 381.794 522.634 655.298 513.941 246.547 440.646 257.118 447.981 266.61 178.379 117.106
internal_count=31867 21348 10519 14246 7102 8519 7075 5727 4250 2852 5497 4859 3800 3444 1021 3022 1788 2672 2759 1578 2216 2738 2151 1039 1822 1067 1884 1123 753 485
cat_boundaries=0 1 2 3 4 5 6 7 8 9
cat_threshold=137 137 5 5 5 5 5 5 5
is_linear=0
shrinkage=0.05


Tree=5
num_leaves=31
num_cat=11
split_feature=8 3 3 8 8 10 10 20 10 10 4 4 4 4 8 8 10 4 4 8 8 18 4 4 8 8 18 10 18 14
split_gain=1686.67 573.553 210.436 187.292 126.732 108.796 100.077 85.9654 59.5881 44.894 32.0764 28.8208 18.0211 17.6909 16.663 49.2004 15.5677 15.4949 15.4058 14.8941 38.8019 12.7622 10.7695 9.45185 9.41599 25.1682 8.32463 7.93345 9.32781 7.80121
threshold=59006.000000000007 0 1 77113.500000000015 77113.500000000015 9932.220000000003 9932.220000000003 2 10680.025000000001 10550.635000000002 3 4 5 6 96106.000000000015 86526.500000000015 7114.9150000000009 7 8 96106.000000000015 86526.500000000015 6.5000000000000009 9 10 96106.000000000015 86526.500000000015 7.5000000000000009 4446.0000000000009 8.5000000000000018 0.67250000000000021
decision_type=2 1 1 2 2 2 2 1 2 2 1 1 1 1 2 2 2 1 1 2 2 2 1 1 2 2 2 2 2 2
left_child=2 4 16 7 9 18 14 13 23 17 19 -7 26 21 15 -5 -1 -2 -4 20 -8 -3 -11 -6 25 -12 -10 28 -17 -15
right_child=1 3 5 6 8 11 10 -9 12 22 24 -13 -14 29 -16 27 -18 -19 -20 -21 -22 -23 -24 -25 -26 -27 -28 -29 -30 -31
leaf_value=0.044281236466293533 0.018759456453596241 0.011440013080016053 0.013652049711343575 -0.05726542136366463 -0.0092500894932623905 0.041654344618282053 -0.024770460135599529 -0.030865122751690739 0.021538771450093433 0.043937165016367227 -0.040906580187222014 0.023535581741695188 -0.0023288908664897269 -0.007712875953619568 -0.06209682536942749 0.014505548085803019 0.061102263857064069 -0.0059277584215432881 -0.0032143544736968998 -0.029650768171614203 0.009965841397605462 -0.0055021082725074111 0.022498678801879033 -0.02703718343826686 -0.044942439885887447 -0.012470108417127496 0.0049575117444030717 -0.029762282139382302 -0.030777484786168957 -0.02283095397839225
leaf_weight=180.30253158509731 130.44822056591511 215.58946214616299 268.45299771428108 293.15802972018719 180.87830673158169 550.39729246497154 277.32762622833252 471.06931819021702 184.79276219010353 210.00523203611374 281.41864953935146 568.95902505517006 329.84545801579952 332.11617757380009 288.45040686428547 29.233830645680428 580.09045273065567 112.50169484317303 261.46509245038033 290.53896453976631 113.21383112668991 229.46565756201744 206.63019658625126 187.12557478249073 290.42719280719757 107.54728674888611 128.21554911136627 67.047240480780602 18.612970560789108 114.83654178678989
leaf_count=792 555 921 1150 1185 750 2453 1147 1936 786 925 1149 2484 1386 1393 1164 121 2628 469 1101 1201 486 978 900 765 1188 451 545 276 77 481
internal_value=0.000117343 -0.0161962 0.0345802 -0.0278785 0.00784191 0.0240454 -0.0374848 -0.0135863 -0.00323585 0.0249382 -0.0295937 0.0330271 0.00594906 -0.00446139 -0.0528985 -0.0463963 0.0563723 0.00785582 0.00552702 -0.0207732 -0.0147008 0.0026454 0.0348993 -0.0192807 -0.0375773 -0.033044 0.0142902 -0.0186632 -0.00311009 -0.0113434
internal_weight=7500.16 5090.5 2409.67 3420.05 1670.44 1649.27 2056.98 1363.08 1010.86 659.585 1360.47 1119.36 642.854 892.008 696.502 408.052 760.393 242.95 529.918 681.08 390.541 445.055 416.635 368.004 679.393 388.966 313.008 114.894 47.8468 446.953
internal_count=31843 21235 10608 14154 7081 7188 8445 5709 4232 2849 5622 4937 2717 3773 2823 1659 3420 1024 2251 2834 1633 1899 1825 1515 2788 1600 1331 474 198 1874
cat_boundaries=0 1 2 3 4 5 6 7 8 9 10 11
cat_threshold=137 137 1 5 5 5 5 5 5 5 5
is_linear=0
shrinkage=0.05


Tree=6
num_leaves=31
num_cat=11
split_feature=8 3 3 8 8 10 10 20 10 10 4 4 4 4 11 8 8 4 4 8 8 4 12 15 14 4 8 8 1 10
split_gain=1534.7 515.384 198.053 167.572 116.06 100.361 89.8335 76.9861 53.8641 41.5374 28.6281 27.1046 16.3461 15.921 15.1723 14.9244 44.0163 14.161 14.0139 13.2812 34.8298 10.1818 9.12548 8.53836 9.34049 8.51247 8.36477 22.4834 8.50976 8.29449
threshold=59006.000000000007 0 1 77113.500000000015 77113.500000000015 9932.220000000003 9932.220000000003 2 10680.025000000001 10550.635000000002 3 4 5 6 5393.3100000000004 96106.000000000015 86526.500000000015 7 8 96106.000000000015 86526.500000000015 9 19.500000000000004 1.0000000180025095e-35 0.11850000000000001 10 96106.000000000015 86526.500000000015 6.5000000000000009 22444.77
decision_type=2 1 1 2 2 2 2 1 2 2 1 1 1 1 2 2 2 1 1 2 2 1 2 2 2 1 2 2 2 2
left_child=2 4 14 7 9 18 15 13 25 17 19 -7 -10 22 -1 16 -5 -2 -4 20 -8 -11 29 24 -15 -6 27 28 -12 -3
right_child=1 3 5 6 8 11 10 -9 12 21 26 -13 -14 23 -16 -17 -18 -19 -20 -21 -22 -23 -24 -25 -26 -27 -28 -29 -30 -31
leaf_value=0.043539374435132991 0.017967956257963512 0.0035466643142149784 0.013039755888440141 -0.054122736177955127 -0.008797144553247805 0.040160189433056187 -0.023427363198968598 -0.029177779203936972 0.013625256819947112 0.042407234063061128 -0.071229168068472903 0.022536236194427003 -0.0022147576077312585 0.048923929612798941 0.059671326549152449 -0.058699839885944655 -0.017675011794205952 -0.0056492791502046856 -0.0030573960984234712 -0.028020881871817883 0.0094930808847957307 0.02156324251311828 0.010726610007922853 -0.021752557360379583 -0.0078886792804751405 -0.025659053359937796 -0.04242581924524183 -0.011814617405441138 -0.036338369464427214 -0.01508673921252978
leaf_weight=198.72918312251568 129.84110088646412 153.17547008395195 267.49994577467442 294.63046483695507 181.18844300508499 542.89622497558594 278.53336103260517 473.3347811549902 311.8722557425499 207.13698928058147 18.713401570916176 565.02515241503716 330.01200760900974 7.4075328558683387 546.76851750910282 289.84665660560131 115.23201289772987 112.63446226716042 261.65213938057423 292.02690303325653 112.91710035502911 205.28310596942902 193.67160357534885 130.56951333582401 310.06403464078903 187.83527940511703 292.22326198220253 107.83093011379242 264.23151722550392 97.891832172870636
leaf_count=886 555 654 1150 1185 750 2453 1147 1936 1331 925 76 2484 1386 31 2534 1164 474 469 1101 1201 486 900 827 546 1297 765 1188 451 1073 418
internal_value=0.000126251 -0.0153559 0.0332541 -0.0263865 0.00748573 0.0230417 -0.0354468 -0.0128765 -0.0030919 0.0239278 -0.0279864 0.0317381 0.00565919 -0.00423394 0.0546381 -0.0500163 -0.0438755 0.00750534 0.00526878 -0.0196635 -0.0139312 0.0335832 0.00251536 -0.0107497 -0.00656308 -0.0183137 -0.0355072 -0.0312421 -0.038646 -0.00371855
internal_weight=7480.68 5098.1 2382.57 3432.3 1665.8 1637.07 2066.19 1366.11 1010.91 654.896 1366.48 1107.92 641.884 892.78 745.498 699.709 409.862 242.476 529.152 683.477 391.45 412.42 444.739 448.041 317.472 369.024 682.999 390.776 282.945 251.067
internal_count=31843 21235 10608 14154 7081 7188 8445 5709 4232 2849 5622 4937 2717 3773 3420 2823 1659 1024 2251 2834 1633 1825 1899 1874 1328 1515 2788 1600 1149 1072
cat_boundaries=0 1 2 3 4 5 6 7 8 9 10 11
cat_threshold=137 137 1 5 5 5 5 5 5 5 5
is_linear=0
shrinkage=0.05


end of trees

feature_importances:
cpt_code=57
insurance_type=37
claim_amount=33
risk_score=17
allowed_amount=12
medical_specialty=10
claim_category=9
diagnosis_code=7
month=7
provider_experience_yrs=5
age=4
patient_prev_denials=3
gender=2
payer_id=2
chronic_condition=2
day_of_week=2
hospital_region=1

parameters:
[boosting: gbdt]
[objective: binary]
[metric: auc,binary_logloss]
[tree_learner: serial]
[device_type: cpu]
[data_sample_strategy: bagging]
[data: ]
[valid: ]
[num_iterations: 300]
[learning_rate: 0.05]
[num_leaves: 31]
[num_threads: 0]
[seed: 42]
[deterministic: 0]
[force_col_wise: 0]
[force_row_wise: 0]
[histogram_pool_size: -1]
[max_depth: -1]
[min_data_in_leaf: 20]
[min_sum_hessian_in_leaf: 0.001]
[bagging_fraction: 0.8]
[pos_bagging_fraction: 1]
[neg_bagging_fraction: 1]
[bagging_freq: 5]
[bagging_seed: 400]
[bagging_by_query: 0]
[feature_fraction: 0.8]
[feature_fraction_bynode: 1]
[feature_fraction_seed: 30056]
[extra_trees: 0]
[extra_seed: 12879]
[early_stopping_round: 0]
[early_stopping_min_delta: 0]
[first_metric_only: 0]
[max_delta_step: 0]
[lambda_l1: 0]
[lambda_l2: 0]
[linear_lambda: 0]
[min_gain_to_split: 0]
[drop_rate: 0.1]
[max_drop: 50]
[skip_drop: 0.5]
[xgboost_dart_mode: 0]
[uniform_drop: 0]
[drop_seed: 17869]
[top_rate: 0.2]
[other_rate: 0.1]
[min_data_per_group: 100]
[max_cat_threshold: 32]
[cat_l2: 10]
[cat_smooth: 10]
[max_cat_to_onehot: 4]
[top_k: 20]
[monotone_constraints: ]
[monotone_constraints_method: basic]
[monotone_penalty: 0]
[feature_contri: ]
[forcedsplits_filename: ]
[refit_decay_rate: 0.9]
[cegb_tradeoff: 1]
[cegb_penalty_split: 0]
[cegb_penalty_feature_lazy: ]
[cegb_penalty_feature_coupled: ]
[path_smooth: 0]
[interaction_constraints: ]
[verbosity: -1]
[saved_feature_importance_type: 0]
[use_quantized_grad: 0]
[num_grad_quant_bins: 4]
[quant_train_renew_leaf: 0]
[stochastic_rounding: 1]
[linear_tree: 0]
[max_bin: 255]
[max_bin_by_feature: ]
[min_data_in_bin: 3]
[bin_construct_sample_cnt: 200000]
[data_random_seed: 175]
[is_enable_sparse: 1]
[enable_bundle: 1]
[use_missing: 1]
[zero_as_missing: 0]
[feature_pre_filter: 1]
[pre_partition: 0]
[two_round: 0]
[header: 0]
[label_column: ]
[weight_column: ]
[group_column: ]
[ignore_column: ]
[categorical_feature: 0,2,3,4,5,6,7,9,20]
[forcedbins_filename: ]
[precise_float_parser: 0]
[parser_config_file: ]
[objective_seed: 16083]
[num_class: 1]
[is_unbalance: 0]
[scale_pos_weight: 1]
[sigmoid: 1]
[boost_from_average: 1]
[reg_sqrt: 0]
[alpha: 0.9]
[fair_c: 1]
[poisson_max_delta_step: 0.7]
[tweedie_variance_power: 1.5]
[lambdarank_truncation_level: 30]
[lambdarank_norm: 1]
[label_gain: ]
[lambdarank_position_bias_regularization: 0]
[eval_at: ]
[multi_error_top_k: 1]
[auc_mu_weights: ]
[num_machines: 1]
[local_listen_port: 12400]
[time_out: 120]
[machine_list_filename: ]
[machines: ]
[gpu_platform_id: -1]
[gpu_device_id: -1]
[gpu_use_dp: 0]
[num_gpu: 1]

end of parameters

pandas_categorical:[]
